svm_type c_svc
kernel_type rbf
gamma 0.1
nr_class 2
total_sv 239
rho 0.305651
label 1 -1
probA -7.50813
probB -0.977609
nr_sv 119 120
SV
1 1:-0.12943 2:-0.626899 3:-0.668527 4:-0.680815 5:-0.997129 7:-0.962893 8:-0.853686 9:-0.611863 10:0.212942 11:-0.656617 12:-0.926098 13:-0.87576 14:-0.678178 15:-0.804084 16:-0.883587 17:-0.858673 18:-0.28708 19:-0.654658 20:-0.943954 21:-0.872777 22:-0.953732 23:-0.823083 24:-0.564203 25:-0.26017 26:-0.847466 27:-0.794783 28:-0.770642 
1 1:0.0435453 2:-0.736896 3:-0.655002 4:-0.839644 5:-0.999525 7:-0.96687 8:-0.82582 9:-0.689549 10:-0.0929349 11:-0.188053 12:-0.887708 13:-0.953793 14:-0.863034 15:-0.573804 16:-0.742389 17:-0.669133 18:-0.699206 19:-0.545588 20:-0.85741 21:-0.949531 22:-0.975509 23:-0.77867 24:-0.170653 25:-0.467495 26:-0.84043 27:-0.74713 28:-0.752294 
1 1:0.215223 2:-0.912225 3:-0.873372 4:-0.925564 5:-0.990376 7:-0.982347 8:-0.950815 9:-0.650675 10:-0.215602 11:-0.393951 12:-0.629046 13:-0.974158 14:-0.97677 15:-0.967495 16:-0.482383 17:-0.719799 18:-0.702419 19:-0.443181 20:-0.756181 21:-0.921493 22:-0.953944 23:-0.799705 24:0.0593097 25:-0.579955 26:-0.973866 27:-0.933913 28:-0.942661 
1 1:0.546929 2:-0.942214 3:-0.900953 4:-0.960374 5:-0.999822 7:-0.997825 8:-0.964609 9:-0.930252 10:-0.753116 11:-0.238356 12:-0.361719 13:-0.988587 14:-0.925151 15:-0.831159 16:-0.614833 17:-0.211036 18:-0.860487 19:-0.956044 20:-0.9936 21:-0.994568 22:-0.996743 23:-0.987615 24:-0.262888 25:-0.26123 26:-0.976332 27:-0.967826 28:-0.979358 
1 1:0.0407681 2:-0.813474 3:-0.704508 4:-0.847547 5:-0.999069 7:-0.959789 8:-0.818801 9:-0.477651 10:-0.413176 11:-0.307449 12:-0.777388 13:-0.956785 14:-0.804465 15:-0.67238 16:-0.567639 17:-0.714002 18:-0.784804 19:-0.539135 20:-0.899674 21:-0.913432 22:-0.927583 23:-0.73827 24:-0.278857 25:-0.420643 26:-0.819344 27:-0.626957 28:-0.557339 
1 1:0.308735 2:-0.895137 3:-0.859443 4:-0.91399 5:-0.996891 7:-0.991811 8:-0.920223 9:-0.820218 10:-0.552684 11:-0.14239 12:-0.701746 13:-0.993051 14:-0.98873 15:-0.9457 16:-0.604048 17:-0.535653 18:-0.588987 19:-0.739852 20:-0.959739 21:-0.966004 22:-0.994541 23:-0.976671 24:-0.32051 25:-0.290667 26:-0.964376 27:-0.949391 28:-0.931193 
1 1:0.607068 2:-0.993114 3:-0.98538 4:-0.995027 5:-0.999921 7:-0.99964 8:-0.999771 9:-0.998965 10:-0.99126 11:0.025141 12:-0.432375 13:-0.999831 14:-0.999458 15:-0.907366 16:-0.473495 17:-0.277364 18:-0.872444 19:-0.999814 20:-0.999686 21:-0.999474 22:-0.999849 23:-0.999197 24:-0.562209 25:-0.0132293 26:-0.999407 27:-0.998609 28:-1 
1 1:0.0526861 2:-0.922102 3:-0.908166 4:-0.93432 5:-0.998851 7:-0.992005 8:-0.967319 9:-0.671823 10:0.0131179 11:-0.3332 12:-0.932086 13:-0.997828 14:-0.984491 15:-0.54804 16:-0.751225 17:-0.884455 18:-0.430849 19:-0.560628 20:-0.970157 21:-0.970735 22:-0.992369 23:-0.977359 24:-0.263999 25:-0.32711 26:-0.987695 27:-0.976174 28:-0.954128 
0.1363085462479577 1:0.0203547 2:-0.695767 3:-0.606244 4:-0.723269 5:-0.954931 7:-0.845878 8:-0.760915 9:-0.335951 10:-0.312671 11:-0.128759 12:-0.667597 13:0.166972 14:-0.460711 15:-0.587759 16:-0.481448 17:-0.592388 18:-0.828143 19:-0.923158 20:-0.922252 21:-0.257513 22:-0.933585 23:-0.852326 24:0.39773 25:-0.515102 26:-0.845861 27:-0.336348 28:0.119266 
1 1:0.204176 2:-0.840496 3:-0.724186 4:-0.851397 5:-0.999129 7:-0.991257 8:-0.957426 9:-0.811075 10:-0.292044 11:-0.134932 12:-0.831906 13:-0.850014 14:-0.768996 15:-0.776248 16:-0.83066 17:-0.577912 18:-0.42403 19:-0.912349 20:-0.987762 21:-0.970385 22:-0.993726 23:-0.971986 24:-0.0547534 25:-0.55705 26:-0.956002 27:-0.948 28:-0.938073 
1 1:-0.307064 2:-0.918402 3:-0.903442 4:-0.941773 5:-0.996871 7:-0.937426 8:-0.660031 9:-0.102321 10:-0.14796 11:-0.626517 12:-0.97911 13:-0.923801 14:-0.399859 15:-0.729088 16:-0.897361 17:-0.843381 18:-0.673124 19:-0.656048 20:-0.418293 21:-0.935337 22:-0.990801 23:-0.943152 24:-0.499497 25:-0.0297203 26:-0.826055 27:-0.713391 28:-0.676606 
1 1:0.453931 2:-0.880052 3:-0.815018 4:-0.938058 5:-0.99996 7:-0.999113 8:-0.98126 9:-0.907218 10:-0.598529 11:-0.0371637 12:-0.494661 13:-0.932174 14:-0.823046 15:-0.784412 16:-0.589392 17:-0.375955 18:-0.636002 19:-0.97178 20:-0.997134 21:-0.990537 22:-0.993455 23:-0.962271 24:0.143211 25:-0.548271 26:-0.989963 27:-0.985913 28:-0.986239 
1 1:-0.20378 2:-0.785881 3:-0.712688 4:-0.874286 5:-0.994178 7:-0.865581 8:-0.576434 9:-0.596864 10:-0.335776 11:-0.529158 12:-0.918875 13:-0.702273 14:-0.681283 15:-0.766462 16:-0.812516 17:-0.779803 18:-0.710455 19:-0.738623 20:-0.714271 21:-0.869622 22:-0.92345 23:-0.84941 24:-0.527246 25:-0.390605 26:-0.687466 27:-0.79913 28:-0.763761 
1 1:-0.0307839 2:-0.805691 3:-0.650935 4:-0.900015 5:-0.997248 7:-0.984578 8:-0.865325 9:-0.326759 10:-0.521706 11:-0.483129 12:-0.8169 13:-0.947737 14:-0.390363 15:-0.845402 16:-0.835834 17:-0.677903 18:-0.646579 19:-0.688773 20:-0.975301 21:-0.94147 22:-0.989986 23:-0.980292 24:-0.426475 25:-0.215244 26:-0.926123 27:-0.892348 28:-0.841743 
1 1:-0.367305 2:-0.849078 3:-0.79284 4:-0.876194 5:-0.994653 7:-0.974837 8:-0.592661 9:-0.305855 10:-0.516675 11:-0.77133 12:-0.972264 13:-0.749155 14:-0.581084 15:-0.838586 16:-0.91138 17:-0.908664 18:-0.826577 19:-0.54246 20:-0.756299 21:-0.922895 22:-0.985191 23:-0.855423 24:-0.623329 25:-0.413424 26:-0.810621 27:-0.636 28:-0.658257 
1 1:0.329432 2:-0.554379 3:-0.446148 4:-0.65247 5:-0.945149 7:-0.902674 8:-0.865357 9:-0.90432 10:-0.776175 11:-0.336848 12:-0.503567 13:-0.800333 14:-0.837109 15:-0.74066 16:-0.57158 17:-0.427099 18:-0.962947 19:-0.990618 20:-0.967422 21:-0.632174 22:-0.97388 23:-0.976884 24:-0.311284 25:-0.431341 26:-0.868983 27:-0.596522 28:-0.426606 
1 1:0.431888 2:-0.847823 3:-0.784602 4:-0.921253 5:-0.996792 7:-0.988569 8:-0.936172 9:-0.807703 10:-0.708366 11:-0.501303 12:-0.435541 13:-0.891806 14:-0.822537 15:-0.848261 16:-0.554975 17:-0.509393 18:-0.875157 19:-0.91529 20:-0.987343 21:-0.953912 22:-0.982687 23:-0.948149 24:-0.445198 25:-0.285424 26:-0.948128 27:-0.942087 28:-0.93578 
1 1:0.34527 2:-0.654704 3:-0.267963 4:-0.595029 5:-0.804 7:-0.962921 8:-0.901026 9:-0.944983 10:-0.783897 11:-0.708993 12:-0.413504 13:-0.869052 14:-0.885393 15:-0.804484 16:-0.651916 17:-0.430335 18:-0.998237 19:-0.999863 20:-0.996571 21:-0.602558 22:-0.806847 23:-0.754604 24:-0.301472 25:-0.716726 26:-0.994115 27:-0.987304 28:-0.997706 
1 1:0.781644 2:-0.868187 3:-0.866747 4:-0.863689 5:-0.98398 7:-0.990758 8:-0.992066 9:-0.981336 10:-0.937815 11:-0.595068 12:-0.123066 13:-0.981927 14:-0.9816 15:-0.911061 16:-0.532759 17:-0.252685 18:-0.995964 19:-0.996463 20:-0.991414 21:-0.986682 22:-0.998613 23:-0.990023 24:-0.866409 25:0.161411 26:-0.983136 27:-0.977217 28:-0.995413 
1 1:0.593433 2:-0.97878 3:-0.972649 4:-0.991222 5:-0.999822 7:-0.999293 8:-0.984982 9:-0.959994 10:-0.883368 11:-0.0323395 12:-0.491767 13:-0.989383 14:-0.968375 15:-0.9549 16:-0.351156 17:-0.403252 18:-0.874056 19:-0.983073 20:-0.998861 21:-0.99965 22:-0.999819 23:-0.999967 24:-0.778564 25:0.156278 26:-0.966504 27:-0.930261 28:-0.809633 
0.4050360494325345 1:0.798486 2:-0.994344 3:-0.990426 4:-0.993983 5:-0.999802 7:-0.999654 8:-0.999657 9:-0.999403 10:-0.950492 11:-0.76452 12:0.417432 13:-0.999373 14:-0.999573 15:-0.998852 16:0.373985 17:-0.634301 18:-0.997425 19:-0.999926 20:-0.999935 21:-0.999474 22:-0.999819 23:-0.937975 24:-0.829356 25:0.515153 26:-0.999104 27:-0.99913 28:-1 
1 1:0.498486 2:-0.788904 3:-0.853878 4:-0.75039 5:-0.99398 7:-0.970847 8:-0.978338 9:-0.976637 10:-0.852465 11:0.337765 12:-0.573646 13:-0.984944 14:-0.991638 15:-0.767822 16:-0.309556 17:-0.398904 18:-0.792482 19:-0.982018 20:-0.981348 21:-0.797599 22:-0.971618 23:-0.942955 24:-0.0336251 25:-0.371586 26:-0.979879 27:-0.909391 28:-0.798165 
0.1396932767967615 1:0.582733 2:-0.983253 3:-0.968501 4:-0.981725 5:-1 7:-0.998711 8:-0.997176 9:-0.990723 10:-0.825637 11:-0.14607 12:-0.471903 13:-0.999566 14:-0.99678 15:-0.848373 16:-0.339847 17:-0.604863 18:-0.778124 19:-0.971532 20:-0.997487 21:-0.978796 22:-0.987362 23:-0.957962 24:0.252053 25:-0.904829 26:-0.999953 27:-1 28:-1 
1 1:0.203981 2:-0.996512 3:-0.994389 4:-0.997822 5:-0.99996 7:-0.905986 8:-0.917922 9:-0.873348 10:0.302624 11:-0.607792 12:-0.529091 13:-0.999855 14:-0.999951 15:-0.999975 16:-0.366276 17:-0.841677 18:-0.663986 19:-0.219469 20:-0.746325 21:-0.999474 22:-0.997497 23:-0.826425 24:-0.195069 25:-0.224134 26:-0.89764 27:-0.997913 28:-0.995413 
0.3274695650754794 1:-0.538294 2:-0.961789 3:-0.946819 4:-0.963686 5:-0.999881 7:-0.998531 8:-0.608707 9:0.46197 10:-0.873427 11:-0.89431 12:-0.966219 13:-0.992351 14:0.717081 15:-0.987804 16:-0.978046 17:-0.921452 18:-0.896136 19:-0.718767 20:-0.777228 21:-0.995093 22:-0.995084 23:-0.971936 24:-0.908132 25:0.243789 26:-0.914144 27:-0.985913 28:-0.983945 
1 1:0.0900576 2:-0.805039 3:-0.692871 4:-0.782338 5:-0.998238 7:-0.987737 8:-0.929642 9:-0.632207 10:-0.256095 11:-0.350198 12:-0.828796 13:-0.976474 14:-0.959405 15:-0.911423 16:-0.786751 17:-0.679558 18:-0.619604 19:-0.509549 20:-0.740566 21:-0.927451 22:-0.96254 23:-0.622199 24:-0.0655712 25:-0.723012 26:-0.98352 27:-0.944522 28:-0.899083 
1 1:0.766639 2:-0.979448 3:-0.978847 4:-0.980883 5:-0.99996 7:-0.999529 8:-0.999184 9:-0.997334 10:-0.94686 11:-0.63691 12:0.0345502 13:-0.999252 14:-0.999113 15:-0.993472 16:-0.00361386 17:-0.613485 18:-0.946027 19:-0.996674 20:-0.999686 21:-0.997722 22:-0.999306 23:-0.987975 24:-0.213531 25:-0.362577 26:-0.992952 27:-0.991478 28:-0.995413 
1 1:-0.308731 2:-0.777503 3:-0.707538 4:-0.792362 5:-0.938455 7:-0.948829 8:-0.76529 9:-0.222995 10:-0.271539 11:-0.704028 12:-0.950692 13:-0.779606 14:-0.745207 15:-0.712511 16:-0.924 17:-0.861629 18:-0.774263 19:-0.494149 20:-0.566773 21:-0.8896 22:-0.976233 23:-0.960075 24:-0.359391 25:-0.315208 26:-0.912481 27:-0.81513 28:-0.818807 
1 1:-0.17738 2:-0.876768 3:-0.834235 4:-0.837556 5:-0.99204 7:-0.986296 8:-0.983921 9:-0.4613 10:0.551757 11:-0.827839 12:-0.977258 13:-0.978791 14:-0.940594 15:-0.331877 16:-0.947728 17:-0.926689 18:-0.33319 19:-0.546767 20:-0.992448 21:-0.932183 22:-0.990801 23:-0.986402 24:-0.77943 25:0.17495 26:-0.979472 27:-0.924174 28:-0.887615 
1 1:0.444685 2:-0.893164 3:-0.885043 4:-0.906986 5:-0.999881 7:-0.994735 8:-0.959663 9:-0.898781 10:-0.495622 11:-0.436862 12:-0.439116 13:-0.996357 14:-0.995778 15:-0.982262 16:-0.504311 17:-0.554082 18:-0.630702 19:-0.746677 20:-0.979791 21:-0.986857 22:-0.985492 23:-0.718856 24:-0.341219 25:-0.413026 26:-0.953397 27:-0.958087 28:-0.977064 
1 1:0.0366364 2:-0.822837 3:-0.84745 4:-0.890742 5:-0.975703 7:-0.972592 8:-0.755152 9:-0.679602 10:-0.11303 11:-0.370121 12:-0.78946 13:-0.941777 14:-0.932248 15:-0.615097 16:-0.823423 17:-0.624963 18:-0.516564 19:-0.647882 20:-0.812581 21:-0.784456 22:-0.839723 23:-0.670691 24:-0.69371 25:0.0340042 26:-0.956607 27:-0.964696 28:-0.986239 
1 1:0.533393 2:-0.946599 3:-0.925424 4:-0.954458 5:-0.998871 7:-0.994541 8:-0.987153 9:-0.946152 10:-0.16082 11:-0.261366 12:-0.0325061 13:-0.981855 14:-0.883225 15:-0.369437 16:-0.4521 17:-0.16004 18:-0.784828 19:-0.909644 20:-0.985694 21:-0.968983 22:-0.988207 23:-0.919184 24:-0.480293 25:0.562191 26:-0.991498 27:-0.970087 28:-0.970183 
1 1:0.0329597 2:-0.873729 3:-0.881218 4:-0.905706 5:-0.998871 7:-0.981599 8:-0.757487 9:-0.432471 10:-0.483204 11:-0.652581 12:-0.671709 13:-0.995464 14:-0.996074 15:-0.949582 16:-0.466302 17:-0.609837 18:-0.674725 19:-0.670369 20:-0.967592 21:-0.703146 22:-0.213663 23:-0.668168 24:-0.523756 25:-0.542977 26:-0.846059 27:-0.937217 28:-0.885321 
1 1:0.560852 2:-0.988893 3:-0.993951 4:-0.997216 5:-1 7:-1 8:-0.999902 9:-0.999647 10:-0.821518 11:0.294801 12:-0.51301 13:-1 14:-0.999967 15:-0.994558 16:-0.276056 17:-0.422512 18:-0.548479 19:-0.998014 20:-0.999961 21:-1 22:-1 23:-0.999197 24:-0.426536 25:0.0762072 26:-0.999884 27:-1 28:-1 
1 1:-0.398072 2:-0.401126 3:-0.609182 4:-0.596926 5:0.440218 7:-0.97165 8:-0.932809 9:-0.531231 10:0.0302183 11:-0.619707 12:-0.762798 13:-0.939026 14:-0.142634 15:-0.471021 16:-0.731176 17:-0.226871 18:-0.849586 19:-0.851603 20:-0.956388 21:-0.898712 22:-0.984678 23:-0.935845 24:-0.493961 25:0.547176 26:-0.953059 27:-0.888174 28:-0.841743 
1 1:0.0515802 2:-0.796059 3:-0.90744 4:-0.877081 5:-0.295683 7:-0.963863 8:-0.993927 9:-0.992026 10:-0.74997 11:0.502933 12:-0.915107 13:-0.975919 14:-0.995761 15:-0.740161 16:-0.373766 17:-0.35653 18:-0.634622 19:-0.985257 20:-0.987749 21:-0.81302 22:-0.992128 23:-0.973411 24:-0.309955 25:0.0287278 26:-0.974448 27:-0.969739 28:-0.993119 
1 1:0.260999 2:-0.964918 3:-0.987246 4:-0.988629 5:-0.999723 7:-0.996882 8:-0.985243 9:-0.904381 10:-0.534459 11:0.360829 12:-0.993707 13:-0.978236 14:-0.943863 15:-0.835104 16:-0.717769 17:-0.264452 18:-0.698255 19:-0.987503 20:-0.995733 21:-0.990011 22:-0.999276 23:-0.999312 24:-0.973878 25:0.231328 26:-0.789581 27:-0.976522 28:-0.974771 
0.7576534915319829 1:0.373241 2:-0.937512 3:-0.911449 4:-0.930997 5:-0.999782 7:-0.996439 8:-0.988312 9:-0.875917 10:-0.242324 11:-0.18066 12:-0.52255 13:-0.996429 14:-0.996599 15:-0.82679 16:-0.234988 17:-0.7489 18:-0.634007 19:-0.612551 20:-0.980864 21:-0.978621 22:-0.993847 23:-0.959944 24:0.168458 25:-0.500248 26:-0.987951 27:-0.974261 28:-0.951835 
1 1:0.505196 2:-0.969913 3:-0.944584 4:-0.965976 5:-0.999901 7:-0.99824 8:-0.990728 9:-0.961857 10:-0.49889 11:-0.447805 12:-0.434571 13:-0.999638 14:-0.999704 15:-0.987904 16:-0.374028 17:-0.675687 18:-0.545556 19:-0.918988 20:-0.989856 21:-0.997196 22:-0.999246 23:-0.990056 24:-0.665681 25:0.0113969 26:-0.995941 27:-0.993043 28:-0.981651 
1 1:-0.0298812 2:-0.877869 3:-0.901967 4:-0.898892 5:-0.992198 7:-0.959291 8:-0.734976 9:-0.753185 10:-0.210981 11:-0.208947 12:-0.988336 13:-0.984582 14:-0.98666 15:-0.914818 16:-0.678327 17:-0.625556 18:-0.528961 19:-0.756531 20:-0.794374 21:-0.896083 22:-0.992068 23:-0.995478 24:-0.980787 25:0.228452 26:-0.800665 27:-0.805217 28:-0.772936 
1 1:0.0565184 2:-0.958227 3:-0.929341 4:-0.953661 5:-0.99998 7:-0.999279 8:-0.886873 9:-0.612861 10:-0.430747 11:-0.529299 12:-0.834432 13:-0.999059 14:-0.971677 15:-0.860881 16:-0.820644 17:-0.801913 18:-0.631978 19:-0.629329 20:-0.719755 21:-0.997196 22:-0.993244 23:-0.954882 24:-0.0232796 25:-0.784506 26:-0.995685 27:-0.99287 28:-0.990826 
1 1:0.590241 2:-0.992063 3:-0.993733 4:-0.996228 5:-0.99998 7:-1 8:-0.999788 9:-0.964755 10:-0.875646 11:-0.0794701 12:-0.433922 13:-0.998239 14:-0.954164 15:-0.957159 16:-0.391027 17:-0.429865 18:-0.781685 19:-0.979673 20:-0.982657 21:-1 22:-0.999849 23:-0.987991 24:-0.835705 25:0.250296 26:-0.999011 27:-0.999826 28:-0.997706 
1 1:0.0658237 2:-0.850064 3:-0.882635 4:-0.890888 5:-0.98004 7:-0.968505 8:-0.918346 9:-0.719936 10:-0.200827 11:-0.202385 12:-0.925994 13:-0.977536 14:-0.968588 15:-0.813733 16:-0.676631 17:-0.599914 18:-0.546298 19:-0.770045 20:-0.921519 21:-0.906072 22:-0.993726 23:-0.989302 24:-0.944433 25:0.207423 26:-0.835568 27:-0.554087 28:-0.511468 
1 1:0.182883 2:-0.950641 3:-0.952936 4:-0.968827 5:-0.999861 7:-0.998988 8:-0.996588 9:-0.681635 10:-0.322886 11:-0.191204 12:-0.835073 13:-0.546159 14:-0.797155 15:-0.730811 16:-0.863704 17:-0.488157 18:-0.610952 19:-0.970725 20:-0.998442 21:-0.996145 22:-0.999457 23:-0.998902 24:-0.49453 25:-0.0849787 26:-0.991824 27:-0.995826 28:-0.997706 
1 1:0.428394 2:-0.917172 3:-0.904018 4:-0.931525 5:-0.999723 7:-0.997478 8:-0.988214 9:-0.887166 10:-0.141789 11:-0.384011 12:-0.268289 13:-0.998625 14:-0.998291 15:-0.94389 16:-0.406662 17:-0.469687 18:-0.380831 19:-0.709373 20:-0.983731 21:-0.980724 22:-0.93277 23:-0.499787 24:-0.215997 25:-0.227672 26:-0.985962 27:-0.963652 28:-0.958716 
1 1:0.0887044 2:-0.502591 3:-0.424188 4:-0.475837 5:-0.603228 7:-0.965803 8:-0.972428 9:-0.928377 10:-0.377166 11:0.0693252 12:-0.808675 13:-0.971214 14:-0.909182 15:-0.719814 16:-0.642468 17:-0.401811 18:-0.510313 19:-0.927439 20:-0.958024 21:-0.821957 22:-0.954728 23:-0.782487 24:-0.0496288 25:-0.437304 26:-0.969493 27:-0.905913 28:-0.917431 
1 1:0.555187 2:-0.904964 3:-0.849339 4:-0.915775 5:-0.989683 7:-0.992435 8:-0.992866 9:-0.988556 10:-0.790403 11:-0.149146 12:-0.423396 13:-0.993365 14:-0.99655 15:-0.944502 16:-0.3926 17:-0.462408 18:-0.707104 19:-0.982825 20:-0.991571 21:-0.969158 22:-0.994149 23:-0.983929 24:-0.562707 25:-0.0278964 26:-0.989975 27:-0.970087 28:-0.961009 
1 1:-0.411647 2:-0.815381 3:-0.827011 4:-0.849365 5:-0.18099 7:-0.970569 8:-0.903834 9:-0.373168 10:-0.0869307 11:-0.566651 12:-0.9646 13:-0.628366 14:-0.61036 15:-0.536755 16:-0.847589 17:-0.624486 18:-0.845411 19:-0.57454 20:-0.756364 21:-0.887321 22:-0.988689 23:-0.887959 24:0.187715 25:-0.504642 26:-0.968365 27:-0.885217 28:-0.873853 
1 1:-0.0383526 2:-0.892089 3:-0.819396 4:-0.898757 5:-1 7:-0.99734 8:-0.937021 9:-0.634617 10:0.16199 11:-0.458403 12:-0.953425 13:-0.999686 14:-0.996304 15:-0.772965 16:-0.864072 17:-0.881004 18:-0.532544 19:-0.242787 20:-0.780827 21:-0.99632 22:-0.963837 23:-0.502261 24:-0.298866 25:-0.550332 26:-0.981182 27:-0.983478 28:-0.993119 
0.6200333677601596 1:-0.32549 2:-0.857813 3:-0.96872 4:-0.968905 5:-0.362733 7:-0.978481 8:-0.99236 9:-0.748961 10:0.379872 11:-0.662229 12:-0.987166 13:-0.981541 14:-0.980516 15:-0.946449 16:-0.864745 17:-0.570625 18:-0.295906 19:-0.47984 20:-0.973678 21:-0.912205 22:-0.811914 23:0.244315 24:-0.526861 25:-0.658253 26:-0.985892 27:-0.964348 28:-0.993119 
1 1:0.0440798 2:-0.942654 3:-0.951519 4:-0.954121 5:-0.99996 7:-0.998961 8:-0.988051 9:-0.539923 10:-0.0101994 11:-0.60558 12:-0.78566 13:-0.996646 14:-0.872645 15:-0.695897 16:-0.790291 17:-0.792929 18:-0.877465 19:-0.224519 20:-0.835735 21:-0.991589 22:-0.990409 23:-0.78904 24:0.279898 25:-0.938778 26:-0.998348 27:-0.993739 28:-0.983945 
1 1:0.098926 2:-0.987173 3:-0.997339 4:-0.997878 5:-0.999941 7:-0.999778 8:-0.999625 9:-0.99205 10:0.481623 11:-0.298319 12:-0.973418 13:-0.999928 14:-0.993527 15:-0.611913 16:-0.751627 17:-0.774048 18:-0.0831686 19:-0.99892 20:-0.999869 21:-0.997897 22:-0.999517 23:-0.999607 24:-0.994604 25:0.369754 26:-0.949791 27:-0.99287 28:-0.993119 
1 1:0.248383 2:-0.833896 3:-0.797494 4:-0.834929 5:-0.999426 7:-0.979936 8:-0.884947 9:-0.841378 10:-0.507524 11:0.381971 12:-0.855731 13:-0.996743 14:-0.996304 15:-0.939484 16:-0.542154 17:-0.121124 18:-0.770841 19:-0.865427 20:-0.933653 21:-0.983002 22:-0.998341 23:-0.997199 24:-0.958111 25:0.289767 26:-0.519324 27:-0.752 28:-0.791284 
1 1:0.481525 2:-0.79927 3:-0.697756 4:-0.913272 5:-0.983228 7:-0.986463 8:-0.987871 9:-0.979668 10:-0.79133 11:0.121399 12:-0.642241 13:-0.99293 14:-0.994776 15:-0.982836 16:-0.524884 17:-0.233557 18:-0.821718 19:-0.98687 20:-0.991597 21:-0.91536 22:-0.988116 23:-0.895511 24:-0.633053 25:-0.0240027 26:-0.978332 27:-0.941043 28:-0.931193 
1 1:0.367989 2:-0.578509 3:-0.807863 4:-0.821313 5:-0.705446 7:-0.972024 8:-0.936123 9:-0.933089 10:-0.745516 11:-0.444103 12:-0.274951 13:-0.990928 14:-0.993199 15:-0.979678 16:-0.255789 17:-0.450377 18:-0.788283 19:-0.887951 20:-0.955537 21:-0.89328 22:-0.977862 23:-0.948804 24:-0.745009 25:0.24373 26:-0.949489 27:-0.932348 28:-0.93578 
1 1:0.219287 2:-0.925036 3:-0.909525 4:-0.93057 5:-0.999901 7:-0.995455 8:-0.952839 9:-0.753368 10:-0.433058 11:-0.124388 12:-0.802879 13:-0.998769 14:-0.999507 15:-0.917489 16:-0.532348 17:-0.706097 18:-0.590901 19:-0.670965 20:-0.884583 21:-0.991589 22:-0.990228 23:-0.897526 24:-0.727081 25:0.0781499 26:-0.983729 27:-0.973391 28:-0.958716 
1 1:0.031964 2:-0.583513 3:-0.6409 4:-0.742656 5:-0.779802 7:-0.937772 8:-0.952937 9:-0.848439 10:-0.319739 11:-0.192618 12:-0.863771 13:-0.939509 14:-0.883783 15:-0.626219 16:-0.648498 17:-0.438388 18:-0.827018 19:-0.965662 20:-0.975524 21:-0.788837 22:-0.988177 23:-0.991104 24:-0.798695 25:-0.119055 26:-0.578128 27:-0.636 28:-0.708716 
1 1:0.473025 2:-0.985649 3:-0.980184 4:-0.984644 5:-1 7:-0.999972 8:-0.999951 9:-0.997516 10:-0.476318 11:-0.398613 12:-0.586231 13:-0.999952 14:-0.999967 15:-0.999863 16:-0.631351 17:-0.655933 18:-0.430733 19:-0.889229 20:-0.999908 21:-0.99965 22:-0.998794 23:-0.399132 24:-0.443686 25:-0.646589 26:-0.99993 27:-1 28:-1 
1 1:0.551016 2:-0.992544 3:-0.982039 4:-0.994892 5:-1 7:-0.999903 8:-0.999478 9:-0.98427 10:-0.777482 11:-0.226754 12:-0.572066 13:-0.998311 14:-0.96545 15:-0.831359 16:-0.743193 17:-0.347184 18:-0.841271 19:-0.96632 20:-0.996689 21:-1 22:-0.997044 23:-0.923542 24:0.152953 25:-0.962793 26:-0.999895 27:-0.999826 28:-1 
1 1:0.0354398 2:-0.980809 3:-0.958409 4:-0.982814 5:-1 7:-0.998545 8:-0.94249 9:-0.550649 10:-0.188317 11:-0.393875 12:-0.868517 13:-0.999952 14:-0.999754 15:-0.823682 16:-0.799048 17:-0.756294 18:-0.519335 19:-0.624639 20:-0.632531 21:-0.94515 22:-0.91784 23:-0.733716 24:-0.295298 25:-0.435964 26:-0.998593 27:-0.997391 28:-0.997706 
0.2173082602388734 1:-0.173757 2:-0.909275 3:-0.858567 4:-0.911611 5:-0.998614 7:-0.988402 8:-0.934801 9:-0.254503 10:-0.034444 11:-0.725376 12:-0.908638 13:-0.920399 14:-0.799832 15:-0.68073 16:-0.880301 17:-0.868406 18:-0.652539 19:-0.361847 20:-0.811796 21:-0.917463 22:-0.566038 23:-0.576098 24:-0.627911 25:-0.310983 26:-0.981833 27:-0.932522 28:-0.896789 
1 1:-0.538565 2:-0.848695 3:-0.834097 4:-0.951584 5:-0.383762 7:-0.974449 8:-0.80215 9:-0.440311 10:-0.297501 11:-0.828724 12:-0.989114 13:-0.964217 14:-0.712744 15:-0.512501 16:-0.860733 17:-0.605423 18:-0.796715 19:-0.823321 20:-0.988757 21:-0.92675 22:-0.994028 23:-0.995151 24:-0.99331 25:-0.247047 26:-0.389353 27:1 28:-0.864679 
1 1:-0.163743 2:-0.963247 3:-0.94751 4:-0.970881 5:-0.99998 7:-0.998892 8:-0.863007 9:-0.268419 10:-0.114367 11:-0.714206 12:-0.886241 13:-0.932487 14:-0.886954 15:-0.753567 16:-0.804231 17:-0.925882 18:-0.917626 19:-0.233864 20:-0.504732 21:-0.997021 22:-0.99804 23:-0.810763 24:-0.270969 25:-0.387941 26:-0.996185 27:-0.996522 28:-0.990826 
1 1:-0.304958 2:-0.898633 3:-0.957165 4:-0.950204 5:-0.999584 7:-0.993197 8:-0.46476 9:-0.337521 10:-0.260549 11:-0.741564 12:-0.946355 13:-0.929616 14:-0.516585 15:-0.695685 16:-0.911144 17:-0.852102 18:-0.780212 19:-0.455678 20:-0.746901 21:-0.98563 22:-0.999367 23:-0.987729 24:-0.797515 25:-0.0137807 26:-0.711064 27:-0.672696 28:-0.974771 
1 1:0.366486 2:-0.918728 3:-0.900873 4:-0.927203 5:-0.998614 7:-0.99188 8:-0.985961 9:-0.949074 10:-0.288518 11:-0.218887 12:-0.666378 13:-0.998166 14:-0.998817 15:-0.990351 16:-0.64987 17:-0.387302 18:-0.423798 19:-0.985654 20:-0.996479 21:-0.896784 22:-0.923843 23:-0.680259 24:-0.166919 25:-0.590312 26:-0.997116 27:-0.990609 28:-0.977064 
0.6917078030039977 1:-0.0361141 2:-0.962025 3:-0.963225 4:-0.976213 5:-0.999941 7:-0.998642 8:-0.902756 9:-0.739343 10:0.281738 11:-0.411855 12:-0.998293 13:-0.999783 14:-0.890141 15:-0.51737 16:-0.729576 17:-0.722895 18:-0.452327 19:-0.891339 20:-0.992605 21:-1 22:-0.999879 23:-0.999574 24:-0.972794 25:0.104914 26:-0.677882 27:-0.0766957 28:-0.761468 
1 1:-0.910739 2:-0.631177 3:-0.535494 4:-0.562251 5:-0.180198 7:-0.892116 8:-0.212583 9:-0.610098 10:-0.883018 11:-0.990459 12:-0.980184 13:-0.946723 14:-0.979464 15:-0.981388 16:-0.984286 17:-0.496811 18:-0.40573 19:-0.833993 20:-0.894962 21:0.590993 22:1 23:-0.772395 24:-0.989829 25:-0.617789 26:-0.959468 27:-0.764696 28:-0.630734 
1 1:-0.00979378 2:-0.52078 3:-0.828808 4:-0.899599 5:-0.29002 7:-0.973659 8:-0.992132 9:-0.991502 10:-0.195598 11:0.228967 12:-0.961746 13:-0.983061 14:-0.995252 15:-0.702088 16:-0.587303 17:-0.12394 18:-0.641186 19:-0.997592 20:-0.988246 21:-0.890476 22:-0.997949 23:-0.995691 24:-0.993389 25:0.747622 26:-0.971238 27:-0.948 28:-0.995413 
1 1:-0.189155 2:-0.839258 3:-0.769314 4:-0.818978 5:-0.993525 7:-0.985188 8:-0.896602 9:-0.177949 10:-0.189731 11:-0.542681 12:-0.983422 13:-0.992134 14:-0.976589 15:-0.948097 16:-0.744041 17:-0.846543 18:-0.519324 19:-0.239138 20:-0.785225 21:-0.876106 22:0.00268436 23:-0.130505 24:-0.771157 25:-0.578809 26:-0.908305 27:-0.632522 28:-0.635321 
1 1:-0.111446 2:-0.863493 3:-0.77686 4:-0.886982 5:-0.995267 7:-0.976971 8:-0.939861 9:-0.657676 10:0.405667 11:-0.596093 12:-0.976785 13:-0.984751 14:-0.988746 15:-0.587198 16:-0.957009 17:-0.862452 18:-0.50557 19:-0.42093 20:-0.722595 21:-0.936564 22:-0.985523 23:-0.760698 24:-0.314782 25:-0.415927 26:-0.964725 27:-0.870957 28:-0.83945 
0.8923279553064852 1:0.486221 2:-0.916552 3:-0.983981 4:-0.974617 5:-0.999939 7:-0.992988 8:-0.987827 9:-0.556499 10:-0.899536 11:-0.624427 12:-0.326532 13:-0.577601 14:-0.666196 15:-0.842576 16:-0.574991 17:-0.466768 18:-0.991877 19:-0.993711 20:-0.994669 21:-0.983814 22:-0.995338 23:-0.983769 24:-0.222877 25:-0.438981 26:-0.990125 27:-0.995692 28:-0.994862 
0.3842793795351877 1:-0.223094 2:-0.561888 3:-0.759098 4:-0.574653 5:-0.913809 7:-0.934411 8:-0.941903 9:-0.197513 10:-0.167124 11:-0.864529 12:-0.918482 13:-0.978964 14:-0.981641 15:-0.985882 16:-0.985534 17:-0.72136 18:-0.0839974 19:-0.687412 20:-0.930308 21:-0.799588 22:-0.430703 23:0.516791 24:-0.828227 25:-0.883494 26:-0.968435 27:-0.971389 28:-0.958253 
1 1:-0.0368319 2:-0.516831 3:-0.503826 4:-0.65718 5:-0.538071 7:-0.936741 8:-0.968871 9:-0.951564 10:-0.864583 11:-0.647326 12:-0.630096 13:-0.979453 14:-0.98439 15:-0.896923 16:-0.498007 17:-0.484912 18:-0.914325 19:-0.946282 20:-0.961712 21:-0.900628 22:-0.991307 23:-0.989566 24:-0.513426 25:-0.338719 26:-0.957832 27:-0.967772 28:-0.967245 
1 1:0.419353 2:-0.738052 3:-0.893455 4:-0.817042 5:-0.998289 7:-0.958287 8:-0.963494 9:-0.906415 10:-0.672125 11:-0.149674 12:-0.658735 13:-0.977426 14:-0.952433 15:-0.87903 16:-0.462714 17:-0.544464 18:-0.715065 19:-0.924094 20:-0.973797 21:-0.919757 22:-0.975403 23:-0.871391 24:-0.228493 25:-0.533225 26:-0.932802 27:-0.959522 28:-0.92036 
1 1:0.330442 2:-0.937875 3:-0.967398 4:-0.965779 5:-0.999908 7:-0.998941 8:-0.989298 9:-0.855408 10:-0.422164 11:-0.187522 12:-0.787056 13:-0.999144 14:-0.988881 15:-0.840772 16:-0.758059 17:-0.527296 18:-0.486848 19:-0.832397 20:-0.992741 21:-0.998823 22:-0.999717 23:-0.995607 24:-0.568 25:-0.0923603 26:-0.9874 27:-0.999309 28:-0.999358 
1 1:0.156535 2:-0.85791 3:-0.879621 4:-0.840625 5:-0.999695 7:-0.980044 8:-0.924112 9:-0.674737 10:-0.338814 11:-0.370463 12:-0.84882 13:-0.970473 14:-0.853912 15:-0.77728 16:-0.745911 17:-0.715896 18:-0.547787 19:-0.687756 20:-0.96298 21:-0.980283 22:-0.994793 23:-0.974815 24:-0.504473 25:-0.214739 26:-0.917434 27:-0.983784 28:-0.973667 
1 1:0.538632 2:-0.770262 3:-0.901012 4:-0.797663 5:-0.996905 7:-0.943648 8:-0.971266 9:-0.957385 10:-0.861271 11:0.175525 12:-0.512291 13:-0.97339 14:-0.961588 15:-0.91649 16:-0.266524 17:-0.221552 18:-0.910443 19:-0.978092 20:-0.984628 21:-0.857465 22:-0.969891 23:-0.873985 24:0.349583 25:-0.80987 26:-0.9613 27:-0.964155 28:-0.933205 
1 1:-0.12839 2:-0.385361 3:-0.592274 4:-0.476472 5:-0.949202 7:-0.773002 8:-0.718385 9:-0.388328 10:-0.207883 11:-0.680165 12:-0.774213 13:-0.940596 14:-0.853102 15:-0.881851 16:-0.808137 17:-0.589176 18:-0.507025 19:-0.527463 20:-0.729266 21:-0.448793 22:-0.342905 23:-0.227128 24:-0.601956 25:-0.588565 26:-0.75671 27:-0.895554 28:-0.825305 
1 1:0.527819 2:-0.856995 3:-0.848425 4:-0.84682 5:-0.949344 7:-0.933373 8:-0.964029 9:-0.945755 10:-0.839355 11:-0.284405 12:-0.311017 13:-0.978946 14:-0.955403 15:-0.842885 16:-0.276089 17:-0.436144 18:-0.874489 19:-0.951894 20:-0.962527 21:-0.878066 22:-0.981525 23:-0.948136 24:-0.106115 25:-0.447654 26:-0.949227 27:-0.956433 28:-0.951188 
1 1:0.405675 2:-0.957675 3:-0.984966 4:-0.980285 5:-0.999908 7:-0.997373 8:-0.936753 9:-0.818114 10:-0.545574 11:-0.466481 12:-0.530575 13:-0.998532 14:-0.982328 15:-0.946439 16:-0.622149 17:-0.468208 18:-0.580287 19:-0.883868 20:-0.994954 21:-0.997253 22:-0.981002 23:-0.679417 24:-0.588864 25:-0.396163 26:-0.751017 27:-0.884784 28:-0.994862 
1 1:-0.366064 2:-0.964969 3:-0.964739 4:-0.968795 5:-0.99998 7:-0.914899 8:-0.3423 9:-0.0787634 10:-0.525545 11:-0.775202 12:-0.992254 13:-0.993361 14:-0.597693 15:-0.93245 16:-0.789168 17:-0.867872 18:-0.686586 19:-0.494977 20:-0.421926 21:-0.997548 22:-0.661703 23:-0.558664 24:-0.715034 25:-0.822457 26:0.178018 27:-0.931521 28:-0.977521 
1 1:0.354265 2:-0.689423 3:-0.780767 4:-0.613968 5:-0.982904 7:-0.926933 8:-0.964283 9:-0.940459 10:-0.536219 11:-0.120767 12:-0.723574 13:-0.990775 14:-0.935326 15:-0.678853 16:-0.803979 17:-0.281032 18:-0.74211 19:-0.958064 20:-0.953793 21:-0.882186 22:-0.984183 23:-0.975608 24:-0.575979 25:-0.10065 26:-0.922699 27:-0.97082 28:-0.964676 
1 1:0.701383 2:-0.947478 3:-0.964582 4:-0.947472 5:-0.999725 7:-0.992691 8:-0.978035 9:-0.956886 10:-0.846994 11:-0.709217 12:-0.0426571 13:-0.966559 14:-0.891636 15:-0.807319 16:-0.570125 17:-0.23092 18:-0.996954 19:-0.999183 20:-0.998577 21:-0.993035 22:-0.998606 23:-0.997086 24:-0.222984 25:-0.431739 26:-0.987314 27:-0.994595 28:-0.99422 
1 1:0.380721 2:-0.889225 3:-0.930534 4:-0.884182 5:-0.999084 7:-0.983158 8:-0.966664 9:-0.862546 10:-0.584182 11:-0.1719 12:-0.717273 13:-0.993081 14:-0.961441 15:-0.905953 16:-0.6653 17:-0.457192 18:-0.663812 19:-0.852983 20:-0.940452 21:-0.980184 22:-0.985577 23:-0.932012 24:-0.382474 25:-0.356554 26:-0.922871 27:-0.961188 28:-0.942839 
0.8279713268614779 1:0.408742 2:-0.266268 3:-0.533088 4:-0.181076 5:-0.908657 7:-0.814525 8:-0.953407 9:-0.956054 10:-0.870758 11:-0.572323 12:-0.313144 13:-0.903922 14:-0.922415 15:-0.891036 16:-0.185683 17:-0.600664 18:-0.981356 19:-0.986154 20:-0.970679 21:-0.704336 22:-0.960937 23:-0.961514 24:-0.902509 25:0.0777971 26:-0.864592 27:-0.95432 28:-0.997431 
1 1:0.452825 2:-0.944049 3:-0.975573 4:-0.975957 5:-0.997556 7:-0.986166 8:-0.630417 9:-0.871425 10:-0.958714 11:-0.415646 12:-0.209272 13:-0.995684 14:-0.991999 15:-0.983319 16:-0.00963959 17:-0.645248 18:-0.946338 19:-0.888362 20:-0.649623 21:-0.971258 22:-0.992702 23:-0.986607 24:0.295531 25:-0.670279 26:-0.983247 27:-0.992034 28:-0.989082 
1 1:0.548451 2:-0.918048 3:-0.939493 4:-0.933301 5:-0.998035 7:-0.978179 8:-0.988429 9:-0.980144 10:-0.90579 11:0.223803 12:-0.771909 13:-0.990548 14:-0.987826 15:-0.97376 16:-0.513632 17:-0.251272 18:-0.87009 19:-0.98681 20:-0.992417 21:-0.939278 22:-0.980806 23:-0.896164 24:0.261599 25:-0.964424 26:-0.989583 27:-0.99175 28:-0.986513 
1 1:-0.502863 2:-0.881781 3:-0.918616 4:-0.911872 5:-0.998972 7:-0.865729 8:-0.302022 9:-0.0154994 10:-0.650274 11:-0.973438 12:-0.986652 13:-0.995055 14:-0.992219 15:-0.990442 16:-0.960212 17:-0.611768 18:-0.617655 19:-0.54533 20:-0.593362 21:0.558466 22:0.415192 23:-0.484574 24:-0.73793 25:-0.867363 26:-0.957276 27:-0.980614 28:-0.976879 
1 1:0.166161 2:-0.855226 3:-0.930673 4:-0.918431 5:-0.998809 7:-0.978794 8:-0.904902 9:-0.615849 10:-0.478506 11:-0.528035 12:-0.762189 13:-0.97388 14:-0.932233 15:-0.889207 16:-0.742859 17:-0.700592 18:-0.606805 19:-0.639553 20:-0.94665 21:-0.983324 22:-0.997473 23:-0.985097 24:-0.557815 25:-0.224997 26:-0.936755 27:-0.986589 28:-0.979448 
1 1:0.0238919 2:-0.896363 3:-0.938557 4:-0.935925 5:-0.999929 7:-0.977205 8:-0.557645 9:-0.536273 10:-0.549955 11:-0.363993 12:-0.82474 13:-0.968463 14:-0.927741 15:-0.735144 16:-0.640349 17:-0.739176 18:-0.790397 19:-0.650658 20:-0.47745 21:-0.956739 22:-0.867452 23:-0.750334 24:-0.102464 25:-0.588245 26:-0.870014 27:-0.988011 28:-0.981374 
1 1:0.40391 2:-0.891083 3:-0.932347 4:-0.915367 5:-0.997811 7:-0.983327 8:-0.987238 9:-0.896078 10:-0.605346 11:-0.0123387 12:-0.740967 13:-0.944387 14:-0.861054 15:-0.779908 16:-0.611346 17:-0.390808 18:-0.74435 19:-0.974028 20:-0.988419 21:-0.976947 22:-0.996231 23:-0.979422 24:-0.575533 25:-0.0514393 26:-0.957447 27:-0.989718 28:-0.987155 
1 1:0.331641 2:-0.972072 3:-0.98326 4:-0.967244 5:-1 7:-0.999661 8:-0.998515 9:-0.822554 10:-0.371985 11:-0.269937 12:-0.771532 13:-0.99979 14:-0.999583 15:-0.99848 16:-0.917707 17:-0.266368 18:-0.649557 19:-0.731498 20:-0.939637 21:-0.999313 22:-0.939826 23:-0.145228 24:-0.125691 25:-0.99075 26:-0.998487 27:-0.999065 28:-0.996146 
1 1:0.141467 2:-0.897005 3:-0.933928 4:-0.906645 5:-0.996579 7:-0.964748 8:-0.912581 9:-0.43711 10:-0.0122975 11:-0.0525511 12:-0.814948 13:-0.983839 14:-0.968117 15:-0.894797 16:-0.58721 17:-0.496088 18:-0.397112 19:-0.501965 20:-0.714437 21:-0.881499 22:-0.657956 23:-0.138837 24:0.0563324 25:-0.654756 26:-0.948128 27:-0.965984 28:-0.949904 
1 1:0.402029 2:-0.575725 3:-0.814507 4:-0.877728 5:-0.976154 7:-0.972735 8:-0.959695 9:-0.761362 10:-0.515293 11:-0.647557 12:-0.38751 13:-0.980047 14:-0.80956 15:-0.911736 16:-0.588041 17:-0.478688 18:-0.747157 19:-0.774337 20:-0.985391 21:-0.965666 22:-0.985861 23:-0.876563 24:-0.664913 25:-0.0433495 26:-0.929692 27:-0.970292 28:-0.953115 
1 1:-0.252295 2:-0.210529 3:-0.662739 4:-0.759775 5:-0.705403 7:-0.92331 8:-0.661171 9:-0.546265 10:-0.625917 11:-0.774491 12:-0.784543 13:-0.256451 14:-0.671645 15:-0.844031 16:-0.907196 17:-0.504232 18:-0.870249 19:-0.871817 20:-0.915401 21:-0.926427 22:-0.991656 23:-0.981924 24:-0.573732 25:-0.101322 26:-0.930434 27:-0.966675 28:-0.990366 
1 1:-0.676533 2:-0.936748 3:-0.985006 4:-0.979213 5:-0.886378 7:-0.891871 8:0.464781 9:-0.638212 10:-0.903718 11:-0.958865 12:-0.992913 13:0.00803704 14:-0.662858 15:-0.943579 16:-0.973014 17:-0.853112 18:-0.933676 19:-0.753955 20:-0.485951 21:-0.960369 22:-0.998105 23:-0.998612 24:-0.938728 25:-0.199504 26:-0.253578 27:-0.767983 28:-0.750161 
1 1:0.22741 2:-0.97436 3:-0.988369 4:-0.979625 5:-0.999766 7:-0.996759 8:-0.99695 9:-0.972814 10:-0.1688 11:-0.0635488 12:-0.971393 13:-0.999843 14:-0.999902 15:-0.712628 16:-0.8515 17:-0.634392 18:-0.209697 19:-0.977371 20:-0.997503 21:-0.997449 22:-0.999804 23:-0.999817 24:-0.996077 25:0.323811 26:-0.993479 27:-0.998943 28:-1 
1 1:-0.303268 2:-0.974804 3:-0.9881 4:-0.985954 5:-0.999837 7:-0.998305 8:-0.954157 9:0.234717 10:-0.239985 11:-0.92691 12:-0.989862 13:-0.999458 14:-0.998282 15:-0.998119 16:-0.970617 17:-0.879144 18:-0.785629 19:-0.446097 20:-0.0326012 21:-0.985776 22:-0.773597 23:-0.214299 24:-0.17079 25:-0.969641 26:-0.997317 27:-0.999025 28:-0.996789 
1 1:0.0343231 2:-0.695816 3:-0.849401 4:-0.674376 5:-0.976469 7:-0.933013 8:-0.936205 9:-0.739332 10:-0.0447168 11:-0.447129 12:-0.952057 13:-0.969966 14:-0.853666 15:-0.703868 16:-0.725146 17:-0.740008 18:-0.446813 19:-0.85236 20:-0.961725 21:-0.94379 22:-0.992331 23:-0.989032 24:-0.86035 25:0.00149233 26:-0.71537 27:-0.894741 28:-0.87219 
1 1:0.593689 2:-0.972503 3:-0.986909 4:-0.982641 5:-1 7:-0.999979 8:-0.999906 9:-0.990162 10:-0.750106 11:-0.261131 12:-0.527035 13:-1 14:-1 15:-0.991691 16:-0.563648 17:-0.370192 18:-0.750004 19:-0.981876 20:-0.999871 21:-1 22:-1 23:-0.999908 24:-0.623547 25:-0.120975 26:-0.999872 27:-1 28:-1 
1 1:0.579073 2:-0.936769 3:-0.97573 4:-0.959364 5:-0.999908 7:-0.997246 8:-0.997365 9:-0.981219 10:-0.780638 11:-0.114951 12:-0.542438 13:-0.997065 14:-0.979555 15:-0.841094 16:-0.484727 17:-0.323208 18:-0.8917 19:-0.995969 20:-0.999081 21:-0.994212 22:-0.99756 23:-0.871269 24:-0.0476017 25:-0.660341 26:-0.985487 27:-0.997521 28:-0.996789 
1 1:0.185071 2:-0.0782744 3:-0.81058 4:-0.847826 5:-0.92559 7:-0.96443 8:-0.992669 9:-0.9635 10:-0.612524 11:-0.648912 12:-0.83365 13:-0.982353 14:-0.858968 15:-0.871623 16:-0.879538 17:-0.742976 18:-0.687423 19:-0.957333 20:-0.984938 21:-0.942319 22:-0.994052 23:-0.976386 24:-0.336681 25:-0.88315 26:-0.980764 27:-0.988865 28:-0.996789 
1 1:0.280769 2:-0.929126 3:-0.959733 4:-0.922577 5:-0.999878 7:-0.994619 8:-0.988242 9:-0.840682 10:-0.38448 11:-0.200961 12:-0.842399 13:-0.997344 14:-0.992023 15:-0.806353 16:-0.72173 17:-0.66388 18:-0.491487 19:-0.762307 20:-0.989299 21:-0.980283 22:-0.984641 23:-0.89592 24:-0.415398 25:-0.332269 26:-0.987771 27:-0.995001 28:-0.992293 
1 1:0.47205 2:-0.848635 3:-0.938221 4:-0.878992 5:-0.999633 7:-0.982226 8:-0.951548 9:-0.834759 10:-0.656529 11:-0.532303 12:-0.402784 13:-0.991107 14:-0.979334 15:-0.952661 16:-0.503227 17:-0.531272 18:-0.759709 19:-0.807049 20:-0.93987 21:-0.962331 22:-0.962528 23:-0.815454 24:-0.353862 25:-0.432331 26:-0.962641 27:-0.983012 28:-0.975594 
1 1:0.310174 2:-0.946829 3:-0.903058 4:-0.933483 5:-0.999908 7:-0.996165 8:-0.993111 9:-0.809517 10:-0.3274 11:-0.376971 12:-0.718091 13:-0.997676 14:-0.995729 15:-0.983009 16:-0.697072 17:-0.606544 18:-0.625687 19:-0.664708 20:-0.836185 21:-0.995291 22:-0.978127 23:-0.385376 24:-0.35107 25:-0.63584 26:-0.9873 27:-0.995042 28:-0.990366 
1 1:0.379695 2:-0.988294 3:-0.997779 4:-0.996515 5:-0.999969 7:-0.998792 8:-0.653653 9:-0.763819 10:-0.742268 11:-0.928535 12:-0.236506 13:-0.445532 14:-0.569246 15:-0.774034 16:-0.785664 17:-0.396512 18:-0.99996 19:-0.999968 20:-0.999935 21:-1 22:-1 23:-0.999939 24:-0.589459 25:-0.0671548 26:-0.997974 27:-0.999472 28:-0.998073 
1 1:0.508046 2:-0.968521 3:-0.98579 4:-0.974071 5:-0.999949 7:-0.998348 8:-0.998314 9:-0.993475 10:-0.806843 11:0.150924 12:-0.747806 13:-0.999546 14:-0.990747 15:-0.871984 16:-0.673422 17:-0.311496 18:-0.680057 19:-0.990562 20:-0.997865 21:-0.996567 22:-0.997734 23:-0.903532 24:-0.207307 25:-0.489384 26:-0.997788 27:-0.998334 28:-0.997431 
1 1:0.0992833 2:-0.821985 3:-0.941346 4:-0.899913 5:-0.836863 7:-0.964515 8:-0.795464 9:-0.693953 10:-0.542117 11:-0.552837 12:-0.603697 13:-0.98901 14:-0.98925 15:-0.982211 16:-0.305153 17:-0.763336 18:-0.784067 19:-0.54361 20:-0.834542 21:-0.942221 22:-0.981547 23:-0.700223 24:-0.351813 25:-0.340375 26:-0.929934 27:-0.980046 28:-0.969814 
1 1:0.00143553 2:-0.66586 3:-0.776949 4:-0.868996 5:-0.784914 7:-0.959791 8:-0.964497 9:-0.744449 10:-0.380575 11:-0.426028 12:-0.833866 13:-0.959395 14:-0.730993 15:-0.775888 16:-0.825912 17:-0.513344 18:-0.6252 19:-0.765221 20:-0.970019 21:-0.945458 22:-0.989477 23:-0.960385 24:-0.325299 25:-0.320226 26:-0.968278 27:-0.982525 28:-0.987797 
1 1:0.341326 2:-0.964771 3:-0.980216 4:-0.962045 5:-1 7:-0.998898 8:-0.995947 9:-0.914539 10:-0.352127 11:-0.206181 12:-0.77695 13:-0.999616 14:-0.978352 15:-0.749507 16:-0.703478 17:-0.629672 18:-0.452507 19:-0.879858 20:-0.997839 21:-0.99843 22:-0.982767 23:-0.784946 24:-0.397937 25:-0.374502 26:-0.994292 27:-0.997074 28:-0.994862 
1 1:-0.470302 2:-0.826561 3:-0.927346 4:-0.871284 5:-0.262473 7:-0.91937 8:-0.836746 9:-0.126406 10:-0.379862 11:-0.663928 12:-0.957347 13:-0.972639 14:-0.977444 15:-0.983924 16:-0.980898 17:-0.164528 18:-0.188415 19:-0.495353 20:-0.932753 21:-0.704042 22:0.0811211 23:0.0221721 24:-0.632997 25:-0.39009 26:-0.962027 27:-0.963911 28:-0.940912 
1 1:0.644786 2:-0.916586 3:-0.946857 4:-0.906577 5:-0.99663 7:-0.98284 8:-0.991238 9:-0.98956 10:-0.792289 11:-0.473989 12:-0.250087 13:-0.993518 14:-0.992121 15:-0.689055 16:-0.601773 17:-0.286616 18:-0.938036 19:-0.994174 20:-0.990684 21:-0.985776 22:-0.997342 23:-0.993212 24:-0.523173 25:-0.148581 26:-0.981021 27:-0.989555 28:-0.991008 
1 1:0.104779 2:-0.937172 3:-0.965173 4:-0.934661 5:-0.998289 7:-0.959219 8:-0.9512 9:-0.11534 10:-0.267628 11:-0.955221 12:-0.506792 13:-0.987508 14:-0.989716 15:-0.992645 16:-0.973262 17:-0.48376 18:-0.897433 19:-0.424597 20:-0.179465 21:-0.835099 22:-0.618196 23:0.5896 24:-0.896264 25:-0.527728 26:-0.985188 27:-0.98541 28:-0.964676 
1 1:0.772922 2:-0.917604 3:-0.968432 4:-0.91485 5:-0.995062 7:-0.993411 8:-0.995372 9:-0.986209 10:-0.865968 11:-0.74295 12:0.0665923 13:-0.99869 14:-0.999043 15:-0.998712 16:-0.25458 17:-0.465752 18:-0.839361 19:-0.96058 20:-0.987707 21:-0.988621 22:-0.997015 23:-0.985356 24:0.291302 25:-0.887991 26:-0.995234 27:-0.997521 28:-0.996789 
1 1:0.305587 2:-0.911238 3:-0.972905 4:-0.953236 5:-0.999511 7:-0.980806 8:-0.976162 9:-0.92961 10:-0.302145 11:-0.271485 12:-0.762486 13:-0.999633 14:-0.999116 15:-0.982996 16:-0.680049 17:-0.63696 18:-0.234373 19:-0.931684 20:-0.995989 21:-0.880027 22:-0.927582 23:-0.779012 24:-0.102637 25:-0.690796 26:-0.998559 27:-0.999065 28:-0.997431 
1 1:-0.245407 2:-0.761629 3:-0.869718 4:-0.678283 5:-0.601179 7:-0.916806 8:-0.958237 9:-0.701732 10:-0.384019 11:-0.617496 12:-0.911748 13:-0.938237 14:-0.721298 15:-0.740323 16:-0.853499 17:-0.463584 18:-0.759251 19:-0.820733 20:-0.903225 21:-0.85825 22:-0.985904 23:-0.987507 24:-0.70893 25:-0.0108944 26:-0.944689 27:-0.951475 28:-0.926782 
1 1:0.562943 2:-0.968576 3:-0.994099 4:-0.988529 5:-0.999847 7:-0.997204 8:-0.99687 9:-0.994089 10:-0.768605 11:-0.0665193 12:-0.590509 13:-0.999528 14:-0.896864 15:-0.733792 16:-0.648321 17:-0.307904 18:-0.856612 19:-0.992873 20:-0.996416 21:-0.997351 22:-0.999695 23:-0.832005 24:-0.222497 25:-0.512621 26:-0.995619 27:-0.998334 28:-0.997431 
1 1:0.424001 2:-0.927835 3:-0.974284 4:-0.94301 5:-0.999807 7:-0.995721 8:-0.991706 9:-0.939103 10:-0.493337 11:-0.174438 12:-0.710057 13:-0.977951 14:-0.906388 15:-0.825302 16:-0.569912 17:-0.60828 18:-0.549161 19:-0.956624 20:-0.994048 21:-0.994605 22:-0.997778 23:-0.993258 24:-0.447141 25:-0.217404 26:-0.992537 27:-0.996911 28:-0.992935 
1 1:0.61561 2:-0.845275 3:-0.84761 4:-0.942292 5:-0.988301 7:-0.987247 8:-0.997512 9:-0.960417 10:-0.704835 11:-0.524939 12:-0.236017 13:-0.991928 14:-0.995361 15:-0.995865 16:-0.513207 17:-0.393752 18:-0.697825 19:-0.899187 20:-0.993621 21:-0.987149 22:-0.983116 23:-0.606212 24:-0.0402917 25:-0.774038 26:-0.989783 27:-0.996789 28:-0.999358 
-1 1:0.184842 2:-0.834034 3:-0.616936 4:-0.871109 5:-0.997762 7:-0.97402 8:-0.934442 9:-0.821387 10:-0.238341 11:-0.243547 12:-0.790566 13:-0.989287 14:-0.993379 15:-0.979691 16:-0.706504 17:-0.593953 18:-0.255617 19:-0.822874 20:-0.958469 21:-0.918864 22:-0.993063 23:-0.99248 24:-0.865814 25:0.21152 26:-0.921599 27:-0.847478 28:-0.841743 
-1 1:0.891679 2:-0.987051 3:-0.984631 4:-0.985418 5:-0.99895 7:-0.994665 8:-0.995968 9:-0.994862 10:-0.970359 11:-0.929007 12:0.926835 13:-0.992858 14:-0.989814 15:-0.968706 16:0.182996 17:-0.0857326 18:-0.999351 19:-0.999739 20:-0.998547 21:-0.969158 22:-0.997225 23:-0.99248 24:-0.163806 25:0.299845 26:-0.996232 27:-0.985043 28:-0.963303 
-0.6926348675745353 1:0.0601244 2:-0.946158 3:-0.921046 4:-0.958252 5:-0.999881 7:-0.998822 8:-0.988818 9:-0.831175 10:0.574178 11:-0.755087 12:-0.794767 13:-0.999686 14:-0.999869 15:-0.999438 16:-0.805297 17:-0.873338 18:-0.00760189 19:-0.48741 20:-0.975184 21:-0.996495 22:-0.999095 23:-0.996691 24:-0.168703 25:-0.397816 26:-0.997918 27:-0.996 28:-0.997706 
-1 1:0.744148 2:-0.589527 3:-0.641395 4:-0.526509 5:-0.957327 7:-0.975475 8:-0.985014 9:-0.982323 10:-0.946236 11:-0.711583 12:0.0416687 13:-0.976812 14:-0.990931 15:-0.975447 16:-0.339288 17:-0.323164 18:-0.964026 19:-0.986647 20:-0.986296 21:-0.886971 22:-0.98691 23:-0.979391 24:-0.620329 25:0.00176871 26:-0.972668 27:-0.950087 28:-0.954128 
-1 1:0.506241 2:-0.957461 3:-0.937245 4:-0.94614 5:-0.999743 7:-0.996841 8:-0.993372 9:-0.972997 10:-0.739907 11:0.284418 12:-0.567016 13:-0.993461 14:-0.989486 15:-0.820175 16:-0.566424 17:-0.317614 18:-0.51218 19:-0.963242 20:-0.997683 21:-0.987032 22:-0.99822 23:-0.994954 24:0.214938 25:-0.555778 26:-0.987125 27:-0.97513 28:-0.963303 
-1 1:0.713702 2:-0.874055 3:-0.802575 4:-0.906144 5:-0.988257 7:-0.983276 8:-0.982892 9:-0.978171 10:-0.912522 11:-0.558298 12:-0.0767079 13:-0.990831 14:-0.991227 15:-0.980527 16:-0.547301 17:-0.15295 18:-0.921766 19:-0.979598 20:-0.987291 21:-0.911329 22:-0.990801 23:-0.987123 24:-0.171825 25:-0.424121 26:-0.976506 27:-0.950783 28:-0.970183 
-1 1:-0.205059 2:-0.663847 3:-0.54721 4:-0.645084 5:0.206356 7:-0.946321 8:-0.907033 9:-0.797099 10:-0.269852 11:-0.0466071 12:-0.787809 13:-0.924259 14:-0.879265 15:-0.694149 16:-0.564755 17:0.013031 18:-0.645164 19:-0.896464 20:-0.957527 21:-0.764654 22:-0.914493 23:-0.83401 24:-0.577758 25:0.375107 26:-0.741117 27:-0.50313 28:-0.56422 
-1 1:0.288643 2:-0.929461 3:-0.937625 4:-0.960868 5:-0.999842 7:-0.995497 8:-0.599794 9:-0.843289 10:-0.80688 11:-0.396142 12:-0.518045 13:-0.998745 14:-0.997454 15:-0.953652 16:-0.580792 17:-0.50521 18:-0.813774 19:-0.653901 20:-0.861533 21:-0.994743 22:-0.99816 23:-0.993529 24:-0.186456 25:-0.558645 26:-0.756679 27:-0.993913 28:-0.995413 
-0.3484293108622782 1:-0.873277 2:-0.990661 3:-0.987695 4:-0.988786 5:-0.999287 7:1 8:-0.978109 9:-0.988166 10:-0.96738 11:-0.97153 12:-0.883547 13:-0.997997 14:-0.999359 15:-0.999239 16:-0.888062 17:-0.974589 18:-0.956847 19:-0.983507 20:0.896219 21:-0.987383 22:-0.999125 23:-0.999377 24:-0.890484 25:-0.935784 26:0.693874 27:-0.978957 28:-0.986239 
-1 1:0.0732798 2:-0.989618 3:-0.970587 4:-0.989875 5:-1 7:-0.999667 8:-0.9849 9:-0.589486 10:-0.558445 11:-0.821331 12:-0.787344 13:-0.999879 14:-0.999376 15:-0.995981 16:-0.910864 17:-0.702285 18:-0.577657 19:-0.709199 20:-0.99699 21:-0.999825 22:-1 23:-0.999918 24:-0.768061 25:-0.612648 26:-0.603157 27:-0.917739 28:-0.963303 
-1 1:-0.0243885 2:-0.841621 3:-0.775742 4:-0.911498 5:-0.99796 7:-0.973271 8:-0.667328 9:-0.583642 10:-0.419757 11:-0.480485 12:-0.810976 13:-0.991507 14:-0.981337 15:-0.8922 16:-0.773354 17:-0.707439 18:-0.619441 19:-0.539283 20:-0.673119 21:-0.98931 22:-0.99617 23:-0.988827 24:-0.581824 25:-0.0667572 26:-0.913213 27:-0.943478 28:-0.972477 
-1 1:0.0874957 2:-0.76444 3:-0.713805 4:-0.815633 5:-0.523861 7:-0.951559 8:-0.936123 9:-0.933271 10:-0.61534 11:-0.10643 12:-0.763816 13:-0.960766 14:-0.974848 15:-0.824019 16:-0.667472 17:-0.341667 18:-0.679967 19:-0.891277 20:-0.96216 21:-0.749759 22:-0.977771 23:-0.906684 24:-0.148449 25:-0.488338 26:-0.915842 27:-0.728 28:-0.658257 
-1 1:0.589333 2:-0.901428 3:-0.743138 4:-0.948946 5:-0.993683 7:-0.989026 8:-0.982696 9:-0.929059 10:-0.716012 11:-0.353825 12:-0.190788 13:-0.976691 14:-0.910233 15:-0.945139 16:-0.531649 17:-0.2737 18:-0.653653 19:-0.95216 20:-0.984778 21:-0.956366 22:-0.987634 23:-0.942972 24:0.0578317 25:-0.484639 26:-0.984183 27:-0.953565 28:-0.956422 
-1 1:0.600969 2:-0.96447 3:-0.950045 4:-0.981893 5:-0.999386 7:-0.998213 8:-0.99667 9:-0.981896 10:-0.807913 11:-0.157737 12:-0.407035 13:-0.998697 14:-0.998357 15:-0.971465 16:-0.577235 17:-0.250808 18:-0.747798 19:-0.965985 20:-0.997173 21:-0.993341 22:-0.996863 23:-0.98827 24:-0.181523 25:-0.392259 26:-0.996069 27:-0.98887 28:-0.986239 
-1 1:0.28013 2:-0.949329 3:-0.911772 4:-0.971027 5:-0.99996 7:-0.998282 8:-0.957035 9:-0.801323 10:-0.610202 11:0.0777865 12:-0.816315 13:-0.997828 14:-0.995975 15:-0.925965 16:-0.757561 17:-0.551603 18:-0.368248 19:-0.766397 20:-0.924857 21:-0.998072 22:-0.999789 23:-0.99846 24:-0.166665 25:-0.396407 26:-0.990323 27:-0.982261 28:-0.977064 
-1 1:0.545418 2:-0.948954 3:-0.912348 4:-0.959251 5:-0.993861 7:-0.994139 8:-0.959059 9:-0.92772 10:-0.773561 11:-0.114254 12:-0.347843 13:-0.981759 14:-0.958304 15:-0.972164 16:-0.58892 17:-0.162947 18:-0.679085 19:-0.946203 20:-0.983246 21:-0.984053 22:-0.996954 23:-0.898345 24:-0.264147 25:-0.200068 26:-0.972168 27:-0.956174 28:-0.963303 
-1 1:0.153367 2:-0.910082 3:-0.729151 4:-0.887689 5:-0.995366 7:-0.961965 8:-0.856493 9:-0.768209 10:-0.35166 11:-0.414618 12:-0.74109 13:-0.990686 14:-0.995959 15:-0.976682 16:-0.641157 17:-0.743029 18:-0.423636 19:-0.693129 20:-0.858549 21:-0.928327 22:-0.992037 23:-0.992104 24:-0.545724 25:-0.164812 26:-0.911911 27:-0.860696 28:-0.83945 
-1 1:-0.408064 2:-0.976465 3:-0.966451 4:-0.984183 5:-1 7:-0.998781 8:-0.429532 9:0.227086 10:-0.219919 11:-0.815287 12:-0.998076 13:-0.999542 14:-0.919483 15:-0.782027 16:-0.775783 17:-0.880074 18:-0.712624 19:0.165101 20:-0.695894 21:-1 22:-0.987634 23:-0.602097 24:-0.310016 25:-0.767871 26:-0.160977 27:-0.761565 28:-0.93578 
-1 1:-0.348574 2:-0.881079 3:-0.896218 4:-0.917616 5:-0.999644 7:-0.975807 8:-0.669646 9:-0.0228456 10:-0.28756 11:-0.770467 12:-0.963133 13:-0.844127 14:-0.812647 15:-0.940158 16:-0.936978 17:-0.871271 18:-0.715326 19:-0.0392524 20:-0.639625 21:-0.899763 22:-0.889187 23:-0.787467 24:-0.328031 25:-0.416402 26:-0.86561 27:-0.902261 28:-0.933486 
-1 1:0.396777 2:-0.933804 3:-0.872865 4:-0.926866 5:-0.998475 7:-0.991492 8:-0.951386 9:-0.886533 10:-0.529534 11:-0.00843429 12:-0.585686 13:-0.986271 14:-0.974683 15:-0.957896 16:-0.724944 17:-0.306917 18:-0.3968 19:-0.854196 20:-0.965786 21:-0.9448 22:-0.952194 23:-0.877163 24:-0.0400266 25:-0.443734 26:-0.971726 27:-0.949043 28:-0.926606 
-1 1:0.472155 2:-0.964176 3:-0.93986 4:-0.963899 5:-0.999406 7:-0.999764 8:-0.998596 9:-0.95135 10:-0.707469 11:0.0179316 12:-0.644822 13:-1 14:-0.999918 15:-0.999264 16:-0.756023 17:-0.354973 18:-0.438098 19:-0.917437 20:-0.992382 21:-0.998949 22:-0.995144 23:-0.926425 24:-0.0994412 25:-0.539635 26:-0.998953 27:-0.99913 28:-1 
-1 1:0.720198 2:-0.67242 3:-0.677018 4:-0.648732 5:-0.923406 7:-0.973881 8:-0.980313 9:-0.963294 10:-0.932662 11:-0.663427 12:-0.0347586 13:-0.960525 14:-0.979612 15:-0.934915 16:-0.503708 17:-0.194485 18:-0.988067 19:-0.98589 20:-0.985157 21:-0.927802 22:-0.993757 23:-0.992792 24:-0.93282 25:0.298759 26:-0.957049 27:-0.923652 28:-0.940367 
-1 1:-0.281047 2:-0.638202 3:-0.541542 4:-0.635699 5:0.357446 7:-0.951767 8:-0.903834 9:-0.758055 10:-0.212349 11:-0.203346 12:-0.787007 13:-0.942839 14:-0.906603 15:-0.763116 16:-0.617158 17:0.0363591 18:-0.572543 19:-0.846552 20:-0.946558 21:-0.733812 22:-0.896064 23:-0.799705 24:-0.606993 25:0.368982 26:-0.732313 27:-0.430609 28:-0.541284 
-0.2364168333265823 1:-0.329343 2:-0.664377 3:-0.495538 4:-0.604492 5:-0.732396 7:-0.843702 8:-0.747806 9:-0.792205 10:0.602101 11:-0.761088 12:-0.978733 13:-0.939099 14:-0.974059 15:-0.941606 16:-0.90215 17:-0.676371 18:-0.052819 19:-0.474938 20:-0.944543 21:1 22:-0.468496 23:-0.732126 24:-0.180448 25:-0.643475 26:-0.946791 27:-0.715826 28:-0.62844 
-1 1:-0.121111 2:-0.831883 3:-0.674161 4:-0.892752 5:-0.981703 7:-0.943439 8:-0.723516 9:-0.578541 10:-0.355126 11:-0.660653 12:-0.87117 13:-0.909492 14:-0.893427 15:-0.828463 16:-0.871728 17:-0.749171 18:-0.650197 19:-0.559239 20:-0.846834 21:-0.961097 22:-0.98501 23:-0.936861 24:-0.797882 25:-0.226187 26:-0.70376 27:-0.646261 28:-0.791284 
-1 1:0.630936 2:-0.993399 3:-0.993053 4:-0.994915 5:-0.999901 7:-0.999127 8:-0.998759 9:-0.996822 10:-0.850337 11:-0.163889 12:-0.372509 13:-0.99959 14:-0.999754 15:-0.997578 16:-0.697851 17:-0.11037 18:-0.737477 19:-0.994391 20:-0.999018 21:-0.998598 22:-0.99997 23:-0.999656 24:-0.431206 25:-0.145013 26:-0.998604 27:-0.99687 28:-0.993119 
-1 1:0.184277 2:-0.716597 3:-0.678954 4:-0.776927 5:-0.769822 7:-0.942234 8:-0.929136 9:-0.885218 10:-0.653219 11:-0.15424 12:-0.713354 13:-0.954372 14:-0.9758 15:-0.894621 16:-0.641821 17:-0.438709 18:-0.650788 19:-0.848649 20:-0.957605 21:-0.714186 22:-0.966672 23:-0.960944 24:-0.0578142 25:-0.603079 26:-0.936765 27:-0.774609 28:-0.727064 
-1 1:-0.45056 2:-0.921336 3:-0.875953 4:-0.952056 5:-0.994792 7:-0.994056 8:-0.76351 9:0.138504 10:-0.217562 11:-0.939552 12:-0.99014 13:-0.998962 14:-0.999491 15:-0.99839 16:-0.999528 17:-0.967853 18:-0.882753 19:0.0498753 20:-0.108271 21:-0.975116 22:-0.86539 23:-0.498198 24:-0.302932 25:-0.569003 26:-0.986869 27:-0.979652 28:-0.993119 
-1 1:0.223354 2:-0.658632 3:-0.750949 4:-0.794315 5:-0.576416 7:-0.976264 8:-0.976281 9:-0.945921 10:-0.767024 11:-0.482848 12:-0.537011 13:-0.980335 14:-0.989781 15:-0.947048 16:-0.722017 17:-0.310219 18:-0.762839 19:-0.913801 20:-0.98233 21:-0.873828 22:-0.984075 23:-0.948247 24:-0.245302 25:-0.515297 26:-0.979868 27:-0.930783 28:-0.938073 
-1 1:0.804404 2:-0.953167 3:-0.922613 4:-0.956569 5:-0.996158 7:-0.994887 8:-0.994335 9:-0.990565 10:-0.964142 11:-0.705992 12:0.252257 13:-0.993775 14:-0.99241 15:-0.9732 16:-0.31403 17:-0.148158 18:-0.974092 19:-0.996116 20:-0.998063 21:-0.984229 22:-0.997165 23:-0.992808 24:-0.311196 25:-0.0924777 26:-0.987183 27:-0.994783 28:-1 
-1 1:0.742347 2:-0.816057 3:-0.908212 4:-0.941291 5:-0.991624 7:-0.984675 8:-0.9881 9:-0.98942 10:-0.949018 11:-0.454788 12:0.0461337 13:-0.995464 14:-0.995285 15:-0.975946 16:-0.467936 17:-0.0159542 18:-0.961567 19:-0.993634 20:-0.988377 21:-0.905897 22:-0.986065 23:-0.976999 24:0.221611 25:-0.628427 26:-0.985439 27:-0.942957 28:-0.942661 
-1 1:0.292898 2:-0.883434 3:-0.736352 4:-0.894604 5:-0.998752 7:-0.989913 8:-0.957622 9:-0.837165 10:-0.367529 11:-0.273723 12:-0.672663 13:-0.994716 14:-0.995121 15:-0.987879 16:-0.730232 17:-0.56486 18:-0.357567 19:-0.709075 20:-0.967762 21:-0.956366 22:-0.991374 23:-0.962811 24:-0.165205 25:-0.445092 26:-0.969831 27:-0.964174 28:-0.947248 
-1 1:0.560943 2:-0.958358 3:-0.855295 4:-0.942065 5:-0.999168 7:-0.995317 8:-0.97917 9:-0.84167 10:-0.740606 11:0.0433802 12:-0.0973899 13:-0.99655 14:-0.950155 15:-0.744617 16:-0.482584 17:0.123866 18:-0.782705 19:-0.971879 20:-0.991178 21:-0.973539 22:-0.757684 23:-0.709879 24:-0.000446003 25:-0.155846 26:-0.987183 27:-0.970087 28:-0.947248 
-0.5801861519361256 1:-0.799032 2:-0.898078 3:-0.854247 4:-0.919446 5:-0.999208 7:-0.92386 8:1 9:-0.606725 10:-0.905135 11:-0.980401 12:-0.991278 13:-0.995198 14:-0.996961 15:-0.994308 16:-0.991453 17:-0.982461 18:-0.970474 19:-0.472655 20:0.577362 21:-0.940945 22:-0.983049 23:-0.971773 24:-0.852242 25:-0.0319937 26:-0.590468 27:-0.892696 28:-0.90367 
-1 1:0.421831 2:-0.944504 3:-0.923892 4:-0.97197 5:-0.995822 7:-0.981696 8:-0.945803 9:-0.886777 10:-0.46583 11:0.477538 12:-0.504585 13:-0.965954 14:-0.936404 15:-0.728814 16:-0.500588 17:-0.194328 18:-0.393913 19:-0.858143 20:-0.969699 21:-0.96355 22:-0.99635 23:-0.983568 24:0.709547 25:-0.610935 26:-0.94629 27:-0.880174 28:-0.972477 
-0.1348691733838522 1:0.0220854 2:-0.766771 3:-0.616106 4:-0.832976 5:-0.458337 7:-0.404268 8:-0.947517 9:-0.900485 10:-0.757722 11:-0.0522408 12:-0.482893 13:0.14972 14:-0.858614 15:-0.890115 16:-0.922662 17:0.398789 18:-0.941064 19:-0.993944 20:-0.991466 21:-0.811969 22:-0.952616 23:-0.736779 24:0.280527 25:-0.658109 26:-0.487561 27:-0.913565 28:-0.995413 
-1 1:0.4593 2:-0.794584 3:-0.593433 4:-0.789713 5:-0.984139 7:-0.911708 8:-0.8816 9:-0.900388 10:-0.830121 11:-0.632798 12:-0.313068 13:-0.915983 14:-0.955708 15:-0.956236 16:-0.561241 17:-0.447306 18:-0.853517 19:-0.918591 20:-0.904425 21:-0.692105 22:-0.977379 23:-0.982143 24:-0.391022 25:-0.418099 26:-0.889569 27:-0.661043 28:-0.479358 
-1 1:0.229704 2:-0.858726 3:-0.758323 4:-0.886712 5:-0.996337 7:-0.984647 8:-0.968657 9:-0.935049 10:-0.162203 11:0.152179 12:-0.863106 13:-0.99281 14:-0.996287 15:-0.794373 16:-0.711057 17:-0.739315 18:0.0697159 19:-0.86745 20:-0.962527 21:-0.946727 22:-0.991012 23:-0.972969 24:0.0210234 25:-0.439264 26:-0.976948 27:-0.935478 28:-0.905963 
-1 1:-0.0110699 2:-0.83806 3:-0.806861 4:-0.904224 5:-0.999485 7:-0.964514 8:-0.6607 9:-0.657152 10:-0.326519 11:-0.511923 12:-0.796098 13:-0.996646 14:-0.988763 15:-0.897367 16:-0.829104 17:-0.707242 18:-0.515694 19:-0.531552 20:-0.701064 21:-0.978446 22:-0.995144 23:-0.989466 24:-0.453218 25:-0.230454 26:-0.864191 27:-0.893739 28:-0.896789 
-1 1:0.265252 2:-0.937349 3:-0.922233 4:-0.958196 5:-0.999842 7:-0.998698 8:-0.988214 9:-0.923848 10:-0.303475 11:0.161892 12:-0.896269 13:-0.997105 14:-0.993445 15:-0.980752 16:-0.933613 17:-0.299877 18:-0.176746 19:-0.90705 20:-0.995537 21:-0.99632 22:-0.998794 23:-0.997395 24:-0.88069 25:0.33818 26:-0.981042 27:-0.956348 28:-0.981651 
-1 1:0.236748 2:-0.761996 3:-0.621498 4:-0.882727 5:-0.99495 7:-0.979812 8:-0.807178 9:-0.682207 10:-0.760944 11:-0.277695 12:-0.645528 13:-0.98656 14:-0.98758 15:-0.96214 16:-0.667079 17:-0.441814 18:-0.752808 19:-0.618545 20:-0.944752 21:-0.947779 22:-0.992249 23:-0.990564 24:-0.699464 25:-0.0206095 26:-0.828136 27:-0.873913 28:-0.889908 
-0.4174712903311683 1:-0.313897 2:-0.859639 3:-0.849166 4:-0.879584 5:0.800416 7:-0.975322 8:-0.963336 9:-0.872301 10:-0.387852 11:-0.260546 12:-0.713217 13:-0.974279 14:-0.917971 15:-0.644581 16:-0.688072 17:0.125579 18:-0.695043 19:-0.816557 20:-0.973731 21:-0.874354 22:-0.988237 23:-0.962877 24:-0.108632 25:0.195843 26:-0.964004 27:-0.898609 28:-0.87844 
-1 1:-0.108398 2:-0.493554 3:-0.247778 4:-0.66667 5:-0.315168 7:-0.949564 8:-0.917383 9:-0.832137 10:-0.697422 11:-0.323196 12:-0.785083 13:-0.937651 14:-0.93808 15:-0.936987 16:-0.624665 17:-0.382633 18:-0.767084 19:-0.845249 20:-0.939464 21:-0.763778 22:-0.964711 23:-0.934191 24:-0.406615 25:-0.284092 26:-0.932159 27:-0.702087 28:-0.603211 
-1 1:0.14299 2:-0.887884 3:-0.84336 4:-0.855124 5:-0.995802 7:-0.988402 8:-0.974632 9:-0.675536 10:-0.124491 11:-0.564622 12:-0.684904 13:-0.993871 14:-0.994201 15:-0.909738 16:-0.920268 17:-0.550895 18:-0.524844 19:-0.442722 20:-0.880617 21:-0.904144 22:-0.946132 23:-0.78999 24:-0.307917 25:-0.400131 26:-0.986485 27:-0.948348 28:-0.917431 
-1 1:-0.291291 2:-0.479635 3:-0.405755 4:-0.471616 5:-0.893901 7:-0.862173 8:-0.760376 9:-0.352593 10:-0.366982 11:-0.69002 12:-0.892005 13:-0.897452 14:-0.957351 15:-0.95676 16:-0.869394 17:-0.690732 18:-0.589556 19:-0.488353 20:-0.63918 21:-0.0435468 22:-0.459539 23:-0.450786 24:-0.53105 25:-0.636536 26:-0.8863 27:-0.406261 28:0.00688073 
-1 1:-0.0228274 2:-0.643841 3:-0.534722 4:-0.695239 5:-0.930752 7:-0.971817 8:-0.855987 9:-0.605155 10:-0.39229 11:-0.24849 12:-0.919019 13:-0.982 14:-0.99011 15:-0.965735 16:-0.924236 17:-0.392819 18:-0.638623 19:-0.634033 20:-0.746731 21:-0.848068 22:-0.925592 23:-0.797674 24:-0.856221 25:0.0567217 26:-0.895861 27:-0.865391 28:-0.821101 
-1 1:0.0352533 2:-0.765769 3:-0.924399 4:-0.91774 5:-0.837782 7:-0.991686 8:-0.983284 9:-0.956817 10:0.113729 11:-0.298351 12:-0.961089 13:-0.994643 14:-0.995104 15:-0.986544 16:-0.939679 17:-0.547568 18:-0.00187293 19:-0.917028 20:-0.996034 21:-0.907649 22:-0.930086 23:-0.821068 24:-0.155122 25:-0.612979 26:-0.99515 27:-0.986783 28:-0.986239 
-1 1:0.358156 2:-0.768148 3:-0.703263 4:-0.783696 5:-0.988574 7:-0.974546 8:-0.965523 9:-0.942646 10:-0.557001 11:0.017133 12:-0.728456 13:-0.989793 14:-0.896154 15:-0.919649 16:-0.784934 17:-0.263077 18:-0.652853 19:-0.919224 20:-0.963678 21:-0.905546 22:-0.981602 23:-0.93809 24:-0.625008 25:-0.0252752 26:-0.962341 27:-0.911652 28:-0.901376 
-1 1:-0.252038 2:-0.932712 3:-0.956024 4:-0.966503 5:-1 7:-0.999778 8:-0.704645 9:-0.18898 10:-0.273849 11:-0.668133 12:-0.973923 13:-0.999566 14:-0.892458 15:-0.603013 16:-0.935422 17:-0.870802 18:-0.4835 19:-0.250382 20:-0.998534 21:-0.99965 22:-0.998673 23:-0.962172 24:-0.704029 25:-0.231277 26:-0.539212 27:-0.989565 28:-0.993119 
-1 1:0.439184 2:-0.788203 3:-0.772701 4:-0.881335 5:-0.998396 7:-0.987432 8:-0.965784 9:-0.920683 10:-0.616055 11:-0.178588 12:-0.554839 13:-0.990517 14:-0.990652 15:-0.962415 16:-0.73011 17:-0.210089 18:-0.672916 19:-0.926608 20:-0.979058 21:-0.957417 22:-0.987272 23:-0.933109 24:-0.555256 25:-0.137794 26:-0.909538 27:-0.768348 28:-0.662844 
-1 1:-0.075504 2:-0.913423 3:-0.932302 4:-0.946713 5:-0.998139 7:-0.96626 8:-0.807945 9:-0.635762 10:-0.118821 11:-0.338704 12:-0.975606 13:-0.998456 14:-0.999376 15:-0.948584 16:-0.894285 17:-0.602796 18:-0.314623 19:-0.614971 20:-0.845277 21:-0.952335 22:-0.995204 23:-0.994184 24:-0.980079 25:0.331156 26:-0.92653 27:-0.96713 28:-0.977064 
-1 1:0.34946 2:-0.699915 3:-0.591785 4:-0.901036 5:-0.694455 7:-0.986961 8:-0.986288 9:-0.958606 10:-0.634751 11:-0.689685 12:-0.293709 13:-0.988249 14:-0.996534 15:-0.991287 16:-0.625635 17:-0.391559 18:-0.653258 19:-0.855363 20:-0.976113 21:-0.95987 22:-0.994028 23:-0.901458 24:0.0367996 25:-0.704706 26:-0.983229 27:-0.959652 28:-0.961009 
-1 1:0.306599 2:-0.87826 3:-0.91441 4:-0.910028 5:-0.999089 7:-0.995247 8:-0.988034 9:-0.914486 10:-0.090974 11:-0.401149 12:-0.658803 13:-0.916321 14:-0.976934 15:-0.993184 16:-0.744792 17:-0.620517 18:-0.104983 19:-0.913193 20:-0.985275 21:-0.989661 22:-0.989624 23:-0.909076 24:-0.638169 25:0.000699849 26:-0.992777 27:-0.986261 28:-0.983945 
-1 1:0.383869 2:-0.987035 3:-0.997799 4:-0.997261 5:-1 7:-0.999945 8:-0.999755 9:-0.996494 10:-0.451648 11:0.0981194 12:-0.772586 13:-1 14:-1 15:-0.684912 16:-0.975223 17:-0.365546 18:-0.31409 19:-0.972996 20:-0.999306 21:-1 22:-1 23:-1 24:0.230671 25:-0.781392 26:-0.999953 27:-1 28:-1 
-1 1:0.511418 2:-0.614048 3:-0.684968 4:-0.739726 5:-0.888713 7:-0.996675 8:-0.999478 9:-0.998904 10:-0.898006 11:0.0612309 12:-0.459085 13:-0.997056 14:-0.999852 15:-0.999626 16:-0.723109 17:0.0908627 18:-0.83974 19:-0.99588 20:-0.999607 21:-0.983528 22:-0.999548 23:-0.999918 24:-0.773754 25:0.292304 26:-0.998197 27:-0.996522 28:-1 
-1 1:-0.229915 2:-0.799229 3:-0.83829 4:-0.849534 5:-0.972515 7:-0.773465 8:-0.560175 9:-0.598203 10:-0.43099 11:-0.500202 12:-0.915244 13:-0.987646 14:-0.946525 15:-0.789567 16:-0.771728 17:-0.738911 18:-0.695773 19:-0.6884 20:-0.44756 21:-0.917112 22:-0.99065 23:-0.974377 24:-0.727886 25:-0.130931 26:-0.641979 27:-0.0958261 28:-0.754587 
-1 1:-0.00758837 2:-0.997767 3:-0.998007 4:-0.999282 5:-1 7:-1 8:-0.858713 9:-0.528869 10:-0.383869 11:0.0750668 12:-1 13:-1 14:-1 15:-1 16:-1 17:-0.56463 18:0.520982 19:-0.957037 20:-0.999817 21:-0.998072 22:-0.0943146 23:-0.473149 24:0.0957857 25:-1 26:-1 27:-1 28:-1 
-1 1:-0.0443245 2:-0.993652 3:-1 4:-0.999955 5:-1 7:-1 8:-0.995217 9:-0.609294 10:0.331641 11:-0.531964 12:-0.974813 13:-0.997008 14:-0.96113 15:-0.908814 16:-0.893682 17:-0.719873 18:-0.148449 19:-0.539681 20:-1 21:-1 22:-1 23:-1 24:-0.999956 25:0.364002 26:-0.933695 27:-0.999652 28:-1 
-1 1:0.545773 2:-0.938506 3:-0.919122 4:-0.948273 5:-1 7:-0.993432 8:-0.949901 9:-0.877743 10:-0.525005 11:-0.733373 12:-0.222733 13:-0.999566 14:-0.999031 15:-0.995681 16:-0.718136 17:-0.254258 18:-0.622445 19:-0.879078 20:-0.987409 21:-0.821957 22:-0.779913 23:-0.69864 24:-0.203421 25:-0.587089 26:-0.999744 27:-0.998783 28:-1 
-1 1:0.143393 2:-0.796515 3:-0.791895 4:-0.870043 5:-0.966693 7:-0.951351 8:-0.82138 9:-0.590837 10:-0.203198 11:-0.805175 12:-0.488681 13:-0.974689 14:-0.99149 15:-0.991774 16:-0.982896 17:-0.411289 18:-0.832839 19:-0.254961 20:-0.556642 21:-0.807763 22:-0.979822 23:-0.307946 24:-0.456926 25:-0.404135 26:-0.929624 27:-0.752348 28:-0.600917 
-1 1:-0.221639 2:-0.780225 3:-0.574953 4:-0.74691 5:-0.998396 7:-0.949619 8:-0.72763 9:-0.365109 10:-0.171581 11:-0.717033 12:-0.901961 13:-0.988539 14:-0.993166 15:-0.97984 16:-0.884723 17:-0.680406 18:-0.444801 19:-0.319703 20:-0.891376 21:-0.0859546 22:-0.249284 23:-0.423444 24:-0.60562 25:-0.582567 26:-0.942557 27:-0.849217 28:-0.793578 
-1 1:0.542043 2:-0.945727 3:-0.931139 4:-0.949171 5:-0.997564 7:-0.996037 8:-0.991887 9:-0.989189 10:-0.935551 11:0.383471 12:-0.733242 13:-0.992013 14:-0.985428 15:-0.951392 16:-0.899039 17:0.234825 18:-0.991731 19:-0.998896 20:-0.999018 21:-0.96688 22:-0.987966 23:-0.962287 24:-0.596787 25:0.00180264 26:-0.995487 27:-0.996522 28:-1 
-1 1:0.259198 2:-0.923178 3:-0.92706 4:-0.942862 5:-0.999149 7:-0.99407 8:-0.989455 9:-0.947016 10:-0.0317383 11:-0.254189 12:-0.773732 13:-0.997177 14:-0.993461 15:-0.934541 16:-0.712718 17:-0.736112 18:-0.0316311 19:-0.862412 20:-0.983835 21:-0.935337 22:-0.974212 23:-0.867808 24:-0.258559 25:-0.388442 26:-0.996848 27:-0.989913 28:-0.993119 
-1 1:-0.225628 2:-0.582486 3:-0.561957 4:-0.647901 5:-0.850495 7:-0.900249 8:-0.665238 9:-0.597144 10:-0.399982 11:-0.421882 12:-0.959013 13:-0.970587 14:-0.988089 15:-0.83785 16:-0.758784 17:-0.672295 18:-0.585114 19:-0.552525 20:-0.838536 21:-0.668273 22:-0.970743 23:-0.974033 24:-0.916186 25:-0.0766568 26:-0.538072 27:-0.359304 28:-0.493119 
-1 1:0.504253 2:-0.771579 3:-0.774717 4:-0.874488 5:-0.777069 7:-0.966911 8:-0.985096 9:-0.995045 10:-0.808263 11:-0.315889 12:-0.158033 13:-0.97756 14:-0.99448 15:-0.635643 16:-0.690222 17:0.0582709 18:-0.99644 19:-0.998672 20:-0.984712 21:-0.874179 22:-0.992761 23:-0.991612 24:0.18468 25:-0.520438 26:-0.977251 27:-0.901043 28:-0.986239 
-1 1:-0.00371279 2:-0.775507 3:-0.742677 4:-0.804048 5:-0.923505 7:-0.940931 8:-0.801807 9:-0.526446 10:-0.52961 11:-0.554737 12:-0.714356 13:-0.966244 14:-0.986068 15:-0.973187 16:-0.696304 17:-0.670837 18:-0.692584 19:-0.633896 20:-0.58282 21:-0.785333 22:-0.966461 23:-0.868299 24:-0.598545 25:-0.148211 26:-0.903362 27:-0.693739 28:-0.456422 
-1 1:0.181085 2:-0.897402 3:-0.940931 4:-0.924778 5:-0.54095 7:-0.986615 8:-0.993438 9:-0.776414 10:-0.807944 11:-0.33783 12:-0.602432 13:-0.986584 14:-0.996994 15:-0.997503 16:-0.740685 17:-0.138853 18:-0.704077 19:-0.933222 20:-0.994594 21:-0.949882 22:-0.809561 23:-0.598968 24:-0.107111 25:-0.725668 26:-0.990068 27:-0.978261 28:-0.995413 
-1 1:-0.0843946 2:-0.754686 3:-0.677387 4:-0.760134 5:-0.994178 7:-0.949702 8:-0.719794 9:-0.0831948 10:0.0562109 11:-0.59197 12:-0.668823 13:-0.950801 14:-0.720104 15:-0.757686 16:-0.712814 17:-0.701791 18:-0.671779 19:-0.231394 20:-0.382207 21:-0.720669 22:-0.853838 23:-0.493922 24:0.0729783 25:-0.391538 26:-0.87424 27:-0.623304 28:-0.383028 
-1 1:0.208929 2:-0.711218 3:-0.726017 4:-0.773234 5:-0.967545 7:-0.955619 8:-0.928581 9:-0.871534 10:-0.32737 11:-0.194982 12:-0.772426 13:-0.977464 14:-0.98804 15:-0.942492 16:-0.760611 17:-0.522453 18:-0.33181 19:-0.848972 20:-0.927239 21:-0.854552 22:-0.98498 23:-0.975917 24:-0.565339 25:-0.0859288 26:-0.931683 27:-0.856522 28:-0.892202 
-0.4271754887073259 1:-0.593768 2:-0.888096 3:-0.848625 4:-0.885624 5:-0.220455 7:-0.95911 8:-0.925823 9:-0.118513 10:-0.321442 11:-0.908577 12:-0.978981 13:-0.962841 14:-0.984688 15:-0.988703 16:-0.995648 17:-0.619315 18:-0.789872 19:-0.315434 20:-0.324459 21:-0.795672 22:-0.97759 23:-0.53424 24:-0.284541 25:-0.503438 26:-0.962201 27:-0.829565 28:-0.809633 
-1 1:-0.307442 2:-0.727664 3:-0.792533 4:-0.759191 5:-0.995652 7:-0.934178 8:-0.829214 9:-0.56589 10:-0.724798 11:-0.918748 12:-0.972244 13:-0.991229 14:-0.988464 15:-0.986977 16:-0.969847 17:-0.925824 18:-0.834026 19:-0.571743 20:-0.84699 21:-0.95311 22:-0.992985 23:-0.987949 24:-0.900551 25:-0.548469 26:-0.830344 27:-0.961839 28:-0.962749 
-1 1:0.208499 2:-0.906806 3:-0.914139 4:-0.858981 5:-0.997892 7:-0.976633 8:-0.978837 9:-0.721255 10:-0.235407 11:-0.485727 12:-0.760191 13:-0.98922 14:-0.977787 15:-0.969381 16:-0.845395 17:-0.640168 18:-0.41274 19:-0.588738 20:-0.969023 21:-0.961154 22:-0.99037 23:-0.972192 24:-0.240255 25:-0.452119 26:-0.967807 27:-0.979151 28:-0.958253 
-1 1:0.157521 2:-0.78582 3:-0.83913 4:-0.843383 5:-0.993239 7:-0.911891 8:-0.821643 9:-0.676157 10:-0.526165 11:-0.521104 12:-0.700578 13:-0.97063 14:-0.962079 15:-0.935541 16:-0.796635 17:-0.631672 18:-0.588917 19:-0.674964 20:-0.770841 21:-0.896704 22:-0.989652 23:-0.982671 24:-0.22248 25:-0.524231 26:-0.877977 27:-0.937901 28:-0.928067 
-0.7322885325279197 1:0.262048 2:-0.712235 3:-0.710222 4:-0.742923 5:-0.94574 7:-0.898693 8:-0.916607 9:-0.798937 10:-0.680279 11:-0.274859 12:-0.680728 13:-0.968428 14:-0.95987 15:-0.954812 16:-0.854738 17:-0.274048 18:-0.63168 19:-0.830064 20:-0.940763 21:-0.799392 22:-0.962658 23:-0.918695 24:-0.370968 25:-0.406557 26:-0.853789 27:-0.933797 28:-0.895954 
-1 1:0.0432898 2:-0.804917 3:-0.856076 4:-0.934393 5:-0.988678 7:-0.979811 8:-0.939482 9:-0.426901 10:-0.223545 11:-0.688039 12:-0.79277 13:-0.983087 14:-0.885525 15:-0.826732 16:-0.845289 17:-0.769192 18:-0.676712 19:-0.528614 20:-0.653841 21:-0.975378 22:-0.993355 23:-0.965403 24:-0.0159333 25:-0.643226 26:-0.976426 27:-0.990978 28:-0.98587 
-1 1:0.239126 2:-0.923443 3:-0.952418 4:-0.925718 5:-0.999521 7:-0.992395 8:-0.963159 9:-0.644071 10:-0.309587 11:-0.280809 12:-0.764164 13:-0.990495 14:-0.984022 15:-0.960196 16:-0.685649 17:-0.602448 18:-0.422784 19:-0.596027 20:-0.968622 21:-0.986266 22:-0.995316 23:-0.986836 24:-0.411119 25:-0.0901998 26:-0.98426 27:-0.995245 28:-0.991651 
-1 1:0.565374 2:-0.985971 3:-0.993258 4:-0.987687 5:-0.999796 7:-0.997288 8:-0.998261 9:-0.99675 10:-0.989523 11:0.48216 12:-0.91174 13:-0.999004 14:-0.999485 15:-0.998493 16:-0.997001 17:0.146648 18:-0.777746 19:-0.998087 20:-0.998331 21:-0.997548 22:-0.999586 23:-0.999283 24:-0.404445 25:-0.248587 26:-0.996076 27:-0.99744 28:-0.994862 
-1 1:0.26565 2:-0.704005 3:-0.809367 4:-0.707783 5:-0.959374 7:-0.829481 8:-0.871138 9:-0.873357 10:-0.559574 11:-0.561604 12:-0.550939 13:-0.970752 14:-0.980757 15:-0.978127 16:-0.790123 17:-0.415344 18:-0.584109 19:-0.874279 20:-0.843884 21:-0.820286 22:-0.984488 23:-0.981298 24:-0.569065 25:-0.226502 26:-0.830187 27:-0.925465 28:-0.933847 
-1 1:0.0911661 2:-0.717583 3:-0.800368 4:-0.68713 5:-0.862278 7:-0.874987 8:-0.897451 9:-0.798156 10:-0.562305 11:-0.404292 12:-0.739209 13:-0.947008 14:-0.950101 15:-0.942484 16:-0.761023 17:-0.529104 18:-0.568919 19:-0.784839 20:-0.847637 21:-0.786639 22:-0.970066 23:-0.916163 24:-0.130572 25:-0.624845 26:-0.897727 27:-0.923474 28:-0.867052 
-1 1:0.584065 2:-0.954356 3:-0.974552 4:-0.956559 5:-0.999796 7:-0.995488 8:-0.994502 9:-0.983164 10:-0.719204 11:-0.300392 12:-0.434257 13:-0.999039 14:-0.998356 15:-0.856732 16:-0.729623 17:-0.255 18:-0.705678 19:-0.98251 20:-0.995122 21:-0.989504 22:-0.994118 23:-0.979803 24:-0.10286 25:-0.558151 26:-0.988841 27:-0.995204 28:-0.992935 
-1 1:-0.32927 2:-0.851299 3:-0.865545 4:-0.890855 5:-0.99383 7:-0.95119 8:-0.764977 9:0.137985 10:-0.406146 11:-0.932832 12:-0.959249 13:-0.981288 14:-0.970301 15:-0.980098 16:-0.973651 17:-0.912424 18:-0.832105 19:-0.189968 20:-0.268528 21:-0.859035 22:-0.821374 23:-0.478289 24:-0.312975 25:-0.730621 26:-0.930448 27:-0.968016 28:-0.93192 
-1 1:0.0702691 2:-0.800956 3:-0.896938 4:-0.783071 5:-0.183684 7:-0.964515 8:-0.986422 9:-0.973927 10:-0.870863 11:-0.52916 12:-0.146497 13:-0.973635 14:-0.925483 15:-0.772501 16:-0.130668 17:0.010592 18:-0.979116 19:-0.994883 20:-0.991706 21:-0.94693 22:-0.992898 23:-0.97602 24:-0.10813 25:0.0993299 26:-0.973672 27:-0.988174 28:-0.994862 
-0.6029210524793238 1:0.035141 2:-0.825086 3:-0.90613 4:-0.870087 5:-0.934153 7:-0.980425 8:-0.945221 9:-0.642344 10:-0.199741 11:-0.481487 12:-0.907927 13:-0.995352 14:-0.99541 15:-0.983705 16:-0.913345 17:-0.63176 18:-0.348716 19:-0.579504 20:-0.955837 21:-0.977634 22:-0.997407 23:-0.994615 24:-0.739574 25:0.0439497 26:-0.963897 27:-0.991303 28:-0.995504 
-1 1:-0.0656778 2:-0.90908 3:-0.903891 4:-0.889706 5:-0.99999 7:-0.996335 8:-0.954076 9:-0.33947 10:-0.077255 11:-0.659785 12:-0.956336 13:-0.990792 14:-0.879708 15:-0.844405 16:-0.909921 17:-0.863464 18:-0.596522 19:-0.180336 20:-0.942251 21:-0.998332 22:-0.998824 23:-0.968744 24:-0.317551 25:-0.387737 26:-0.93724 27:-0.988905 28:-0.989724 
-1 1:0.22596 2:-0.756301 3:-0.796876 4:-0.755859 5:-0.997108 7:-0.91706 8:-0.889358 9:-0.702141 10:-0.551618 11:-0.463135 12:-0.671553 13:-0.839015 14:-0.806885 15:-0.985186 16:-0.80535 17:-0.50268 18:-0.561862 19:-0.859831 20:-0.908802 21:-0.970767 22:-0.996318 23:-0.99399 24:-0.558352 25:-0.168033 26:-0.893888 27:-0.972771 28:-0.976879 
-1 1:0.230934 2:-0.881453 3:-0.868863 4:-0.864362 5:-0.983251 7:-0.927801 8:-0.940244 9:-0.745038 10:-0.422402 11:-0.448869 12:-0.695424 13:-0.980432 14:-0.985151 15:-0.968531 16:-0.746132 17:-0.533312 18:-0.509295 19:-0.748408 20:-0.940452 21:-0.899549 22:-0.988911 23:-0.983022 24:-0.781014 25:0.0536398 26:-0.907702 27:-0.95623 28:-0.957611 
-1 1:-0.164236 2:-0.852392 3:-0.948133 4:-0.920969 5:-0.999623 7:-0.985806 8:-0.846952 9:-0.262606 10:-0.0429619 11:-0.845889 12:-0.934576 13:-0.99876 14:-0.998797 15:-0.998802 16:-0.960928 17:-0.90196 18:-0.597308 19:-0.10815 20:-0.66101 21:-0.979007 22:-0.966493 23:-0.698317 24:-0.276665 25:-0.556871 26:-0.974243 27:-0.994188 28:-0.989082 
-1 1:0.790238 2:-0.909442 3:-0.96563 4:-0.930026 5:-0.999135 7:-0.991717 8:-0.99481 9:-0.992759 10:-0.973096 11:-0.603278 12:-0.022663 13:-0.996244 14:-0.992931 15:-0.981309 16:-0.561773 17:-0.101496 18:-0.978818 19:-0.997302 20:-0.995808 21:-0.9897 22:-0.998562 23:-0.996369 24:-0.356001 25:-0.304223 26:-0.987342 27:-0.991669 28:-0.984586 
-1 1:0.459294 2:-0.895174 3:-0.929424 4:-0.873017 5:-0.996935 7:-0.967799 8:-0.984202 9:-0.954442 10:-0.570011 11:0.513615 12:-0.723895 13:-0.984695 14:-0.883586 15:-0.79096 16:-0.720368 17:-0.075128 18:-0.459504 19:-0.934672 20:-0.979775 21:-0.917697 22:-0.97902 23:-0.856778 24:0.72312 25:-0.924263 26:-0.980422 27:-0.988417 28:-0.987797 
-1 1:-0.204931 2:-0.773048 3:-0.767296 4:-0.729451 5:-0.989115 7:-0.934093 8:-0.763426 9:-0.274172 10:-0.248852 11:-0.757495 12:-0.949858 13:-0.963571 14:-0.909063 15:-0.893767 16:-0.933509 17:-0.876464 18:-0.603311 19:-0.222186 20:-0.769689 21:-0.88709 22:-0.936798 23:-0.814905 24:-0.562325 25:-0.337838 26:-0.822852 27:-0.901325 28:-0.88632 
-0.7167338536840086 1:0.589986 2:-0.811754 3:-0.878855 4:-0.821495 5:-0.732171 7:-0.986314 8:-0.987599 9:-0.958076 10:-0.791656 11:-0.806503 12:0.468281 13:-0.999196 14:-0.999264 15:-0.998428 16:-0.119351 17:-0.049512 18:-0.763939 19:-0.93578 20:-0.977123 21:-0.94742 22:-0.953421 23:-0.838351 24:-0.661105 25:0.563008 26:-0.996261 27:-0.997968 28:-1 
-1 1:0.48107 2:-0.661318 3:-0.805982 4:-0.708137 5:-0.987995 7:-0.972417 8:-0.951374 9:-0.823667 10:-0.739484 11:-0.555375 12:-0.344985 13:-0.988591 14:-0.979996 15:-0.956512 16:-0.610692 17:-0.40748 18:-0.788118 19:-0.832075 20:-0.900586 21:-0.968315 22:-0.995381 23:-0.985325 24:-0.252786 25:-0.41924 26:-0.96588 27:-0.98094 28:-0.970456 
-1 1:-0.00320472 2:-0.896588 3:-0.939475 4:-0.926216 5:-0.999511 7:-0.981654 8:-0.77711 9:-0.483474 10:-0.127712 11:-0.416674 12:-0.917632 13:-0.991683 14:-0.853175 15:-0.830119 16:-0.878043 17:-0.701608 18:-0.36949 19:-0.44715 20:-0.877061 21:-0.975181 22:-0.963704 23:-0.751508 24:-0.561714 25:-0.163856 26:-0.743839 27:-0.951516 28:-0.977521 
-0.4461233540881867 1:0.392584 2:-0.896288 3:-0.904312 4:-0.936145 5:-0.996212 7:-0.978582 8:-0.982476 9:-0.944514 10:-0.546155 11:0.538254 12:-0.742661 13:-0.98887 14:-0.954617 15:-0.925081 16:-0.717386 17:-0.305632 18:-0.0196842 19:-0.927147 20:-0.984485 21:-0.938493 22:-0.960785 23:-0.847442 24:0.0264151 25:-0.241609 26:-0.97547 27:-0.990165 28:-0.991651 
-1 1:0.145481 2:-0.96139 3:-0.956881 4:-0.972041 5:-0.99999 7:-0.997924 8:-0.976015 9:-0.666332 10:-0.07075 11:-0.570083 12:-0.812339 13:-0.99993 14:-0.991851 15:-0.95333 16:-0.894411 17:-0.721912 18:-0.312164 19:-0.52985 20:-0.961052 21:-0.999902 22:-0.999956 23:-0.999008 24:-0.32928 25:-0.321827 26:-0.994378 27:-0.999025 28:-0.997431 
-0.5269236520691105 1:-0.184547 2:-0.874971 3:-0.91032 4:-0.898678 5:-0.998687 7:-0.946995 8:-0.882629 9:-0.426914 10:0.286325 11:-0.878286 12:-0.998788 13:-0.993046 14:-0.993569 15:-0.990803 16:-0.994798 17:-0.9878 18:-0.611911 19:0.0369638 20:-0.643347 21:-0.967628 22:-0.994423 23:-0.841127 24:0.0952365 25:-0.8747 26:-0.914851 27:-0.95558 28:-0.917791 
-1 1:0.580352 2:-0.972926 3:-0.98549 4:-0.988558 5:-0.998992 7:-0.952503 8:-0.917343 9:-0.907196 10:-0.629559 11:-0.605624 12:-0.00770148 13:-0.96303 14:-0.9677 15:-0.982777 16:-0.401585 17:-0.264384 18:-0.667495 19:-0.890469 20:-0.99287 21:-0.99637 22:-0.99878 23:-0.995469 24:-0.392312 25:-0.0372922 26:-0.812506 27:-0.959197 28:-0.981374 
-1 1:0.547163 2:-0.988095 3:-0.995635 4:-0.994073 5:-1 7:-0.999767 8:-0.999773 9:-0.989995 10:-0.600016 11:-0.341844 12:-0.462919 13:-0.999965 14:-0.999509 15:-0.992632 16:-0.686667 17:-0.419872 18:-0.473112 19:-0.946648 20:-0.998952 21:-0.999313 22:-0.999346 23:-0.995546 24:0.106164 25:-0.742543 26:-0.999715 27:-0.999959 28:-1 
-1 1:0.195059 2:-0.935669 3:-0.972627 4:-0.95922 5:-0.999002 7:-0.990085 8:-0.954344 9:-0.667355 10:-0.160711 11:-0.644375 12:-0.711694 13:-0.961125 14:-0.791373 15:-0.956113 16:-0.8085 17:-0.683272 18:-0.458798 19:-0.609239 20:-0.994656 21:-0.988621 22:-0.99817 23:-0.99341 24:-0.47069 25:-0.20793 26:-0.963754 27:-0.992319 28:-0.990366 
-1 1:-0.343139 2:-0.944575 3:-0.959778 4:-0.941028 5:-0.99942 7:-0.906044 8:-0.775786 9:0.148066 10:-0.443382 11:-0.885611 12:-0.988562 13:-0.977566 14:-0.956213 15:-0.96732 16:-0.966219 17:-0.933568 18:-0.794827 19:-0.482152 20:0.0350209 21:-0.965077 22:-0.936449 23:-0.595396 24:-0.24351 25:-0.710216 26:-0.881102 27:-0.980371 28:-0.979448 
-0.7225704847914677 1:0.721767 2:-0.976983 3:-0.985087 4:-0.985475 5:-1 7:-0.999809 8:-0.996107 9:-0.959943 10:-0.833364 11:-0.549684 12:0.160615 13:-0.992365 14:-0.88415 15:-0.799758 16:-0.559056 17:0.0944 18:-0.998547 19:-0.999882 20:-0.999948 21:-0.999313 22:-0.999434 23:-0.994966 24:0.252282 25:-0.55671 26:-0.999001 27:-0.999878 28:-1 
-1 1:-0.273665 2:-0.654269 3:-0.733906 4:-0.476443 5:-0.987272 7:-0.875919 8:-0.750463 9:-0.180421 10:-0.329498 11:-0.804485 12:-0.959683 13:-0.910195 14:-0.784157 15:-0.857827 16:-0.909691 17:-0.850176 18:-0.65544 19:-0.255661 20:-0.893404 21:-0.847459 22:-0.979368 23:-0.961773 24:-0.718743 25:-0.324875 26:-0.487892 27:-0.748435 28:-0.719332 
-1 1:0.202593 2:-0.954144 3:-0.951343 4:-0.960877 5:-0.999471 7:-0.977523 8:-0.917115 9:-0.752394 10:-0.299084 11:-0.492687 12:-0.727547 13:-0.99537 14:-0.981764 15:-0.896382 16:-0.813596 17:-0.6414 18:-0.432549 19:-0.713653 20:-0.897635 21:-0.983716 22:-0.995294 23:-0.976753 24:-0.669175 25:-0.0332273 26:-0.95074 27:-0.991831 28:-0.991008 
-1 1:0.44873 2:-0.939644 3:-0.960991 4:-0.979127 5:-0.999715 7:-0.993242 8:-0.98764 9:-0.952498 10:-0.672864 11:0.0112524 12:-0.74291 13:-0.998096 14:-0.998257 15:-0.981039 16:-0.827266 17:-0.332968 18:-0.448167 19:-0.935672 20:-0.98675 21:-0.994507 22:-0.999303 23:-0.998749 24:-0.0876374 25:-0.558615 26:-0.986543 27:-0.992278 28:-0.984586 
-1 1:0.543432 2:-0.929836 3:-0.929656 4:-0.92837 5:-0.999633 7:-0.990636 8:-0.98277 9:-0.951781 10:-0.780585 11:-0.184696 12:-0.522211 13:-0.995073 14:-0.981764 15:-0.96808 16:-0.779506 17:-0.159648 18:-0.724999 19:-0.952012 20:-0.987824 21:-0.990387 22:-0.998039 23:-0.992556 24:-0.222067 25:-0.441381 26:-0.976697 27:-0.994392 28:-0.997431 
-1 1:-0.129856 2:-0.748686 3:-0.788325 4:-0.676961 5:-0.997607 7:-0.664089 8:-0.479055 9:-0.33063 10:-0.223004 11:-0.375549 12:-0.849093 13:-0.969844 14:-0.866871 15:-0.775116 16:-0.625122 17:-0.590192 18:-0.545229 19:-0.473574 20:-0.519438 21:-0.851383 22:-0.87316 23:-0.729557 24:-0.57806 25:-0.25526 26:-0.0724631 27:-0.41498 28:-0.145793 
-1 1:0.328775 2:-0.804261 3:-0.881403 4:-0.812648 5:-0.996294 7:-0.921721 8:-0.864249 9:-0.70209 10:-0.619333 11:-0.728213 12:-0.418998 13:-0.981952 14:-0.986697 15:-0.987363 16:-0.684835 17:-0.513208 18:-0.704524 19:-0.714599 20:-0.848077 21:-0.91289 22:-0.98756 23:-0.976447 24:-0.660073 25:-0.102242 26:-0.874938 27:-0.933146 28:-0.881824 
-1 1:0.186687 2:-0.956958 3:-0.993862 4:-0.989659 5:-1 7:-0.996399 8:-0.982971 9:-0.890001 10:-0.037473 11:-0.29969 12:-0.914413 13:-0.999948 14:-1 15:-0.988291 16:-0.913673 17:-0.687696 18:0.00705245 19:-0.847006 20:-0.982001 21:-0.999902 22:-0.999935 23:-0.998322 24:-0.72882 25:0.0626898 26:-0.990139 27:-0.999919 28:-1 
-0.8150449760290124 1:-0.192631 2:-0.986859 3:-0.994502 4:-0.987725 5:-1 7:-1 8:-0.993365 9:0.354515 10:-0.595754 11:-0.727146 12:-0.991099 13:-1 14:-1 15:-0.8261 16:-0.838963 17:-0.99848 18:-0.987597 19:0.418964 20:-0.982325 21:-1 22:-1 23:-0.999985 24:-0.513212 25:-0.139955 26:-0.9996 27:-1 28:-1 
-1 1:0.301322 2:-0.849086 3:-0.92804 4:-0.86238 5:-0.996141 7:-0.963964 8:-0.956297 9:-0.748645 10:-0.237214 11:-0.375058 12:-0.557031 13:-0.992208 14:-0.993078 15:-0.992632 16:-0.63773 17:-0.576632 18:-0.364841 19:-0.624987 20:-0.881733 21:-0.954287 22:-0.978148 23:-0.833271 24:-0.161299 25:-0.31833 26:-0.956091 27:-0.973096 28:-0.949904 
-1 1:0.511831 2:-0.967592 3:-0.987639 4:-0.982861 5:-0.999888 7:-0.997076 8:-0.988522 9:-0.949555 10:-0.424605 11:-0.882939 12:-0.379828 13:-0.998113 14:-0.997153 15:-0.998287 16:-0.823577 17:-0.467696 18:-0.847633 19:-0.648379 20:-0.959253 21:-0.99794 22:-0.999063 23:-0.885883 24:-0.0257048 25:-0.904803 26:-0.992694 27:-0.99874 28:-0.996789 
-1 1:0.281586 2:-0.626403 3:-0.926518 4:-0.878743 5:-0.860058 7:-0.977141 8:-0.977232 9:-0.752548 10:-0.621523 11:-0.429258 12:-0.50172 13:-0.998917 14:-0.99703 15:-0.980588 16:-0.474578 17:-0.352944 18:-0.642311 19:-0.924514 20:-0.985935 21:-0.964489 22:-0.997952 23:-0.996659 24:-0.953869 25:0.218324 26:-0.614025 27:-0.985654 28:-0.982659 
-1 1:0.543519 2:-0.984926 3:-0.988915 4:-0.989199 5:-0.999145 7:-0.998432 8:-0.998167 9:-0.988486 10:-0.553953 11:-0.106357 12:-0.510051 13:-0.999668 14:-0.998945 15:-0.985212 16:-0.743133 17:-0.020048 18:-0.645864 19:-0.994045 20:-0.998279 21:-1 22:-1 23:-0.999939 24:-0.978053 25:0.473708 26:-0.970461 27:-0.998456 28:-0.998073 
-1 1:0.508899 2:-0.969969 3:-0.977919 4:-0.963232 5:-0.999969 7:-0.993835 8:-0.991613 9:-0.972724 10:-0.724389 11:-0.069384 12:-0.636766 13:-1 14:-0.999951 15:-0.999601 16:-0.727632 17:-0.21284 18:-0.670949 19:-0.969535 20:-0.988393 21:-0.99951 22:-0.999891 23:-0.999512 24:-0.939199 25:0.264758 26:-0.993179 27:-0.999837 28:-1 
-1 1:0.422648 2:-0.991531 3:-0.996875 4:-0.994255 5:-0.999919 7:-0.999131 8:-0.997111 9:-0.88418 10:-0.198184 11:0.193607 12:-0.576583 13:-0.965214 14:-0.987139 15:-0.805941 16:-0.612912 17:-0.305272 18:-0.328061 19:-0.664644 20:-0.998331 21:-0.998038 22:-0.997821 23:-0.961605 24:0.927875 25:-0.921727 26:-0.984203 27:-0.999309 28:-1 
-1 1:-0.70089 2:-0.24711 3:-0.563908 4:-0.26614 5:-0.189254 7:-0.541555 8:-0.672234 9:-0.823142 10:-0.747203 11:-0.891648 12:-0.859704 13:-0.913829 14:-0.929558 15:-0.925919 16:-0.892005 17:0.068632 18:-0.833877 19:-0.937596 20:-0.926659 21:1 22:-0.525452 23:-0.690156 24:-0.843649 25:-0.258429 26:-0.874381 27:-0.829432 28:-0.770071 
-1 1:-0.170976 2:-0.962183 3:-0.989166 4:-0.981358 5:-0.999959 7:-0.320086 8:-0.577992 9:-0.558099 10:-0.554521 11:-0.412214 12:-0.908425 13:-1 14:-0.999975 15:-0.837088 16:-0.733639 17:-0.640472 18:-0.676403 19:-0.574151 20:-0.421823 21:-0.999804 22:-0.999935 23:-0.999375 24:-0.994805 25:-0.0787013 26:0.233829 27:-0.912095 28:-0.995504 
-1 1:0.216081 2:-0.970413 3:-0.992107 4:-0.983435 5:-0.999776 7:-0.986357 8:-0.965741 9:-0.635359 10:-0.402082 11:-0.45456 12:-0.737387 13:-0.999458 14:-0.999583 15:-0.976388 16:-0.776038 17:-0.48312 18:-0.451551 19:-0.801244 20:-0.98565 21:-0.991073 22:-0.999041 23:-0.999588 24:-0.996729 25:0.204281 26:-0.783181 27:-0.992766 28:-0.991651 
-1 1:0.181487 2:-0.745961 3:-0.960566 4:-0.909268 5:-0.859976 7:-0.976146 8:-0.968577 9:-0.871873 10:-0.365454 11:-0.191281 12:-0.794986 13:-0.995195 14:-0.997153 15:-0.994654 16:-0.793654 17:-0.236312 18:-0.472564 19:-0.88433 20:-0.978469 21:-0.96596 22:-0.999368 23:-0.996202 24:-0.884502 25:0.298406 26:-0.887938 27:-0.991831 28:-0.988439 
-1 1:-0.181796 2:-0.76712 3:-0.927114 4:-0.873257 5:-0.942268 7:-0.887634 8:-0.822325 9:-0.463721 10:-0.142015 11:-0.676426 12:-0.982807 13:-0.988678 14:-0.967405 15:-0.922235 16:-0.878875 17:-0.722824 18:-0.493139 19:-0.629653 20:-0.672901 21:-0.934667 22:-0.971242 23:-0.643996 24:-0.680912 25:-0.292668 26:-0.832613 27:-0.892303 28:-0.863198 
