svm_type c_svc
kernel_type rbf
gamma 0.1
nr_class 2
total_sv 582
rho 0.25537
label -1 1
nr_sv 292 290
SV
1 1:0.672076 2:0.0609937 3:0.0115199 4:0.0252665 5:0.00261679 7:0.00155189 8:0.00184604 9:0.202138 10:0.213679 11:0.0171848 12:0.338989 13:0.0130393 14:0.637701 15:0.0331482 16:0.105434 17:0.256792 18:0.00149454 19:0.000399028 20:0.000631558 21:0.00503556 22:0.000333893 23:0.00177752 24:0.437272 25:0.251815 26:0.00154685 27:0.000972243 28:0.000210261 
1 1:0.652986 2:0.0515698 3:0.0198437 4:0.0129349 5:5.09103e-006 7:0.00161424 8:0.0685845 9:0.0884157 10:0.414571 11:0.322358 12:0.23939 13:7.01982e-005 14:7.42924e-005 15:0.000308486 16:0.0224732 17:0.424707 18:0.471236 19:0.179676 20:0.0299181 21:0.000314723 22:0.000147306 23:0.000417759 24:0.0569392 25:0.861444 26:0.0111594 27:0.000438463 28:7.00869e-005 
1 1:0.811633 2:0.17368 3:0.101884 4:0.194138 5:0.00383354 7:0.038728 8:0.0648322 9:0.0232361 10:0.0260136 11:0.0985959 12:0.478392 13:0.117047 14:0.0392099 15:0.044408 16:0.383137 17:0.21824 18:0.0028864 19:0.00120304 20:0.00479337 21:0.0686725 22:0.0046254 23:0.00586501 24:0.1687 25:0.455065 26:0.0501681 27:0.0168903 28:0.00413513 
1 1:0.553792 2:0.110142 3:0.0670179 4:0.068346 5:0.000122185 7:0.0165651 8:0.0713669 9:0.108839 10:0.364057 11:0.334506 12:0.0560188 13:0.0168037 14:0.0688195 15:0.239378 16:0.130398 17:0.160647 18:0.147954 19:0.218078 20:0.0441038 21:0.018128 22:0.00797415 23:0.110665 24:0.383238 25:0.250333 26:0.0797851 27:0.0277185 28:0.00756939 
1 1:0.998709 2:0.00740518 3:0.00551488 4:0.0127242 5:0.000733108 12:0.687532 17:0.687971 25:0.687684 
1 1:0.999915 2:0.00248319 3:0.000857224 4:0.00231219 5:0.000193459 12:0.687956 17:0.687971 25:0.687684 
1 1:0.727767 2:0.0218364 3:0.0119138 4:0.0279904 5:0.000117094 7:0.00171124 8:0.00161863 9:0.0025225 10:0.0298449 11:0.670456 12:0.0628441 13:0.00376438 14:0.00907192 15:0.728034 16:0.2884 17:0.00674062 18:0.000462052 19:0.000154847 20:0.000502008 21:0.00490967 22:0.000491019 23:0.00253932 24:0.669745 25:0.0226229 26:0.00192484 27:0.00156321 28:0.00091113 
0.2239613828638243 1:0.355854 2:0.0717087 3:0.0476196 4:0.0992135 5:0.000244369 7:0.00972703 8:0.0942753 9:0.328515 10:0.361025 11:0.0565742 12:0.00231244 13:0.00250959 14:0.00189858 15:0.0129845 16:0.0103518 17:0.0138973 18:0.160965 19:0.552642 20:0.14487 21:0.0149179 22:0.00458612 23:0.0493283 24:0.409578 25:0.200223 26:0.0328619 27:0.017386 28:0.00700869 
1 1:0.677586 2:0.0438163 3:0.0273014 4:0.0366408 5:0.000799291 7:0.0040945 8:0.032687 9:0.0630285 10:0.179533 11:0.353318 12:0.148829 13:0.00252714 14:0.00566273 15:0.0304981 16:0.200423 17:0.225493 18:0.202168 19:0.124848 20:0.012453 21:0.0122112 22:0.00177749 23:0.0116645 24:0.31399 25:0.333798 26:0.0178121 27:0.00554751 28:0.00210261 
1 1:0.583243 2:0.0721937 3:0.0348127 4:0.0408487 5:0.00059565 7:0.00693501 8:0.047549 9:0.128161 10:0.24112 11:0.218289 12:0.118511 13:0.0131183 14:0.0227912 15:0.060302 16:0.128571 17:0.149626 18:0.225327 19:0.199693 20:0.0166918 21:0.0107006 22:0.00113916 23:0.00800295 24:0.216337 25:0.387016 26:0.0257731 27:0.00629099 28:0.00224278 
1 1:0.248638 2:0.0589135 3:0.0408401 4:0.0441279 5:0.000514194 7:0.0439102 8:0.348989 9:0.328451 10:0.161701 11:0.012285 12:0.00662927 13:0.00248326 14:0.00261674 15:0.0052022 16:0.0198941 17:0.194042 18:0.21911 19:0.251894 20:0.127227 21:1 22:0.637913 23:0.276778 24:0.128216 25:0.0655784 26:0.0174108 27:0.00909334 28:0.00252313 
1 1:0.509823 2:0.0394237 3:0.0281586 4:0.0440656 5:2.03641e-005 7:0.00341555 8:0.0292691 9:0.160847 10:0.393133 11:0.24161 12:0.020628 13:0.000105297 14:7.42924e-005 15:0.000918447 16:0.0095865 17:0.188761 18:0.356425 19:0.261018 20:0.0431646 21:0.000944168 22:0.000108024 23:0.00278506 24:0.135127 25:0.518024 26:0.0171084 27:0.00226857 28:0.000490608 
1 1:0.869662 2:0.137167 3:0.0627407 4:0.149761 5:0.0196921 7:0.0130594 8:0.0080664 9:0.0128686 10:0.0270264 11:0.138661 12:0.481708 13:0.0143555 14:0.0102441 15:0.0365556 16:0.251213 17:0.391236 18:0.00586977 19:0.00677157 20:0.00459094 21:0.0259332 22:0.00203282 23:0.00360419 24:0.0310438 25:0.612011 26:0.0214757 27:0.00836892 28:0.00182226 
1 1:0.684464 2:0.0248422 3:0.0172676 4:0.0229543 5:0.000310553 7:0.00344326 8:0.00410678 9:0.0100644 10:0.116262 11:0.62835 12:0.0123464 13:0.00954696 14:0.032086 15:0.417894 16:0.381421 17:0.0624977 18:0.00192807 19:0.000357339 20:0.000635607 21:0.0253037 22:0.0108319 23:0.124738 24:0.602008 25:0.00281084 26:0.00143636 27:0.00158228 28:0.000770956 
1 1:0.435914 2:0.140688 3:0.118366 4:0.13279 5:0.00630269 7:0.0189275 8:0.084423 9:0.197165 10:0.39331 11:0.137105 12:0.0336185 13:0.00916087 14:0.0333325 15:0.112506 16:0.0861281 17:0.129204 18:0.219298 19:0.210955 20:0.0798193 21:0.0583496 22:0.0697149 23:0.131471 24:0.15397 25:0.224723 26:0.195572 27:0.257225 28:0.0576114 
1 1:0.743318 2:0.0415243 3:0.00816265 4:0.0127577 5:3.05462e-005 7:0.0022932 8:0.00608659 9:0.147961 10:0.0464512 11:0.173707 12:0.33566 13:0.212139 14:0.112264 15:0.085682 16:0.212504 17:0.266549 18:0.00465474 19:0.00348405 20:0.00166796 21:0.0103859 22:0.00210156 23:0.0087156 24:0.380203 25:0.279939 26:0.00402414 27:0.00202074 28:0.000560695 
1 1:0.969352 2:0.00361037 3:0.00220013 4:0.00154146 7:0.000187058 8:0.000481576 9:0.000717057 10:0.00275754 11:0.0197414 12:0.645464 13:0.00040364 14:0.000908018 15:0.0033022 16:0.361854 17:0.335815 18:0.000593252 19:1.78669e-005 20:4.04845e-006 21:6.29445e-005 22:3.92815e-005 23:0.000401376 24:0.350501 25:0.316176 26:0.00269246 27:0.000610035 
1 1:0.848638 2:0.0765111 3:0.0611673 4:0.0577329 5:0.0126614 7:0.00348483 8:0.00561839 9:0.0189081 10:0.172981 11:0.212509 12:0.662467 13:0.00246571 14:0.00104835 15:0.0296007 16:0.220043 17:0.616249 18:0.190063 19:0.0393192 20:0.00663136 21:0.00767923 22:0.00109006 23:0.0103621 24:0.226658 25:0.765895 26:0.00470453 27:0.00135352 28:7.00869e-005 
1 1:0.452703 2:0.0743012 3:0.0525234 4:0.0569287 5:0.0448418 7:0.0604961 8:0.160278 9:0.132523 10:0.41149 11:0.217173 12:0.0706096 13:0.0104069 14:0.00322759 15:0.00589629 16:0.0271536 17:0.21794 18:0.450261 19:0.243449 20:0.095669 21:0.0856675 22:0.00437989 23:0.00423493 24:0.0336341 25:0.70147 26:0.106535 27:0.0382225 28:0.00595739 
1 1:0.71555 2:0.118773 3:0.072544 4:0.145692 5:0.00733617 7:0.0368643 8:0.0287006 9:0.0182978 10:0.0924387 11:0.360734 12:0.221523 13:0.00966103 14:0.00458136 15:0.00702507 16:0.0505249 17:0.408314 18:0.218476 19:0.0351085 20:0.0268574 21:0.0864229 22:0.00942757 23:0.0218627 24:0.402987 25:0.215606 26:0.0411137 27:0.0190064 28:0.00763947 
1 1:0.379724 2:0.140538 3:0.0979966 4:0.168627 5:0.0688001 7:0.0781488 8:0.103332 9:0.0728496 10:0.643014 11:0.0984269 12:0.01059 13:0.0221475 14:0.0130342 15:0.0327977 16:0.0495295 17:0.15713 18:0.465897 19:0.251983 20:0.0171533 21:0.718386 22:0.173055 23:0.133937 24:0.378712 25:0.167269 26:0.0266047 27:0.0311499 28:0.0113541 
1 1:0.740741 2:0.169168 3:0.0971483 4:0.145989 5:0.00600232 7:0.00902037 8:0.0243129 9:0.0588286 10:0.120453 11:0.205644 12:0.326463 13:0.00572993 14:0.00672759 15:0.0236693 16:0.194654 17:0.296195 18:0.121423 19:0.0930331 20:0.0311043 21:0.0203311 22:0.00208192 23:0.00788008 24:0.365571 25:0.289817 26:0.0139042 27:0.00894083 28:0.003224 
1 1:0.578922 2:0.106904 3:0.0805768 4:0.0783703 5:0.00338044 7:0.0288139 8:0.0891786 9:0.108041 10:0.219084 11:0.221495 12:0.149221 13:0.0147504 14:0.0127535 15:0.0350833 16:0.101682 17:0.184089 18:0.235578 19:0.180075 20:0.0716981 21:0.0662806 22:0.00466468 23:0.00930537 24:0.380397 25:0.23728 26:0.0497261 27:0.0291292 28:0.00784973 
1 1:0.363268 2:0.172693 3:0.133181 4:0.261828 5:0.00636378 7:0.0405778 8:0.124768 9:0.273429 10:0.310016 11:0.0904281 12:0.0200719 13:0.0451024 14:0.0725919 15:0.077381 16:0.0451543 17:0.0748269 18:0.197456 19:0.412375 20:0.0333511 21:0.0978788 22:0.0092999 23:0.0205275 24:0.137604 25:0.337037 26:0.208691 27:0.118004 28:0.030628 
1 1:0.428572 2:0.242725 3:0.0465117 4:0.0643392 5:0.231606 7:0.0153804 8:0.0292758 9:0.0801823 10:0.36851 11:0.304022 12:0.0793632 13:0.00580013 14:0.00392099 15:0.00694795 16:0.0177795 17:0.377291 18:0.475024 19:0.176865 20:0.0244769 21:0.0305281 22:0.00523427 23:0.012156 24:0.200532 25:0.650975 26:0.021685 27:0.014088 28:0.00525652 
1 1:0.826811 2:0.0636101 3:0.0615702 4:0.0773793 5:0.0155429 7:0.00909658 8:0.00771191 9:0.0167185 10:0.114017 11:0.206307 12:0.441961 13:0.00711634 14:0.0066698 15:0.0424519 16:0.102505 17:0.509735 18:0.117806 19:0.0286586 20:0.00504437 21:0.0231636 22:0.00294612 23:0.0087156 24:0.154572 25:0.567827 26:0.0149045 27:0.00695821 28:0.00168209 
1 1:0.861124 2:0.0113025 3:0.00760982 4:0.00732911 7:6.23528e-005 8:0.00194637 9:0.0133637 10:0.0770465 11:0.208276 12:0.578475 13:0.00383458 14:0.0389622 15:0.108987 16:0.220472 17:0.547158 18:0.000832834 19:6.55121e-005 20:1.61938e-005 21:0.000440612 22:0.00025533 23:0.00270315 24:0.612672 25:0.221028 26:0.000407067 27:5.71908e-005 
1 1:0.643982 2:0.0996215 3:0.0735265 4:0.049973 5:0.00129821 7:0.0100942 8:0.0790053 9:0.111413 10:0.0959467 11:0.297575 12:0.176886 13:0.00488755 14:0.00624056 15:0.0212645 16:0.168518 17:0.271081 18:0.121588 19:0.183065 20:0.0170885 21:0.0187575 22:0.00252384 23:0.00471822 24:0.138877 25:0.461267 26:0.0859318 27:0.0138211 28:0.00336417 
1 1:0.543775 2:0.09762 3:0.074574 4:0.0711896 5:0.13926 7:0.297866 8:0.0215037 9:0.0348882 10:0.09724 11:0.390457 12:0.258054 13:0.418109 14:0.07104 15:0.0617183 16:0.0391467 17:0.679455 18:0.0289895 19:0.00290635 20:0.00263959 21:0.0675395 22:0.0154278 23:0.13161 24:0.591727 25:0.160362 26:0.256219 27:0.00947461 28:0.000140174 
1 1:0.695548 2:0.0431639 3:0.032241 4:0.0531947 5:0.00505539 7:0.012623 8:0.0119458 9:0.0510178 10:0.124693 11:0.414565 12:0.145076 13:0.00568606 14:0.00295519 15:0.00638005 16:0.0309493 17:0.378775 18:0.278954 19:0.073046 20:0.006935 21:0.037452 22:0.00249438 23:0.00339941 24:0.253644 25:0.393082 26:0.0176085 27:0.0186823 28:0.0026633 
1 1:0.951196 2:0.165875 3:0.0952526 4:0.129904 5:0.0298996 12:0.642607 17:0.665969 25:0.665662 
1 1:0.395908 2:0.015999 3:0.0170214 4:0.00967481 5:9.67295e-005 7:0.0104198 8:0.237437 9:0.142848 10:0.409581 11:0.123059 12:0.0067653 13:0.000298342 14:0.000231132 15:0.00108671 16:0.00422921 17:0.0921045 18:0.394102 19:0.276616 20:0.110304 21:0.00302134 22:0.000746349 23:0.00176114 24:0.0150087 25:0.588948 26:0.0900664 27:0.002097 28:0.000560695 
1 1:0.6667 2:0.0653658 3:0.0490431 4:0.0637839 5:0.00104875 7:0.0115006 8:0.034319 9:0.047552 10:0.215668 11:0.324502 12:0.160119 13:0.00422944 14:0.00305424 15:0.015207 16:0.0471893 17:0.293951 18:0.332643 19:0.105058 20:0.0135785 21:0.0428023 22:0.0159974 23:0.0464204 24:0.477869 25:0.134112 26:0.0349496 27:0.00867394 28:0.00420521 
1 1:0.534177 2:0.0473242 3:0.0659727 4:0.0536782 5:0.000280007 7:0.00420535 8:0.0189621 9:0.122365 10:0.541186 11:0.24378 12:0.0471771 13:0.00246571 14:0.00914622 15:0.0183479 16:0.0317722 17:0.146417 18:0.426953 19:0.344462 20:0.0283513 21:0.0130925 22:0.00668768 23:0.0388516 24:0.425557 25:0.2767 26:0.0373164 27:0.0139546 28:0.00378469 
1 1:0.850929 2:0.0260582 3:0.0178607 4:0.0263293 5:0.000137458 7:0.00239019 8:0.0109826 9:0.0143838 10:0.0707444 11:0.134491 12:0.477156 13:0.0167949 14:0.0364445 15:0.104871 16:0.214938 17:0.384483 18:0.00174553 19:0.000452629 20:0.00044533 21:0.00446906 22:0.000628505 23:0.00156455 24:0.380151 25:0.283563 26:0.00516975 27:0.00253546 28:0.000630782 
1 1:0.317056 2:0.0173106 3:0.0177824 4:0.0156683 5:1.01821e-005 7:0.0278301 8:0.32885 9:0.307344 10:0.219371 11:0.103971 12:0.00383674 13:0.00333442 14:0.135303 15:0.0367659 16:0.105416 17:0.0659781 18:0.179607 19:0.27979 20:0.180865 21:0.00157361 22:0.152491 23:0.236992 24:0.139418 25:0.0880491 26:0.48006 27:0.0321222 28:0.00245304 
1 1:0.630833 2:0.125584 3:0.0943349 4:0.106902 5:0.00525394 7:0.0176458 8:0.0326736 9:0.0683765 10:0.520492 11:0.398372 12:0.202427 13:0.00942411 14:0.017145 15:0.0547493 16:0.121417 17:0.319321 18:0.520253 19:0.200068 20:0.0281448 21:0.0445018 22:0.0111363 23:0.0431275 24:0.618285 25:0.324092 26:0.0440737 27:0.0199977 28:0.00511634 
1 1:0.898345 2:0.0551119 3:0.0258823 4:0.0580919 5:0.00411864 7:0.00462103 8:0.00325064 9:0.00654315 10:0.0249582 11:0.166824 12:0.437636 13:0.00657231 14:0.00924527 15:0.0499537 16:0.236508 17:0.362961 18:0.00198511 19:0.00169736 20:0.00265578 21:0.00478379 22:0.000451738 23:0.00498853 24:0.0617319 25:0.547182 26:0.0084321 27:0.00249733 28:0.000140174 
1 1:0.528297 2:0.0677396 3:0.0375164 4:0.0408056 5:0.000132367 7:0.0177428 8:0.139022 9:0.120197 10:0.270306 11:0.201078 12:0.10174 13:0.00121969 14:0.00564622 15:0.0576448 16:0.0865041 17:0.142133 18:0.238219 19:0.224814 20:0.0924626 21:0.00774218 22:0.00158108 23:0.00526704 24:0.252666 25:0.362219 26:0.0679045 27:0.0116479 28:0.00315391 
1 1:0.42927 2:0.0494043 3:0.0334743 4:0.049523 5:0.00673034 7:0.0178121 8:0.0687584 9:0.232211 10:0.468923 11:0.183893 12:0.00277653 13:0.00555443 14:0.0028066 15:0.00408744 16:0.00353466 17:0.0635899 18:0.213183 19:0.528516 20:0.174537 21:0.118336 22:0.0586179 23:0.183208 24:0.573756 25:0.046439 26:0.0166025 27:0.0107328 28:0.00252313 
1 1:0.393754 2:0.058712 3:0.0370509 4:0.0557798 5:0.000366554 7:0.0077941 8:0.089105 9:0.388453 10:0.122711 11:0.100517 12:0.072986 13:0.00895905 14:0.0113337 15:0.0232416 16:0.106128 17:0.0556051 18:0.101834 19:0.51667 20:0.0739774 21:0.0256184 22:0.00382995 23:0.00768349 24:0.0952085 25:0.552263 26:0.0142822 27:0.00966524 28:0.00441548 
1 1:0.473899 2:0.116457 3:0.0719553 4:0.0671923 5:0.016388 7:0.0500624 8:0.212957 9:0.172922 10:0.501525 11:0.27104 12:0.0961385 13:0.0309135 14:0.144689 15:0.214363 16:0.14113 17:0.282554 18:0.187479 19:0.238678 20:0.0926083 21:0.232328 22:0.274116 23:0.42242 24:0.473525 25:0.144578 26:0.0749526 27:0.0068057 28:0.00301374 
1 1:0.486297 2:0.0200876 3:0.0189395 4:0.0177747 5:0.00358408 7:0.0126022 8:0.0727381 9:0.130765 10:0.595587 11:0.124482 12:0.0713617 13:0.00361521 14:0.00157665 15:0.00295165 16:0.039828 17:0.125644 18:0.299723 19:0.518856 20:0.0258251 21:0.0213382 22:0.00131593 23:0.0016137 24:0.416836 25:0.27503 26:0.0837569 27:0.00596691 28:0.00168209 
1 1:0.788778 2:0.0240839 3:0.0192372 4:0.0168603 5:4.58192e-005 7:0.00108771 8:0.0145008 9:0.0244525 10:0.0990885 11:0.313782 12:0.318529 13:0.00415047 14:0.0376084 15:0.0948315 16:0.194964 17:0.383195 18:0.0686233 19:0.0210949 20:0.00197969 21:0.00195128 22:0.0010606 23:0.00619266 24:0.340617 25:0.347692 26:0.011834 27:0.00352677 28:0.000630782 
1 1:0.664233 2:0.021102 3:0.0171355 4:0.0123173 5:1.01821e-005 7:0.000859083 8:0.0176043 9:0.0696527 10:0.156448 11:0.444026 12:0.0916496 13:0.00078973 14:0.0020224 15:0.0415825 16:0.122718 17:0.217744 18:0.310744 19:0.112109 20:0.0232422 21:0.00069239 22:6.87427e-005 23:0.000769987 24:0.385081 25:0.283887 26:0.00483828 27:0.00194449 28:0.000700869 
1 1:0.571487 2:0.0552758 3:0.044231 4:0.060811 5:0.00177168 7:0.00847305 8:0.022614 9:0.103132 10:0.405609 11:0.197303 12:0.104096 13:0.00466818 14:0.00266627 15:0.00933872 16:0.102173 17:0.102949 18:0.365574 19:0.273132 20:0.0202868 21:0.0244225 22:0.00448792 23:0.0281619 24:0.340087 25:0.299447 26:0.0116537 27:0.00880738 28:0.00385478 
1 1:0.402269 2:0.151509 3:0.0890595 4:0.155319 5:0.348995 7:0.0241167 8:0.0394023 9:0.0848219 10:0.316129 11:0.328205 12:0.106276 13:0.0207874 14:0.046928 15:0.133049 16:0.193787 17:0.503382 18:0.210256 19:0.0736415 20:0.0165298 21:0.0956128 22:0.033841 23:0.100147 24:0.181607 25:0.645157 26:0.133844 27:0.0624142 28:0.0140174 
1 1:0.479222 2:0.0189262 3:0.0119855 4:0.0166928 7:0.00247333 8:0.062324 9:0.159823 10:0.526959 11:0.199339 12:0.020664 13:0.000140396 14:0.000231132 15:0.000855348 16:0.00823723 17:0.101017 18:0.509044 19:0.341092 20:0.0392174 21:0.000125889 22:2.94612e-005 23:0.00215433 24:0.114408 25:0.605449 26:0.01901 27:0.00346957 28:0.000560695 
1 1:0.631725 2:0.0466786 3:0.0313323 4:0.0509591 5:0.000234187 7:0.00703894 8:0.065374 9:0.12983 10:0.211696 11:0.159465 12:0.222743 13:0.000780955 14:0.000462264 15:0.000855348 16:0.0259813 17:0.282846 18:0.226982 19:0.220126 20:0.0561925 21:0.00629445 22:0.00109006 23:0.00252294 24:0.303426 25:0.352945 26:0.0186669 27:0.00495654 28:0.00182226 
1 1:0.372733 2:0.0743865 3:0.0351574 4:0.0394795 5:0.000127276 7:0.0101774 8:0.272198 9:0.385632 10:0.22194 11:0.139986 12:0.0503737 13:0.00368541 14:0.00841155 15:0.0620688 16:0.100245 17:0.10413 18:0.176047 19:0.400946 20:0.225948 21:0.231006 22:0.208192 23:0.155169 24:0.310155 25:0.350038 26:0.0246508 27:0.00899802 28:0.00364452 
1 1:0.810983 2:0.0164875 3:0.0198079 4:0.0150029 5:0.000127276 7:0.00154496 8:0.0160392 9:0.011093 10:0.089608 11:0.276998 12:0.337113 13:0.0110211 14:0.0129104 15:0.112198 16:0.331214 17:0.239166 18:0.0577565 19:0.0157825 20:0.000902805 21:0.00490967 22:0.0014927 23:0.0109518 24:0.319862 25:0.331071 26:0.0158174 27:0.00207793 28:0.0010513 
1 1:0.674984 2:0.0161903 3:0.0190268 4:0.0059169 5:2.54551e-005 7:0.000249411 8:0.00361851 9:0.0543299 10:0.414974 11:0.234478 12:0.213749 13:0.000219369 14:0.000800707 15:0.0193785 16:0.0678797 17:0.269421 18:0.390719 19:0.195077 20:0.0026234 21:0.00100711 22:0.000628505 23:0.00326835 24:0.406345 25:0.344028 26:0.00162827 27:0.000247827 28:0.000140174 
1 1:0.604418 2:0.0463985 3:0.0430783 4:0.070572 5:0.00105384 7:0.00764168 8:0.0105813 9:0.0929955 10:0.353521 11:0.237857 12:0.119507 13:0.00541404 14:0.00747051 15:0.0166653 16:0.0773025 17:0.179841 18:0.336539 19:0.227845 20:0.00969199 21:0.024926 22:0.00434061 23:0.0149328 24:0.371701 25:0.273365 26:0.0131192 27:0.00977962 28:0.00455565 
1 1:0.505504 2:0.0249037 3:0.0114237 4:0.00657753 5:4.58192e-005 7:0.000845227 8:0.0183802 9:0.221302 10:0.481484 11:0.163027 12:0.0687252 13:5.26487e-005 14:1.65094e-005 15:4.90773e-005 16:0.0400536 17:0.126656 18:0.46005 19:0.385926 20:0.00525489 21:0.000251778 22:9.82039e-006 23:4.09567e-005 24:0.102753 25:0.64583 26:0.0029774 27:5.71908e-005 28:7.00869e-005 
1 1:0.631696 2:0.0420094 3:0.0397859 4:0.028517 5:0.000168004 7:0.00327698 8:0.0627855 9:0.148341 10:0.195426 11:0.246101 12:0.221895 13:0.000596685 14:0.00121344 15:0.00604352 16:0.142705 17:0.288018 18:0.188158 19:0.237666 20:0.0374603 21:0.00673507 22:0.00437007 23:0.0206668 24:0.275377 25:0.442492 26:0.0298787 27:0.00690102 28:0.00119148 
1 1:0.562118 2:0.0238312 3:0.0180151 4:0.0170709 5:5.09103e-006 7:0.00129555 8:0.0369209 9:0.0842969 10:0.331399 11:0.215999 12:0.0485493 13:0.000421189 14:0.000396226 15:0.00073616 16:0.0163639 17:0.128328 18:0.305701 19:0.24975 20:0.0363227 21:0.000314723 22:0.00167929 23:0.00983781 24:0.481991 25:0.0748798 26:0.00465801 27:0.00165853 28:0.000630782 
1 1:0.619736 2:0.0380779 3:0.0239418 4:0.0372057 5:0.000239278 7:0.00248718 8:0.0184203 9:0.118745 10:0.319222 11:0.332634 12:0.117527 13:0.00477348 14:0.00537381 15:0.0216641 16:0.157175 17:0.198702 18:0.330783 19:0.223807 20:0.0098175 21:0.00881224 22:0.00211138 23:0.00706913 24:0.288107 25:0.454468 26:0.00641421 27:0.00223044 28:0.00091113 
1 1:0.417998 2:0.0736112 3:0.0260838 4:0.0395801 5:0.000188368 7:0.00464182 8:0.0765238 9:0.24601 10:0.4425 11:0.071278 12:0.0325863 13:0.000623009 14:0.000404481 15:0.000652028 16:0.0195358 17:0.0489325 18:0.230769 19:0.494098 20:0.106061 21:0.0134701 22:0.0151038 23:0.162 24:0.353888 25:0.220948 26:0.0104965 27:0.00272609 28:0.00119148 
1 1:0.607067 2:0.0712715 3:0.0475882 4:0.0692508 5:0.00162404 7:0.0212138 8:0.0600633 9:0.0717911 10:0.292367 11:0.237764 12:0.143688 13:0.0067478 14:0.0050849 15:0.00945791 16:0.059262 17:0.227905 18:0.344942 19:0.149987 20:0.0312621 21:0.040914 22:0.00534229 23:0.0114679 24:0.227401 25:0.389254 26:0.0517324 27:0.0219231 28:0.00841043 
1 1:0.464548 2:0.0310929 3:0.0228675 4:0.0357073 5:4.07282e-005 7:0.00211999 8:0.0107084 9:0.13633 10:0.668759 11:0.0922911 12:0.00904974 13:0.000842379 14:0.000586084 15:0.00135313 16:0.0042823 17:0.043892 18:0.50184 19:0.378404 20:0.0107891 21:0.00402845 22:0.000559762 23:0.00262123 24:0.244944 25:0.416794 26:0.00551866 27:0.00255452 28:0.00119148 
1 1:0.949711 2:0.00529088 3:0.00298126 4:0.0061802 5:0.000269824 7:0.00266731 8:0.00165207 9:0.00180118 10:0.0118965 11:0.0292475 12:0.961621 13:0.00259733 14:0.00511792 15:0.0175767 16:0.598809 17:0.444069 18:0.000319443 19:0.000125068 20:0.000449378 21:0.0110782 22:0.000903475 23:0.00375983 24:0.386402 25:0.612524 26:0.00188414 27:0.00163947 28:0.00112139 
1 1:0.802754 2:0.00486392 3:0.00325432 4:0.00682646 5:5.60013e-005 7:0.000339476 8:0.000307674 9:0.000375601 10:0.00709518 11:0.890457 12:0.193501 13:0.000552811 14:0.000941037 15:0.062826 16:1 17:0.0590334 18:0.000114087 19:5.95564e-006 20:5.66783e-005 21:0.001133 22:8.83835e-005 23:0.000253932 24:0.265238 25:0.736625 26:0.000418697 27:0.000228763 
1 1:0.359668 2:0.0407319 3:0.0141095 4:0.0234905 5:0.000173095 7:0.00667868 8:0.127812 9:0.333372 10:0.247538 11:0.0925667 12:0.00754945 13:0.01418 14:0.68065 15:0.360669 16:0.0722328 17:0.0144893 18:0.0137874 19:0.012352 20:0.0061577 21:0.0074904 22:0.00191498 23:0.00262942 24:0.0377641 25:0.433935 26:0.229202 27:0.0595928 28:0.0247407 
1 1:0.788072 2:0.0212592 3:0.0170236 4:0.017339 5:0.00157822 7:0.00293058 8:0.0167749 9:0.0253403 10:0.090883 11:0.364909 12:0.325454 13:0.00663373 14:0.0209504 15:0.0156346 16:0.208081 17:0.406557 18:0.157851 19:0.0258177 20:0.00518202 21:0.00572795 22:0.000991859 23:0.0508273 24:0.340035 25:0.376561 26:0.0139159 27:0.00480403 28:0.00112139 
1 1:0.346376 2:0.135988 3:0.103872 4:0.120464 5:0.00217387 7:0.0215256 8:0.0853929 9:0.144828 10:0.127244 11:0.0375798 12:0.0138107 13:0.00440494 14:0.00387971 15:0.00708817 16:0.0150765 17:0.0369994 18:0.0951142 19:0.237261 20:0.0478729 21:0.0300875 22:0.00316216 23:0.00647117 24:0.0486549 25:0.225152 26:0.0691374 27:0.0179007 28:0.00406504 
1 1:0.393339 2:0.0224273 3:0.0207121 4:0.0091961 5:0.000926567 7:0.00563946 8:0.0437566 9:0.268572 10:0.515624 11:0.0474416 12:0.00337665 13:0.214061 14:0.570714 15:0.453341 16:0.022283 17:0.00352032 18:0.00180828 19:0.00120304 20:0.00747749 21:0.0182539 22:0.00384959 23:0.0133601 24:0.457102 25:0.193115 26:0.01259 27:0.0076445 28:0.00175217 
1 1:0.557256 2:0.0224307 3:0.0158508 4:0.011762 5:5.09103e-006 7:0.000623528 8:0.0104208 9:0.157923 10:0.340868 11:0.241988 12:0.0682011 13:0.000193045 14:0.000775942 15:0.00428375 16:0.0662075 17:0.137329 18:0.367685 19:0.292946 20:0.00935192 21:0.000566501 22:0.000864194 23:0.0195364 24:0.178843 25:0.472086 26:0.00615834 27:0.000876925 28:0.000140174 
1 1:0.712863 2:0.0267174 3:0.0140043 4:0.00921046 5:0.000117094 7:0.00108771 8:0.00642771 9:0.0747233 10:0.182516 11:0.269403 12:0.233397 13:0.000412415 14:0.000668631 15:0.00220147 16:0.0299407 17:0.411422 18:0.187576 19:0.141887 20:0.00289059 21:0.00163656 22:0.000314252 23:0.00302261 24:0.176083 25:0.489415 26:0.00550703 27:0.0012582 28:0.000280348 
1 1:0.619311 2:0.0104485 3:0.0092907 4:0.00280526 5:5.09103e-006 7:0.000845227 8:0.0222997 9:0.0485337 10:0.210714 11:0.483696 12:0.0333664 13:0.0827374 14:0.0452358 15:0.0125638 16:0.0301132 17:0.121591 18:0.639845 19:0.00159016 20:0.000562735 21:0.000188834 22:9.82039e-006 23:4.09567e-005 24:0.383343 25:0.284956 26:0.0011456 27:0.000228763 28:7.00869e-005 
1 1:0.847495 2:0.00189228 3:0.00538507 4:0.000799452 5:0.000122185 7:0.000623528 8:0.00418035 9:0.00540354 10:0.0107373 11:0.327747 12:0.252112 13:0.000280793 14:0.000495282 15:0.0324401 16:0.499166 17:0.0774511 18:0.00934372 19:0.00855826 20:0.0019716 21:0.00453201 22:0.00186587 23:0.00668414 24:0.49272 25:0.0670959 26:0.00240169 27:0.00131539 28:0.000210261 
1 1:0.48035 2:0.0814262 3:0.0526107 4:0.0754166 5:0.000560013 7:0.0192393 8:0.0475891 9:0.141482 10:0.503795 11:0.148447 12:0.04152 13:0.00618622 14:0.00404481 15:0.00565091 16:0.0181909 17:0.0804834 18:0.426999 19:0.372674 20:0.0235417 21:0.0460754 22:0.00692337 23:0.018193 24:0.342544 25:0.29256 26:0.0391482 27:0.0174623 28:0.00770956 
1 1:0.386934 2:0.0586949 3:0.0292978 4:0.0513134 5:0.462881 7:0.0123389 8:0.0150225 9:0.0447691 10:0.24569 11:0.30464 12:0.143103 13:0.00935391 14:0.0412158 15:0.199626 16:0.157892 17:0.546726 18:0.150001 19:0.0880363 20:0.00812524 21:0.0451312 22:0.00382995 23:0.0185616 24:0.411898 25:0.563434 26:0.0179982 27:0.0111141 28:0.00371461 
1 1:0.629671 2:0.0217203 3:0.0213321 4:0.00515096 5:0.000392009 7:0.00326313 8:0.005498 9:0.0292158 10:0.549898 11:0.326156 12:0.121175 13:0.000614234 14:0.000478773 15:0.00229962 16:0.0057112 17:0.263688 18:0.682108 19:0.0803952 20:0.00501198 21:0.00428023 22:0.00208192 23:0.0155963 24:0.0754757 25:0.718479 26:0.00803084 27:0.00127726 
1 1:0.740022 2:0.0668482 3:0.0482149 4:0.0736406 5:0.00123203 7:0.00852847 8:0.0165207 9:0.0253232 10:0.1216 11:0.46246 12:0.202739 13:0.00563341 14:0.0115401 15:0.0478083 16:0.344291 17:0.32547 18:0.0742763 19:0.0143233 20:0.00407274 21:0.0596085 22:0.0335268 23:0.146199 24:0.514837 25:0.126788 26:0.0139624 27:0.00997026 28:0.00343426 
1 1:0.605058 2:0.0375519 3:0.052613 4:0.047857 5:0.0011913 7:0.0190176 8:0.0587991 9:0.0812622 10:0.260216 11:0.241165 12:0.129193 13:0.00338706 14:0.00203066 15:0.0130966 16:0.181639 17:0.124747 18:0.2835 19:0.147271 20:0.0437516 21:0.0257443 22:0.00259258 23:0.00394823 24:0.209919 25:0.393202 26:0.0440446 27:0.0152699 28:0.00490608 
1 1:0.475917 2:0.0918133 3:0.0495556 4:0.0913482 5:0.000529467 7:0.010697 8:0.0517026 9:0.169981 10:0.388234 11:0.229881 12:0.0118103 13:0.00866071 14:0.0133396 15:0.0210121 16:0.0211062 17:0.119539 18:0.390365 19:0.287348 20:0.0426828 21:0.0237301 22:0.00856338 23:0.0350999 24:0.235103 25:0.345366 26:0.074627 27:0.0765403 28:0.0303476 
1 1:0.702151 2:0.0542614 3:0.0339756 4:0.0423805 5:0.00109457 7:0.0054524 8:0.00638089 9:0.0346706 10:0.182474 11:0.456805 12:0.129089 13:0.0279301 14:0.0467299 15:0.119791 16:0.194327 17:0.304532 18:0.146505 19:0.0143888 20:0.00362336 21:0.014792 22:0.00169893 23:0.0110501 24:0.207668 25:0.473864 26:0.017341 27:0.00482309 28:0.00140174 
1 1:0.318299 2:0.148278 3:0.0462722 4:0.0523426 5:0.282216 7:0.0310378 8:0.151175 9:0.149899 10:0.327611 11:0.193048 12:0.0429682 13:0.00726552 14:0.0154611 15:0.0806691 16:0.0605847 17:0.355889 18:0.25434 19:0.276509 20:0.0712366 21:0.0651476 22:0.00581367 23:0.0201917 24:0.147444 25:0.660801 26:0.104587 27:0.0293961 28:0.00763947 
1 1:0.542967 2:0.127381 3:0.0764899 4:0.117974 5:0.0115872 7:0.0770611 8:0.0979607 9:0.232805 10:0.275864 11:0.358933 12:0.165872 13:0.424383 14:0.270969 15:0.23154 16:0.262481 17:0.19793 18:0.0845327 19:0.0368773 20:0.0240478 21:0.266696 22:0.0216245 23:0.0738368 24:0.645886 25:0.227863 26:0.0770694 27:0.0727467 28:0.0342024 
1 1:0.697925 2:0.237 3:0.0328856 4:0.0304941 5:0.0128447 7:0.0230636 8:0.0286137 9:0.0348882 10:0.191149 11:0.682021 12:0.1879 13:0.069935 14:0.109086 15:0.506724 16:0.660518 17:0.0267825 18:0.000815721 19:0.00013698 20:0.00140886 21:0.0542582 22:0.0112934 23:0.0535632 24:0.754535 25:0.201204 26:0.0218013 27:0.00913146 28:0.000210261 
1 1:0.657287 2:0.0261231 3:0.0151033 4:0.017789 5:4.07282e-005 7:0.00065124 8:0.00482914 9:0.0266976 10:0.279555 11:0.478676 12:0.0517459 13:0.00105297 14:0.00329363 15:0.010811 16:0.0336036 17:0.340035 18:0.40494 19:0.0446078 20:0.00138052 21:0.00132184 22:0.000392815 23:0.00130242 24:0.0551328 25:0.630618 26:0.00947884 27:0.00478496 28:0.000560695 
1 1:0.399136 2:0.0988428 3:0.0399292 4:0.0604568 5:0.416349 7:0.0145074 8:0.0254165 9:0.0462971 10:0.241932 11:0.395295 12:0.0916616 13:0.0371787 14:0.0909669 15:0.148115 16:0.119882 17:0.539754 18:0.278788 19:0.0125247 20:0.00240073 21:0.0288915 22:0.00253366 23:0.00794561 24:0.365381 25:0.602153 26:0.0376769 27:0.0138783 28:0.00357443 
1 1:0.82802 2:0.0173072 3:0.0140177 4:0.0119008 5:0.000152731 7:0.00166967 8:0.00611334 9:0.00926625 10:0.0317728 11:0.414996 12:0.344442 13:0.00307117 14:0.0127783 15:0.070412 16:0.521958 17:0.21808 18:0.0135307 19:0.00483598 20:0.00141696 21:0.0105747 22:0.00217031 23:0.00872379 24:0.453331 25:0.291263 26:0.00765867 27:0.000972243 28:0.000210261 
1 1:0.495346 2:0.104383 3:0.135717 4:0.0992949 5:0.0319971 7:0.0293612 8:0.0740624 9:0.343095 10:0.283637 11:0.31323 12:0.12432 13:0.217404 14:0.672635 15:0.206861 16:0.147704 17:0.242814 18:0.0762956 19:0.0245789 20:0.0106191 21:0.0659659 22:0.0101739 23:0.052867 24:0.398869 25:0.531182 26:0.049447 27:0.0236961 28:0.0069386 
1 1:0.687248 2:0.186643 3:0.107592 4:0.148167 5:0.0141021 7:0.0486629 8:0.0551672 9:0.0335438 10:0.0898337 11:0.273205 12:0.247736 13:0.0726113 14:0.0818454 15:0.145662 16:0.216858 17:0.27823 18:0.0182254 19:0.00450247 20:0.0100766 21:0.132121 22:0.00850445 23:0.011558 24:0.318253 25:0.267399 26:0.0655087 27:0.0442275 28:0.0175217 
1 1:0.792254 2:0.0226186 3:0.0128763 4:0.0217863 5:0.000101821 7:0.00147568 8:0.002749 9:0.00561695 10:0.12983 11:0.323577 12:0.281966 13:0.000482613 14:0.000553065 15:0.0779769 16:0.135189 17:0.372442 18:0.168666 19:0.00968983 20:0.00152627 21:0.00673507 22:0.0026515 23:0.0108453 24:0.438921 25:0.220307 26:0.00454752 27:0.0022495 28:0.000770956 
1 1:0.435193 2:0.125475 3:0.105976 4:0.161576 5:0.00119639 7:0.109852 8:0.260473 9:0.223316 10:0.359255 11:0.288816 12:0.0751944 13:0.0151453 14:0.0447735 15:0.122399 16:0.187439 17:0.204831 18:0.260614 19:0.291648 20:0.150355 21:0.095361 22:0.0571743 23:0.145224 24:0.206432 25:0.371872 26:0.377985 27:0.27442 28:0.0932156 
1 1:0.880001 2:0.076962 3:0.0178271 4:0.0249984 5:0.0021535 7:0.00766246 8:0.00487596 9:0.00370906 10:0.0204619 11:0.224616 12:0.52208 13:0.00164966 14:0.0023691 15:0.0135103 16:0.26932 17:0.477968 18:0.0189042 19:0.00305524 20:0.00359503 21:0.0338012 22:0.00453702 23:0.0115007 24:0.564502 25:0.174372 26:0.00728068 27:0.00625286 28:0.00175217 
1 1:0.578429 2:0.0708513 3:0.0603347 4:0.079749 5:0.000152731 7:0.00652626 8:0.0379442 9:0.108515 10:0.305709 11:0.291168 12:0.0753305 13:0.0148294 14:0.049132 15:0.121221 16:0.127044 17:0.141973 18:0.259148 19:0.172988 20:0.0115826 21:0.0126519 22:0.00234707 23:0.0135239 24:0.242434 25:0.392149 26:0.033647 27:0.00760637 28:0.00287356 
1 1:0.694641 2:0.144592 3:0.142207 4:0.172663 5:0.050391 7:0.0185396 8:0.0405527 9:0.019288 10:0.0867345 11:0.119889 12:0.292684 13:0.0476207 14:0.0575848 15:0.109814 16:0.176193 17:0.276657 18:0.00086706 19:6.55121e-005 20:0.00106069 21:0.142758 22:0.0628897 23:0.122698 24:0.322787 25:0.132694 26:0.00294251 27:0.00139164 28:7.00869e-005 
1 1:0.160468 2:0.0425832 3:0.0283108 4:0.0343142 5:0.000203641 7:0.0380698 8:0.819462 9:0.137876 10:0.0380748 11:0.00807441 12:0.00432883 13:0.00174618 14:0.00152712 15:0.00319704 16:0.00432653 17:0.00842878 18:0.0145233 19:0.253079 20:0.487887 21:0.0212123 22:0.00551906 23:0.0141137 24:0.0682785 25:0.455893 26:0.204766 27:0.0117622 28:0.00294365 
1 1:0.554649 2:0.163389 3:0.136907 4:0.240262 5:0.0123712 7:0.0331024 8:0.0466594 9:0.124452 10:0.210226 11:0.299118 12:0.0856925 13:0.0129516 14:0.0107229 15:0.0367028 16:0.0561786 17:0.213976 18:0.251989 19:0.195548 20:0.0618199 21:0.0974382 22:0.0117157 23:0.0277195 24:0.409077 25:0.206737 26:0.0337807 27:0.0255643 28:0.00777965 
1 1:0.50868 2:0.104666 3:0.0944222 4:0.109793 5:0.0029477 7:0.0324581 8:0.0995325 9:0.217132 10:0.51383 11:0.316071 12:0.0926818 13:0.00689698 14:0.00472995 15:0.0173944 16:0.0748296 17:0.206891 18:0.530122 19:0.386867 20:0.0773781 21:0.0886889 22:0.0203478 23:0.0512942 24:0.346004 25:0.564155 26:0.0669915 27:0.0254499 28:0.00925147 
1 1:0.519095 2:0.0813067 3:0.067808 4:0.0426008 5:0.000707653 7:0.00771096 8:0.0551806 9:0.236027 10:0.191967 11:0.21294 12:0.0913575 13:0.0190062 14:0.306316 15:0.0868318 16:0.0830978 17:0.156386 18:0.17384 19:0.149362 20:0.00763943 21:0.0210235 22:0.00326037 23:0.00985419 24:0.265024 25:0.369398 26:0.0369384 27:0.0118004 28:0.004836 
1 1:0.670193 2:0.0487212 3:0.0512141 4:0.0449082 5:0.000320735 7:0.00504365 8:0.0173635 9:0.0570871 10:0.253847 11:0.299211 12:0.163343 13:0.00192168 14:0.00245165 15:0.00680773 16:0.136551 17:0.211303 18:0.315998 19:0.139618 20:0.00997134 21:0.0156732 22:0.00280863 23:0.0185944 24:0.385756 25:0.260908 26:0.0150847 27:0.0039271 28:0.001612 
1 1:0.986705 2:0.0539881 3:0.0424583 4:0.086068 5:0.00769254 12:0.744075 17:0.749977 25:0.749747 
1 1:0.769531 2:0.114685 3:0.0496407 4:0.101229 5:0.00154767 7:0.0184287 8:0.014367 9:0.0142174 10:0.0641434 11:0.543693 12:0.243071 13:0.013364 14:0.0129186 15:0.0454526 16:0.366738 17:0.389168 18:0.051322 19:0.0121376 20:0.00480956 21:0.0914584 22:0.0135718 23:0.0676687 24:0.660276 25:0.0943475 26:0.0157709 27:0.0168141 28:0.00728904 
1 1:0.804476 2:0.0698061 3:0.0484231 4:0.0728603 5:0.00400664 7:0.0121449 8:0.0125411 9:0.0097571 10:0.042504 11:0.356266 12:0.294853 13:0.00581768 14:0.00279835 15:0.00404538 16:0.0765814 17:0.496958 18:0.108023 19:0.0189568 20:0.00906448 21:0.0322906 22:0.00386923 23:0.0106078 24:0.447544 25:0.207254 26:0.0127412 27:0.00617661 28:0.00147183 
1 1:0.841794 2:0.0270077 3:0.0199713 4:0.0204363 5:0.000616014 7:0.00212692 8:0.00335766 9:0.012143 10:0.105226 11:0.160185 12:0.425858 13:0.00290445 14:0.0056132 15:0.0426202 16:0.432246 17:0.148594 18:0.09836 19:0.0237273 20:0.00124287 21:0.00673507 22:0.000893655 23:0.00807667 24:0.466291 25:0.18403 26:0.00330306 27:0.00257359 28:0.000841043 
1 1:0.759561 2:0.0102846 3:0.00434655 4:0.0039446 5:1.01821e-005 7:0.000588887 8:0.00220054 9:0.0207818 10:0.0521188 11:0.482517 12:0.17661 13:4.38739e-005 14:8.25471e-006 15:7.01105e-006 16:0.00481316 17:0.548266 18:0.116911 19:0.0416895 20:0.00337236 21:0.00107006 22:1.96408e-005 23:7.37221e-005 24:0.311856 25:0.355147 26:0.00180272 27:0.000705353 28:0.000280348 
1 1:0.714192 2:0.0353932 3:0.0263389 4:0.0304031 5:3.56372e-005 7:0.00204379 8:0.00632069 9:0.0219641 10:0.218596 11:0.392312 12:0.164176 13:0.000166721 14:0.000429245 15:0.0053284 16:0.125368 17:0.299612 18:0.323636 19:0.0542261 20:0.00636012 21:0.000881224 22:7.85631e-005 23:0.000892857 24:0.258809 25:0.425182 26:0.00476268 27:0.00116288 28:0.000280348 
1 1:0.125809 2:0.00377774 3:0.0023859 4:0.00474406 5:0.000183277 7:1 8:0.00896936 9:0.00414869 10:0.0130922 11:0.0117292 12:0.0580952 13:0.000728307 14:0.000321934 15:0.000427674 16:0.0566608 17:0.0122531 18:0.0212259 19:0.00791505 20:0.586511 21:0.00453201 22:0.000284791 23:0.000311271 24:0.0506068 25:0.0292976 26:0.846937 27:0.0023067 28:0.000420521 
1 1:0.99433 2:0.0283194 3:0.0219431 4:0.0386849 5:0.00280007 12:0.663903 17:0.665969 25:0.665662 
1 1:0.906207 2:0.00223385 3:0.00185545 4:0.00252761 5:5.09103e-005 7:0.000173202 8:0.00014046 9:0.000209142 10:0.0198702 11:0.097013 12:0.707388 13:0.000228144 14:0.000214622 15:0.000645017 16:0.695484 17:0.177568 18:0.00126636 19:3.57339e-005 20:2.02423e-005 21:0.000188834 22:5.89223e-005 23:0.0310125 24:0.0788541 25:0.714151 26:0.000447773 27:9.5318e-005 
1 1:0.466766 2:0.0185027 3:0.0264374 4:0.0189762 5:1.01821e-005 7:0.000187058 8:0.0115378 9:0.252238 10:0.459967 11:0.165179 12:0.0183955 13:9.65226e-005 14:0.000379717 15:0.0010166 16:0.0109535 17:0.0694544 18:0.413964 19:0.499089 20:0.00633988 21:0.000440612 22:0.000206228 23:0.0031209 24:0.271647 25:0.43715 26:0.00532094 27:0.000457526 28:7.00869e-005 
1 1:0.624284 2:0.0131264 3:0.0156583 4:0.0115849 5:1.01821e-005 7:0.00029098 8:0.0052639 9:0.0933241 10:0.279677 11:0.346351 12:0.0802474 13:4.38739e-005 14:9.08018e-005 15:0.000140221 16:0.0183192 17:0.274613 18:0.323773 19:0.21395 20:0.003927 21:0.00069239 22:4.91019e-005 23:0.000499672 24:0.178148 25:0.488234 26:0.000802503 27:0.000133445 28:0.000420521 
1 1:0.615638 2:0.0590775 3:0.0657131 4:0.0678816 5:0.00837474 7:0.0236109 8:0.0298778 9:0.0850609 10:0.267061 11:0.254904 12:0.151789 13:0.00982775 14:0.0049941 15:0.017128 16:0.126934 17:0.233273 18:0.281207 19:0.139386 20:0.018631 21:0.0644552 22:0.00499858 23:0.00911697 24:0.107138 25:0.526445 26:0.037613 27:0.0205315 28:0.00462574 
1 1:0.552496 2:0.0780447 3:0.0574004 4:0.0649758 5:0.000239278 7:0.0201053 8:0.074243 9:0.183127 10:0.235526 11:0.285317 12:0.111077 13:0.0157156 14:0.0982475 15:0.184012 16:0.218853 17:0.138849 18:0.10585 19:0.221175 20:0.0310314 21:0.0310946 22:0.0235787 23:0.130865 24:0.333238 25:0.272448 26:0.0903281 27:0.0408914 28:0.0135268 
1 1:0.335458 2:0.0741577 3:0.0673715 4:0.0546356 5:0.00308516 7:0.0159623 8:0.117511 9:0.379656 10:0.274577 11:0.031066 12:0.0202879 13:0.00939779 14:0.0099882 15:0.0108321 16:0.0131743 17:0.0437 18:0.0962152 19:0.44877 20:0.228859 21:0.0904513 22:0.0805173 23:0.280152 24:0.336123 25:0.134004 26:0.0283435 27:0.0150031 28:0.00742921 
1 1:0.545588 2:0.102187 3:0.0982137 4:0.130196 5:0.0017564 7:0.0241305 8:0.0318977 9:0.0918174 10:0.399405 11:0.261556 12:0.0543744 13:0.0159525 14:0.0154446 15:0.0309187 16:0.0663667 17:0.175836 18:0.388489 19:0.173476 20:0.0149347 21:0.120287 22:0.028538 23:0.0928326 24:0.288689 25:0.289761 26:0.0345076 27:0.0305589 28:0.0178722 
1 1:0.608007 2:0.0836908 3:0.036422 4:0.0392402 5:0.171115 7:0.0298462 8:0.0437097 9:0.0241879 10:0.0720866 11:0.314742 12:0.28313 13:0.0108544 14:0.0072724 15:0.0453895 16:0.131552 17:0.559715 18:0.0651208 19:0.0494557 20:0.0223151 21:0.0315982 22:0.00238635 23:0.00586501 24:0.404729 25:0.357398 26:0.0697829 27:0.0068057 28:0.00119148 
1 1:0.709874 2:0.130793 3:0.0534187 4:0.0915397 5:0.000855293 7:0.0136414 8:0.0182531 9:0.0312219 10:0.151598 11:0.393285 12:0.170077 13:0.011337 14:0.0159976 15:0.0658408 16:0.268643 17:0.227697 18:0.163287 19:0.0420528 20:0.00819812 21:0.0514886 22:0.0110872 23:0.0690613 24:0.377455 25:0.23278 26:0.027384 27:0.0189873 28:0.00869078 
1 1:0.435927 2:0.307175 3:0.203986 4:0.261813 5:0.0253991 7:0.0742344 8:0.140808 9:0.204067 10:0.366247 11:0.147927 12:0.112518 13:0.0298342 14:0.0494044 15:0.0643053 16:0.0959314 17:0.205339 18:0.282508 19:0.261792 20:0.0847058 21:0.353685 22:0.296193 23:0.415023 24:0.194741 25:0.205088 26:0.099144 27:0.0489934 28:0.0190636 
0.2016620954088013 1:0.968766 2:0.132924 3:0.104178 4:0.163419 5:0.0177575 12:0.736165 17:0.749977 25:0.749747 
1 1:0.449119 2:0.0330501 3:0.0201817 4:0.0160273 5:5.09103e-005 7:0.00304836 8:0.240293 9:0.192039 10:0.261619 11:0.233744 12:0.0426922 13:0.00622132 14:0.0131497 15:0.0180605 16:0.020425 17:0.137085 18:0.278378 19:0.358774 20:0.140368 21:0.00339901 22:0.00384959 23:0.0683077 24:0.32084 25:0.356389 26:0.0564194 27:0.0063863 28:0.00168209 
1 1:0.696798 2:0.112157 3:0.0307482 4:0.0637886 5:0.00417464 7:0.0223362 8:0.0334963 9:0.0530665 10:0.151976 11:0.304209 12:0.208756 13:0.0178303 14:0.0191922 15:0.0115823 16:0.0410446 17:0.392928 18:0.202687 19:0.0896503 20:0.0116676 21:0.0456348 22:0.00546995 23:0.011214 24:0.397887 25:0.231935 26:0.0389795 27:0.0185108 28:0.00259322 
1 1:0.732814 2:0.0154832 3:0.00735691 4:0.0104982 5:7.12744e-005 7:0.00110157 8:0.00850785 9:0.0394083 10:0.0682065 11:0.925023 12:0.0523741 13:0.000912577 14:0.00242688 15:0.00667452 16:0.0143731 17:0.59135 18:0.427546 19:0.062838 20:0.0204528 21:0.00415434 22:0.00156144 23:0.0427425 24:0.919877 25:0.0327091 26:0.0070597 27:0.00516623 28:0.00140174 
1 1:0.563562 2:0.0576361 3:0.0409229 4:0.0612706 5:0.0297418 7:0.0212831 8:0.0660763 9:0.133595 10:0.54686 11:0.298264 12:0.166756 13:0.00259733 14:0.00547287 15:0.0699422 16:0.207023 17:0.511439 18:0.283534 19:0.0544346 20:0.0164043 21:0.0172468 22:0.000923116 23:0.0011386 24:0.0691231 25:0.439833 26:0.523435 27:0.531016 28:0.204794 
1 1:0.451547 2:0.263635 3:0.215045 4:0.113039 5:0.0650175 7:0.0679368 8:0.209225 9:0.187792 10:0.264938 11:0.16697 12:0.162663 13:0.0143731 14:0.00603419 15:0.0061557 16:0.00612262 17:0.315205 18:0.146276 19:0.241263 20:0.282983 21:0.100145 22:0.0378478 23:0.359183 24:0.309007 25:0.29648 26:0.103308 27:0.0294914 28:0.0091113 
1 1:0.490015 2:0.0682827 3:0.0513372 4:0.0641381 5:0.000168004 7:0.00710129 8:0.130795 9:0.176699 10:0.256147 11:0.20748 12:0.0633402 13:0.00487 14:0.0098231 15:0.0567755 16:0.137688 17:0.160275 18:0.308103 19:0.167806 20:0.0131858 21:0.0118336 22:0.00153198 23:0.0043578 24:0.069899 25:0.311715 26:0.254841 27:0.500248 28:0.0112139 
1 1:0.895369 2:0.0450801 3:0.017337 4:0.0350514 5:0.000432737 7:0.00270888 8:0.00259516 9:0.0024158 10:0.0124394 11:0.183488 12:0.487122 13:0.00188658 14:0.00237736 15:0.010173 16:0.219114 17:0.449201 18:0.0121388 19:0.00149487 20:0.0013117 21:0.00660918 22:0.000648145 23:0.00194954 24:0.315073 25:0.347372 26:0.00515812 27:0.00390804 28:0.00168209 
1 1:0.545735 2:0.14103 3:0.099955 4:0.156492 5:0.0688612 7:0.0408826 8:0.0512745 9:0.0673393 10:0.202374 11:0.275522 12:0.129965 13:0.0266139 14:0.0167818 15:0.0313043 16:0.119488 17:0.235378 18:0.247038 19:0.119202 20:0.0476705 21:0.136904 22:0.0134932 23:0.0450197 24:0.425363 25:0.186933 26:0.0416778 27:0.0358968 28:0.014508 
1 1:0.668732 2:0.0416507 3:0.025325 4:0.0278707 5:0.000763654 7:0.00691423 8:0.0267944 9:0.0613084 10:0.182388 11:0.418309 12:0.132021 13:0.00438739 14:0.00813089 15:0.0370604 16:0.10516 17:0.278118 18:0.319301 19:0.0990781 20:0.0153882 21:0.0106376 22:0.00263186 23:0.00855177 24:0.217226 25:0.468002 26:0.0233598 27:0.00211606 28:0.000140174 
1 1:0.34014 2:0.0323669 3:0.0397076 4:0.0319829 5:0.45832 7:0.0114521 8:0.0148687 9:0.0994148 10:0.321785 11:0.265611 12:0.0812876 13:0.104385 14:0.0486615 15:0.0302457 16:0.0269325 17:0.537705 18:0.35914 19:0.138874 20:0.00442496 21:0.0362561 22:0.00618684 23:0.0938811 24:0.499295 25:0.444097 26:0.0121597 27:0.0091124 28:0.00315391 
1 1:0.732814 2:0.0154832 3:0.00735691 4:0.0104982 5:7.12744e-005 7:0.00110157 8:0.00850785 9:0.0394083 10:0.0682065 11:0.925023 12:0.0523741 13:0.000912577 14:0.00242688 15:0.00667452 16:0.0143731 17:0.59135 18:0.427546 19:0.062838 20:0.0204528 21:0.00415434 22:0.00156144 23:0.0427425 24:0.919877 25:0.0327091 26:0.0070597 27:0.00516623 28:0.00140174 
1 1:0.269944 2:0.115549 3:0.120193 4:0.12357 5:0.243718 7:0.0622835 8:0.0666783 9:0.138849 10:0.207176 11:0.116519 12:0.0278734 13:0.143441 14:0.209108 15:0.10389 16:0.0238844 17:0.269537 18:0.0992271 19:0.0526121 20:0.0444277 21:0.183861 22:0.0110774 23:0.014941 24:0.323975 25:0.262822 26:0.0672532 27:0.0522343 28:0.0182226 
1 1:0.755751 2:0.0441749 3:0.0282593 4:0.0136481 5:0.000234187 7:0.00275738 8:0.0183333 9:0.0288146 10:0.188898 11:0.192176 12:0.333556 13:0.00412415 14:0.0141733 15:0.0281984 16:0.239548 17:0.272809 18:0.198614 19:0.0214403 20:0.00204447 21:0.00415434 22:0.000667786 23:0.00604522 24:0.409497 25:0.203242 26:0.0516277 27:0.0863009 28:0.0615363 
1 1:0.797709 2:0.0461116 3:0.0332325 4:0.0416481 5:0.00327862 7:0.00587502 8:0.00803296 9:0.0108071 10:0.143484 11:0.238893 12:0.336149 13:0.00650211 14:0.0142806 15:0.0365346 16:0.355807 17:0.203075 18:0.141548 19:0.0107857 20:0.00395534 21:0.0115189 22:0.002023 23:0.00930537 24:0.37282 25:0.281393 26:0.011741 27:0.00312643 28:0.000350435 
1 1:0.929344 2:0.0140179 3:0.0238366 4:0.0115514 5:0.000646561 7:0.00277123 8:0.002341 9:0.00107985 10:0.00383738 11:0.0280159 12:0.633858 13:0.00470328 14:0.00235259 15:0.0117786 16:0.722452 17:0.0021642 18:0.000256695 19:2.38226e-005 20:0.000315779 21:0.00673507 22:0.000441917 23:0.0008519 24:0.651329 25:0.0172575 26:0.00214001 27:0.00257359 28:0.000140174 
0.1342987182002946 1:0.995269 2:0.00921549 3:0.00606324 4:0.0117907 5:0.00421028 12:0.996859 17:1 25:1 
1 1:0.363268 2:0.172693 3:0.133181 4:0.261828 5:0.00636378 7:0.0405778 8:0.124768 9:0.273429 10:0.310016 11:0.0904281 12:0.0200719 13:0.0451024 14:0.0725919 15:0.077381 16:0.0451543 17:0.0748269 18:0.197456 19:0.412375 20:0.0333511 21:0.0978788 22:0.0092999 23:0.0205275 24:0.137604 25:0.337037 26:0.208691 27:0.118004 28:0.030628 
1 1:0.761065 2:0.0534485 3:0.0421942 4:0.0415093 5:0.00274406 7:0.00808508 8:0.0126681 9:0.0206538 10:0.078834 11:0.405713 12:0.215581 13:0.0038258 14:0.00469693 15:0.0408814 16:0.33171 17:0.237258 18:0.102199 19:0.0324999 20:0.00800379 21:0.0251778 22:0.00384959 23:0.0125082 24:0.239993 25:0.408045 26:0.0131773 27:0.00640537 28:0.00210261 
1 1:0.403008 2:0.02254 3:0.0168916 4:0.0232607 5:6.10923e-005 7:0.00288901 8:0.019564 9:0.209312 10:0.639598 11:0.044227 12:0.00125624 13:0.000245694 14:7.42924e-005 15:9.81547e-005 16:0.000269855 17:0.022122 18:0.392373 19:0.534525 20:0.0133558 21:0.00144772 22:7.85631e-005 23:0.000262123 24:0.0860271 25:0.577645 26:0.00885079 27:0.00196355 28:0.000420521 
1 1:0.866629 2:0.0526526 3:0.038349 4:0.039987 5:0.00301898 7:0.0083622 8:0.00700961 9:0.00765288 10:0.0351099 11:0.181972 12:0.460772 13:0.00333442 14:0.00440801 15:0.0109372 16:0.229147 17:0.411414 18:0.0384815 19:0.00979108 20:0.00393105 21:0.0318499 22:0.00299522 23:0.0064384 24:0.382697 25:0.270806 26:0.0117468 27:0.005395 28:0.00091113 
1 1:0.474097 2:0.061284 3:0.0439624 4:0.0491208 5:9.67295e-005 7:0.00211999 8:0.0208416 9:0.212283 10:0.426748 11:0.165623 12:0.0244727 13:0.0020182 14:0.00205542 15:0.0124656 16:0.0413719 17:0.100069 18:0.374553 19:0.367427 20:0.010113 21:0.00459495 22:0.00103114 23:0.00372706 24:0.081889 25:0.565572 26:0.0219525 27:0.00577627 28:0.00154191 
1 1:0.214027 2:0.0805792 3:0.0767473 4:0.0684034 5:0.0902945 7:0.161688 8:0.35933 9:0.261858 10:0.0975817 11:0.0292386 12:0.0351067 13:1 14:0.215638 15:0.0536766 16:0.0294054 17:0.111318 18:0.00750121 19:0.00531243 20:0.012364 21:0.217222 22:0.0149761 23:0.201868 24:0.206836 25:0.235554 26:0.255202 27:0.0628717 28:0.0302775 
1 1:0.70938 2:0.0159478 3:0.010947 4:0.015989 7:0.000457254 8:0.0287207 9:0.0835115 10:0.0683041 11:0.561132 12:0.104696 13:2.63243e-005 14:5.7783e-005 15:0.00384907 16:0.120351 17:0.373738 18:0.235635 19:0.132281 20:0.0112061 21:0.000188834 22:0.000147306 23:0.00354685 24:0.612418 25:0.129992 26:0.0159454 27:0.000781607 28:7.00869e-005 
1 1:0.852814 2:0.0549514 3:0.0170885 4:0.0225905 5:0.00165967 7:0.00439933 8:0.00668856 9:0.00887785 10:0.0521249 11:0.23916 12:0.482573 13:0.0050455 14:0.00797405 15:0.020311 16:0.198914 17:0.501106 18:0.0612019 19:0.00674774 20:0.00181371 21:0.00472084 22:0.000932937 23:0.00816678 24:0.371454 25:0.358251 26:0.0203068 27:0.0127726 28:0.00189235 
1 1:0.625438 2:0.0195821 3:0.0239665 4:0.0192204 5:0.000285098 7:0.00156575 8:0.00466193 9:0.0627766 10:0.559531 11:0.303875 12:0.167024 13:0.00058791 14:0.000941037 15:0.00213136 16:0.0713922 17:0.287998 18:0.661396 19:0.0736832 20:0.00219831 21:0.00390256 22:0.000657966 23:0.00242464 24:0.207111 25:0.65439 26:0.0120957 27:0.00102943 28:0.000350435 
1 1:0.617766 2:0.0557575 3:0.0348418 4:0.0462725 5:0.000239278 7:0.00427463 8:0.0256506 9:0.146651 10:0.276798 11:0.28015 12:0.161059 13:0.00328177 14:0.00989739 15:0.0270977 16:0.209213 17:0.199906 18:0.223953 19:0.250083 20:0.0142667 21:0.0184428 22:0.00753224 23:0.0243119 24:0.286013 25:0.418816 26:0.0392296 27:0.0192924 28:0.00609756 
1 1:0.432806 2:0.127121 3:0.0262628 4:0.0830234 5:0.0532216 7:0.0223431 8:0.341826 9:0.274979 10:0.297174 11:0.116692 12:0.183347 13:0.331458 14:0.326845 15:0.108685 16:0.0909324 17:0.310653 18:0.0262628 19:0.0174143 20:0.207957 21:0.0743375 22:0.00732601 23:0.0507536 24:0.389328 25:0.322695 26:0.223055 27:0.230002 28:1 
1 1:0.790396 2:0.0133314 3:0.00740839 4:0.00578765 5:0.000504012 7:0.0155328 8:0.0413286 9:0.0309615 10:0.171279 11:0.182403 12:0.494579 13:0.0185674 14:0.0108632 15:0.00937377 16:0.299208 17:0.36775 18:0.190548 19:0.060682 20:0.0022307 21:0.00232895 22:0.000549942 23:0.00243283 24:0.297308 25:0.480943 26:0.0764064 27:0.0191399 28:0.00203252 
1 1:0.451929 2:0.0329134 3:0.0150428 4:0.0135811 5:0.00237242 7:0.00962311 8:0.122039 9:0.258785 10:0.160822 11:0.220632 12:0.0391235 13:0.00135132 14:0.000379717 15:0.000834315 16:0.0016324 17:0.159815 18:0.255846 19:0.438603 20:0.0297278 21:0.0108265 22:0.000913296 23:0.00125328 24:0.0399504 25:0.602213 26:0.0311406 27:0.00348864 28:0.000280348 
1 1:0.737247 2:0.0305122 3:0.00882516 4:0.0112211 5:0.00117094 7:0.00590966 8:0.00585249 9:0.00348285 10:0.0201691 11:0.508817 12:0.183943 13:0.000895027 14:0.000974055 15:0.761933 16:0.196565 17:0.0337551 18:0.0151507 19:0.00574719 20:0.00440876 21:0.00258073 22:0.000343713 23:0.000794561 24:0.591056 25:0.0713802 26:0.0111711 27:0.00120101 28:0.000140174 
1 1:0.244826 2:0.198454 3:0.0735355 4:0.0788777 5:0.0944997 7:0.0213731 8:0.482546 9:0.199628 10:0.1763 11:0.0502694 12:0.0349147 13:0.00327299 14:0.00115566 15:0.00267822 16:0.00602972 17:0.1295 18:0.113111 19:0.249011 20:0.377344 21:0.0316611 22:0.00619666 23:0.0740416 24:0.0990313 25:0.580163 26:0.0536165 27:0.00810203 28:0.00203252 
1 1:0.456834 2:0.112314 3:0.0635062 4:0.0612179 5:0.00506048 7:0.0389497 8:0.186256 9:0.180848 10:0.186988 11:0.165494 12:0.0871727 13:0.0103893 14:0.00467216 15:0.00510404 16:0.0492729 17:0.146185 18:0.211871 19:0.319806 20:0.103146 21:0.0720715 22:0.00482181 23:0.0070118 24:0.21251 25:0.391724 26:0.0689571 27:0.025469 28:0.00995234 
1 1:0.525486 2:0.127774 3:0.0691599 4:0.0431609 5:0.000168004 7:0.0175488 8:0.0943355 9:0.0617523 10:0.111247 11:0.126243 12:0.0669248 13:0.0037556 14:0.00656249 15:0.0293973 16:0.0830403 17:0.0813515 18:0.122244 19:0.111359 20:0.0397801 21:0.00767923 22:0.00268097 23:0.00584862 24:0.0499764 25:0.258658 26:0.0910201 27:0.00936023 28:0.00203252 
1 1:0.484916 2:0.0408788 3:0.023342 4:0.0357695 5:0.000575286 7:0.00985174 8:0.118628 9:0.19661 10:0.230163 11:0.234282 12:0.0429682 13:0.00434352 14:0.036816 15:0.16992 16:0.124041 17:0.0633578 18:0.11618 19:0.189229 20:0.167076 21:0.00440612 22:0.000579403 23:0.0040711 24:0.379096 25:0.267603 26:0.0270467 27:0.00592878 28:0.00112139 
1 1:0.793606 2:0.0303722 3:0.0163007 4:0.0316095 5:0.000341099 7:0.00258418 8:0.00365864 9:0.00660717 10:0.12972 11:0.316396 12:0.284199 13:0.00714267 14:0.0389952 15:0.26358 16:0.408711 17:0.120339 18:0.00112376 19:0.000375205 20:0.000461524 21:0.00352489 22:0.000491019 23:0.00176114 24:0.438367 25:0.224243 26:0.00509996 27:0.00122007 28:0.000280348 
1 1:0.744671 2:0.024627 3:0.0117057 4:0.0276409 5:0.00194477 7:0.00552861 8:0.00335766 9:0.00526269 10:0.0407104 11:0.62406 12:0.10622 13:0.0069233 14:0.00720636 15:0.248857 16:0.603981 17:0.0098089 18:0.000570434 19:0.000279915 20:0.000781351 21:0.00572795 22:0.000471378 23:0.000892857 24:0.48351 25:0.215382 26:0.0135844 27:0.00394616 28:0.00119148 
1 1:0.725885 2:0.121646 3:0.0539245 4:0.101248 5:0.00207714 7:0.0187682 8:0.0320315 9:0.04316 10:0.156344 11:0.232064 12:0.282678 13:0.00495775 14:0.00297995 15:0.0101029 16:0.0233226 17:0.426055 18:0.180668 19:0.0818246 20:0.0280274 21:0.0395921 22:0.00824912 23:0.0251474 24:0.264062 25:0.363832 26:0.0274188 27:0.0136114 28:0.004836 
1 1:0.824172 2:0.0884352 3:0.0363772 4:0.0752108 5:0.00158331 7:0.0114591 8:0.0116314 9:0.0111485 10:0.0598851 11:0.226991 12:0.399317 13:0.0176987 14:0.0213632 15:0.0930016 16:0.270121 17:0.332823 18:0.0237073 19:0.00212021 20:0.00136433 21:0.0381444 22:0.00628505 23:0.0162107 24:0.429679 25:0.216795 26:0.015329 27:0.00751106 28:0.00147183 
1 1:0.515174 2:0.121362 3:0.0781014 4:0.123681 5:0.060125 7:0.0319316 8:0.037583 9:0.0677491 10:0.289286 11:0.298922 12:0.0557507 13:0.0447601 14:0.231132 15:0.304202 16:0.137586 17:0.130224 18:0.0891418 19:0.0456083 20:0.0123397 21:0.122301 22:0.0141021 23:0.120437 24:0.412011 25:0.150905 26:0.0387818 27:0.0327894 28:0.00932156 
1 1:0.741271 2:0.00865873 3:0.00223818 4:0.000794665 7:0.0671262 8:0.00235437 9:0.0354346 10:0.176355 11:0.257425 12:0.329451 16:0.0380629 17:0.508371 18:0.11861 19:0.12539 20:0.0402619 23:0.000262123 24:0.252311 25:0.459349 26:0.0584839 27:1.90636e-005 
1 1:0.658878 2:0.0147933 3:0.0121891 4:0.0049882 5:0.000173095 7:0.00121934 8:0.011103 9:0.0139527 10:0.370633 11:0.320949 12:0.0976948 13:0.000193045 14:0.000115566 15:0.000231365 16:0.00358333 17:0.234266 18:0.53667 19:0.0472461 20:0.00414157 21:0.00295839 22:0.000176767 23:0.000974771 24:0.591388 25:0.0611539 26:0.00236099 27:0.000705353 28:0.000280348 
1 1:0.47001 2:0.265302 3:0.099861 4:0.147329 5:0.0291512 7:0.0238742 8:0.0486191 9:0.20842 10:0.293404 11:0.139524 12:0.0870127 13:0.175829 14:0.462825 15:0.128499 16:0.0617615 17:0.161443 18:0.0440661 19:0.0470198 20:0.00852199 21:0.0906401 22:0.0234904 23:0.202973 24:0.354991 25:0.174332 26:0.0283784 27:0.0240773 28:0.00763947 
1 1:0.482158 2:0.0722859 3:0.0491013 4:0.0898929 5:0.000498921 7:0.0121796 8:0.0759419 9:0.156451 10:0.398026 11:0.196543 12:0.0287375 13:0.0117056 14:0.0224445 15:0.0348239 16:0.0312546 17:0.10643 18:0.385962 19:0.27359 20:0.0412456 21:0.0176874 22:0.00328001 23:0.0169069 24:0.224261 25:0.396269 26:0.0454345 27:0.0223616 28:0.00841043 
1 1:0.535284 2:0.0993346 3:0.0516774 4:0.108524 5:0.408158 7:0.0116045 8:0.00678889 9:0.00869858 10:0.0597081 11:0.217769 12:0.425398 13:0.0132411 14:0.0250613 15:0.123822 16:0.434666 17:0.50525 18:0.0119677 19:0.00283489 20:0.00259506 21:0.034053 22:0.00320145 23:0.0128768 24:0.436342 25:0.549308 26:0.0107291 27:0.00554751 28:0.000560695 
1 1:0.919291 2:0.00756913 3:0.00157344 4:0.00323611 5:0.000417464 7:0.000803658 8:0.000535085 9:0.000358528 10:0.00832144 11:0.158296 12:0.582776 13:0.000623009 14:0.000487028 15:0.000560884 16:0.169845 17:0.558387 18:0.0270386 19:0.000101246 20:0.000133599 21:0.00220306 22:0.000117845 23:0.000114679 24:0.349729 25:0.38378 26:0.0013724 27:0.00108662 28:0.000140174 
1 1:0.6312 2:0.143704 3:0.145021 4:0.128597 5:0.0271301 7:0.0331301 8:0.0416965 9:0.067079 10:0.147828 11:0.335386 12:0.159115 13:0.015856 14:0.0134964 15:0.0245948 16:0.0726309 17:0.362917 18:0.211072 19:0.0941468 20:0.0185338 21:0.128722 22:0.0168321 23:0.0436599 24:0.30775 25:0.296164 26:0.0595829 27:0.0310546 28:0.0113541 
1 1:0.470627 2:0.1514 3:0.0970006 4:0.165362 5:0.157674 7:0.0585354 8:0.0565384 9:0.0792561 10:0.183718 11:0.365385 12:0.0610517 13:0.141107 14:0.234987 15:0.360431 16:0.258791 17:0.144317 18:0.00535638 19:0.00122686 20:0.00931144 21:0.105369 22:0.0071296 23:0.0520151 24:0.505268 25:0.187406 26:0.0606355 27:0.0501373 28:0.00728904 
1 1:0.672006 2:0.0153671 3:0.0129389 4:0.0147635 5:0.00172077 7:0.00362339 8:0.0125946 9:0.0856627 10:0.27986 11:0.174716 12:0.234093 13:0.00132499 14:0.000520047 15:0.00432582 16:0.162409 17:0.209379 18:0.18348 19:0.234754 20:0.0202908 21:0.0074904 22:0.000569582 23:0.000507864 24:0.475056 25:0.188707 26:0.0066003 27:0.00327894 28:0.00112139 
1 1:0.517715 2:0.0872671 3:0.0470824 4:0.0650189 5:0.0329237 7:0.00640155 8:0.0273897 9:0.119322 10:0.370011 11:0.239818 12:0.0458688 13:0.00233409 14:0.00154363 15:0.00886898 16:0.0433273 17:0.184045 18:0.37323 19:0.232961 20:0.0138174 21:0.0143514 22:0.00116863 23:0.00289155 24:0.127412 25:0.521596 26:0.0147126 27:0.00407961 28:0.000490608 
1 1:0.337023 2:0.133327 3:0.0995141 4:0.125648 5:0.00533031 7:0.0584038 8:0.207921 9:0.216718 10:0.3334 11:0.0696996 12:0.0153269 13:0.107079 14:0.0707676 15:0.0868318 16:0.0664508 17:0.107486 18:0.151644 19:0.264847 20:0.0784266 21:0.39995 22:0.264021 23:0.383806 24:0.147149 25:0.095805 26:0.119497 27:0.0728992 28:0.0308382 
1 1:0.467291 2:0.0452611 3:0.0482015 4:0.0552101 5:5.09103e-006 7:0.00119856 8:0.0229618 9:0.220367 10:0.426644 11:0.157353 12:0.0217402 13:0.00462431 14:0.0404563 15:0.0846865 16:0.0450393 17:0.0681823 18:0.23122 19:0.454106 20:0.0180682 21:0.00107006 22:0.000530301 23:0.0167841 24:0.333884 25:0.305581 26:0.0255754 27:0.00520436 28:0.00112139 
1 1:0.536562 2:0.0869084 3:0.0531479 4:0.0669912 5:0.00183277 7:0.00611057 8:0.027684 9:0.133257 10:0.488933 11:0.255064 12:0.0535423 13:0.0219984 14:0.0598054 15:0.0690799 16:0.0461762 17:0.169384 18:0.45661 19:0.174232 20:0.0234446 21:0.0117706 22:0.00145342 23:0.0159895 24:0.258796 25:0.451044 26:0.0457717 27:0.00726323 28:0.00140174 
1 1:0.774441 2:0.0407763 3:0.0304035 4:0.0334142 5:0.000982568 7:0.00713593 8:0.0057856 9:0.00662424 10:0.0435594 11:0.566023 12:0.113666 13:0.00474715 14:0.00409433 15:0.0142815 16:0.243184 17:0.374306 18:0.0744474 19:0.00730757 20:0.00237239 21:0.0389627 22:0.00865176 23:0.0557585 24:0.61723 25:0.0170092 26:0.00424512 27:0.00386991 28:0.00147183 
1 1:0.615555 2:0.10441 3:0.0620626 4:0.12796 5:0.000636378 7:0.0140086 8:0.0687383 9:0.0947155 10:0.238125 11:0.347338 12:0.138939 13:0.0217614 14:0.0737145 15:0.238551 16:0.231368 17:0.174648 18:0.0903967 19:0.0860293 20:0.0598847 21:0.066973 22:0.0185998 23:0.0990088 24:0.384499 25:0.272596 26:0.0372989 27:0.0267081 28:0.0112139 
1 1:0.301406 2:0.0586198 3:0.0283332 4:0.0333664 5:0.320923 7:0.0178329 8:0.0616083 9:0.21128 10:0.419659 11:0.17063 12:0.0140307 13:0.00968735 14:0.029816 15:0.0966824 16:0.0612881 17:0.323578 18:0.208539 19:0.445548 20:0.041946 21:0.0314093 22:0.00428169 23:0.0316923 24:0.280424 25:0.607539 26:0.0481967 27:0.00945554 28:0.00245304 
1 1:0.696486 2:0.0516587 3:0.0479911 4:0.0319925 5:0.00189386 7:0.0070043 8:0.00876201 9:0.0185112 10:0.209842 11:0.71146 12:0.128245 13:0.00558953 14:0.015263 15:0.0407763 16:0.141307 17:0.347124 18:0.561787 19:0.0403614 20:0.00485409 21:0.0394662 22:0.0176767 23:0.0819217 24:0.502168 25:0.378703 26:0.00999639 27:0.00461339 28:0.00091113 
1 1:0.526912 2:0.0183695 3:0.0102956 4:0.0127912 7:2.77123e-005 8:0.00371884 9:0.191002 10:0.489446 11:0.201709 12:0.0663767 13:0.000166721 14:0.00197288 15:0.003807 16:0.0339575 17:0.146798 18:0.316232 19:0.466118 20:0.0348248 21:6.29445e-005 22:0.000373175 23:0.0278506 24:0.565674 25:0.175273 26:0.000308208 27:1.90636e-005 
1 1:0.951289 2:0.116905 3:0.0536246 4:0.103962 5:0.0086802 7:0.00218235 8:0.00317707 9:0.00387979 10:0.0145625 11:0.0295588 12:0.568329 13:0.00195678 14:0.00419339 15:0.016476 16:0.0437697 17:0.560684 18:0.0035481 19:0.00217977 20:0.00144125 21:0.00830868 22:0.00218013 23:0.00445609 24:0.0242062 25:0.586958 26:0.00378572 27:0.00207793 28:0.000560695 
1 1:0.555842 2:0.0369473 3:0.0733721 4:0.0328206 5:0.000117094 7:0.00366496 8:0.0362854 9:0.119309 10:0.365917 11:0.263534 12:0.0532662 13:0.00179883 14:0.00475471 15:0.00707415 16:0.0155366 17:0.192902 18:0.38356 19:0.236475 20:0.0243231 21:0.00937874 22:0.00388887 23:0.0172428 24:0.305099 25:0.343512 26:0.0124039 27:0.00310737 28:0.000770956 
1 1:0.39515 2:0.0247363 3:0.0305892 4:0.0222315 5:7.12744e-005 7:0.00498129 8:0.0554281 9:0.306371 10:0.552698 11:0.0710157 12:0.000508098 13:0.000429964 14:0.000239387 15:0.000343541 16:0.000376028 17:0.0121131 18:0.413217 19:0.61654 20:0.033505 21:0.00352489 22:0.000373175 23:0.000999345 24:0.224285 25:0.512495 26:0.0195915 27:0.00297392 28:0.000770956 
1 1:0.363979 2:0.0589067 3:0.0506613 4:0.0643439 5:0.0104468 7:0.0343148 8:0.179233 9:0.292828 10:0.350104 11:0.103976 12:0.0172553 13:0.00641436 14:0.00514268 15:0.0075509 16:0.0147005 17:0.06549 18:0.217461 19:0.443082 20:0.213892 21:0.0384591 22:0.00472361 23:0.0601163 24:0.360746 25:0.306102 26:0.0667938 27:0.0288813 28:0.00686852 
1 1:0.5729 2:0.0191004 3:0.0217104 4:0.0140455 5:5.09103e-006 7:0.000678952 8:0.0119926 9:0.111319 10:0.429652 11:0.198841 12:0.093514 13:3.50991e-005 14:0.00274056 15:0.025401 16:0.0527943 17:0.138965 18:0.394176 19:0.26047 20:0.0121858 21:6.29445e-005 22:1.96408e-005 23:0.000532438 24:0.328146 25:0.338563 26:0.0022912 27:0.000457526 28:0.000280348 
1 1:0.704567 2:0.366734 3:0.233575 4:0.409502 5:0.0456716 7:0.0606554 8:0.0232963 9:0.0146613 10:0.0597569 11:0.197805 12:0.342334 13:0.0482525 14:0.0260931 15:0.0593065 16:0.407159 17:0.199594 18:0.0106842 19:0.00767087 20:0.00917379 21:0.189715 22:0.017608 23:0.0206668 24:0.0476972 25:0.538533 26:0.0551808 27:0.0214275 28:0.000280348 
1 1:0.360215 2:0.0457734 3:0.0270261 4:0.0524 5:0.483332 7:0.0146321 8:0.0118655 9:0.0470483 10:0.278652 11:0.309335 12:0.0996191 13:0.0099857 14:0.0094764 15:0.0287032 16:0.0526262 17:0.613904 18:0.316448 19:0.12617 20:0.00639251 21:0.051111 22:0.00526373 23:0.0154407 24:0.409126 25:0.56964 26:0.0138752 27:0.0108853 28:0.00350435 
1 1:0.549273 2:0.071835 3:0.0526286 4:0.0771112 5:0.000768745 7:0.0119025 8:0.0787177 9:0.140629 10:0.255317 11:0.242464 12:0.0941221 13:0.00553688 14:0.00387971 15:0.00656234 16:0.0568952 17:0.19243 18:0.284607 19:0.199836 20:0.0810864 21:0.0273809 22:0.00363354 23:0.00711828 24:0.200722 25:0.436097 26:0.0282214 27:0.0192924 28:0.00869078 
1 1:0.553958 2:0.0476657 3:0.0552025 4:0.0412699 5:9.67295e-005 7:0.00942913 8:0.0805303 9:0.0956119 10:0.327989 11:0.271253 12:0.0556267 13:0.0329668 14:0.0930058 15:0.155926 16:0.157317 17:0.0925565 18:0.235281 19:0.140065 20:0.0151857 21:0.00711273 22:0.00157126 23:0.0149574 24:0.25486 25:0.322018 26:0.101929 27:0.020074 28:0.00539669 
1 1:0.941908 2:0.00725148 3:0.00491281 4:0.00607009 5:0.000325826 7:0.000277123 8:0.000167214 9:0.000123778 10:0.000927316 11:0.080922 12:0.59405 13:0.000263243 14:0.000181604 15:0.000764204 16:0.353807 17:0.347024 18:0.000353669 19:8.93346e-005 20:5.66783e-005 21:0.000377667 22:0.000108024 23:0.000286697 24:0.0652477 25:0.60233 26:0.000604785 27:0.000247827 28:0.000140174 
1 1:0.817587 2:0.0411213 3:0.0374 4:0.0413178 5:0.00122694 7:0.00951226 8:0.0169555 9:0.0183917 10:0.0655344 11:0.227395 12:0.378677 13:0.0226477 14:0.0603171 15:0.109982 16:0.295138 17:0.287522 18:0.00298908 19:0.000798056 20:0.00062751 21:0.0115818 22:0.00143378 23:0.00489843 24:0.490538 25:0.154765 26:0.0183936 27:0.0116097 28:0.000560695 
1 1:0.502717 2:0.0223761 3:0.0284361 4:0.019498 5:2.03641e-005 7:0.000623528 8:0.133403 9:0.177647 10:0.238997 11:0.234256 12:0.0559027 13:0.000544036 14:0.00549764 15:0.0501991 16:0.0756082 17:0.124759 18:0.220433 19:0.381108 20:0.0351284 21:0.001133 22:0.000274971 23:0.00203965 24:0.353601 25:0.289645 26:0.040759 27:0.0018873 28:0.000350435 
1 1:0.709138 2:0.00961171 3:0.00334161 4:0.00693657 5:5.09103e-006 7:0.00103921 8:0.0131698 9:0.0226385 10:0.135998 11:0.515895 12:0.0810116 13:6.14234e-005 14:2.47641e-005 15:5.60884e-005 16:0.00025216 17:0.325998 18:0.429206 19:0.0313505 20:0.0158052 21:0.000377667 22:7.85631e-005 23:0.000442333 24:0.603749 25:0.0628876 26:0.003053 27:0.000819735 28:0.000210261 
1 1:0.85473 2:0.113219 3:0.0207054 4:0.0264442 5:0.00811001 7:0.00149647 8:0.00137115 9:0.00139997 10:0.0476408 11:0.283987 12:0.385962 13:0.00100032 14:0.00161792 15:0.0677197 16:0.426487 17:0.255171 18:0.00120932 19:0.000154847 20:0.000311731 21:0.00736451 22:0.00283809 23:0.0944135 24:0.3826 25:0.253881 26:0.00103511 27:0.00102943 
1 1:0.580078 2:0.048342 3:0.0357953 4:0.0379381 5:6.10923e-005 7:0.00133019 8:0.0299848 9:0.142144 10:0.395958 11:0.243722 12:0.119167 13:0.00119337 14:0.012638 15:0.0705312 16:0.0324977 17:0.276241 18:0.349768 19:0.207709 20:0.012785 21:0.00767923 22:0.0131397 23:0.0418168 24:0.0920241 25:0.56888 26:0.0872693 27:0.0152699 28:0.00182226 
1 1:0.999488 2:0.00332345 3:0.00240605 4:0.00633339 5:0.000386918 12:0.655798 17:0.655968 25:0.655652 
1 1:0.703033 2:0.0209586 3:0.00767025 4:0.00992374 5:4.58192e-005 7:0.000859083 8:0.0316235 9:0.0606809 10:0.21011 11:0.246759 12:0.233957 13:0.000737081 14:0.00594339 15:0.0291519 16:0.188925 17:0.265828 18:0.240524 19:0.0643388 20:0.0015789 21:0.00176245 22:0.00856338 23:0.172149 24:0.201146 25:0.301365 26:0.101464 27:0.0540453 28:0.000560695 
1 1:0.831051 2:0.290933 3:0.066521 4:0.12336 5:0.108948 7:0.000478038 8:0.000702299 9:0.000670107 10:0.00204986 11:0.00705177 12:0.557471 13:0.000482613 14:0.000792452 15:0.00161955 16:0.0181113 17:0.632698 18:0.000986851 19:0.000416895 20:0.000396748 21:0.00132184 22:0.000206228 23:0.000524246 24:0.00809838 25:0.642334 26:0.00111653 27:0.000438463 28:7.00869e-005 
1 1:0.7754 2:0.187473 3:0.111235 4:0.160939 5:0.175773 10:4.27053e-005 11:4.44626e-006 12:0.575951 17:0.713942 18:5.70434e-006 19:2.97782e-005 20:8.0969e-006 23:5.73394e-005 24:4.04111e-006 25:0.713678 
1 1:0.349553 2:0.0522564 3:0.0372859 4:0.0432422 5:0.0417719 7:0.045469 8:0.24147 9:0.242109 10:0.180082 11:0.153214 12:0.0216962 13:0.646236 14:0.297235 15:0.220596 16:0.0642742 17:0.075559 18:0.00243005 19:0.000923125 20:0.00753012 21:0.0686096 22:0.0040951 23:0.00345675 24:0.471573 25:0.189055 26:0.0543899 27:0.0279663 28:0.00616765 
1 1:0.188183 2:0.0954339 3:0.132937 4:0.0959774 5:0.453656 7:0.0871276 8:0.212429 9:0.202159 10:0.240931 11:0.0954123 12:0.0329423 13:0.183147 14:0.163501 15:0.100433 16:0.0448048 17:0.424855 18:0.122278 19:0.181998 20:0.107875 21:0.236734 22:0.0170776 23:0.0371642 24:0.21213 25:0.643952 26:0.128773 27:0.073128 28:0.0288758 
1 1:0.794061 2:0.00270521 3:0.00246424 4:0.0022691 5:5.09103e-006 7:9.00651e-005 8:0.000240788 9:0.00185667 10:0.208853 11:0.311154 12:0.349243 13:8.77478e-006 14:1.65094e-005 15:0.00205424 16:0.13272 17:0.409218 18:0.328724 19:0.0101186 20:0.000238859 21:6.29445e-005 22:3.92815e-005 23:0.000737221 24:0.570661 25:0.201824 26:0.000174457 27:3.81272e-005 28:7.00869e-005 
1 1:0.72985 2:0.0522154 3:0.0354372 4:0.0635541 5:0.0015324 7:0.0105307 8:0.00789919 9:0.015199 10:0.198812 11:0.700064 12:0.137598 13:0.00768671 14:0.0391521 15:0.113775 16:0.139816 17:0.462387 18:0.30974 19:0.0361924 20:0.00632773 21:0.0528105 22:0.00945703 23:0.0769086 24:0.843027 25:0.0371056 26:0.00797851 27:0.00543312 28:0.00133165 
1 1:0.771931 2:0.0348809 3:0.0353208 4:0.0358796 5:0.000183277 7:0.00306221 8:0.00861487 9:0.0160868 10:0.10145 11:0.377088 12:0.238126 13:0.00247449 14:0.00613325 15:0.0173734 16:0.110247 17:0.420123 18:0.157594 19:0.026586 20:0.00380959 21:0.00616857 22:0.000883835 23:0.00399738 24:0.380599 25:0.278738 26:0.00949628 27:0.00263078 28:0.000280348 
1 1:0.372516 2:0.0293953 3:0.0182367 4:0.0226719 5:0.000672016 7:0.0024664 8:0.0376232 9:0.397693 10:0.29812 11:0.0576102 12:0.0195318 13:0.000623009 14:0.0111521 15:0.0434194 16:0.0248046 17:0.0237302 18:0.0799521 19:0.439925 20:0.238616 21:0.00352489 22:0.000402636 23:0.00833879 24:0.573554 25:0.0854545 26:0.00644328 27:0.00425118 28:0.00203252 
1 1:0.737482 2:0.0186974 3:0.0161843 4:0.012729 7:0.000200915 8:0.000923021 9:0.00582182 10:0.147339 11:0.509093 12:0.105272 13:0.000526487 14:0.00622405 15:0.0212154 16:0.0624118 17:0.398301 18:0.271304 19:0.0081771 20:0.000117405 23:0.0035059 24:0.389239 25:0.275663 26:0.00318675 27:0.00177291 28:0.000841043 
1 1:0.539379 2:0.0488646 3:0.0312876 4:0.0362961 5:0.00184295 7:0.00953998 8:0.0172164 9:0.118033 10:0.441494 11:0.224114 12:0.047029 13:0.00487 14:0.00244339 15:0.00487969 16:0.0210001 17:0.0931126 18:0.541924 19:0.205351 20:0.0300598 21:0.0243595 22:0.00190515 23:0.00248198 24:0.328453 25:0.326935 26:0.0115665 27:0.00781607 28:0.00245304 
1 1:0.782905 2:0.00680744 3:0.00352514 4:0.00622328 5:0.000101821 7:0.000886795 8:0.000869513 9:0.00108412 10:0.004844 11:0.685516 12:0.0439684 13:0.000500162 14:0.000173349 15:0.000820293 16:0.00149969 17:0.573285 18:0.127367 19:0.0010601 20:0.00052225 21:0.00157361 22:0.000186587 23:0.000384993 24:0.291372 25:0.375212 26:0.00159919 27:0.00120101 28:0.000560695 
1 1:0.481718 2:0.241427 3:0.248203 4:0.171466 5:0.230965 7:0.0206873 8:0.0155643 9:0.0161594 10:0.0626121 11:0.163116 12:0.184351 13:0.0103191 14:0.00524999 15:0.0561024 16:0.250996 17:0.257476 18:0.0490973 19:0.0297603 20:0.0119794 21:0.0637628 22:0.00391833 23:0.00560288 24:0.238053 25:0.33011 26:0.017184 27:0.0151174 28:0.00357443 
1 1:0.756629 2:0.0407627 3:0.0190514 4:0.0248309 5:0.0727864 7:0.0282389 8:0.0184604 9:0.00534378 10:0.133753 11:0.295868 12:0.556675 13:0.0347832 14:0.0309882 15:0.189228 16:0.236438 17:0.577733 18:0.095833 19:0.00145913 20:0.00144935 21:0.0156102 22:0.00107042 23:0.00452163 24:0.417551 25:0.551903 26:0.0401833 27:0.0145455 28:0.000210261 
1 1:0.665406 2:0.0308606 3:0.0164529 4:0.0171763 5:4.58192e-005 7:0.000346404 8:0.00535085 9:0.0482392 10:0.267171 11:0.37578 12:0.106116 13:0.000429964 14:0.00373938 15:0.0866636 16:0.12097 17:0.236282 18:0.29407 19:0.0928544 20:0.00227118 21:0.000755335 22:0.000127665 23:0.00235911 24:0.211354 25:0.453387 26:0.00513486 27:0.000324081 28:7.00869e-005 
1 1:0.52179 2:0.0973535 3:0.0721053 4:0.0328685 5:0.00566122 7:0.00660247 8:0.030259 9:0.191198 10:0.359005 11:0.144286 12:0.103268 13:0.00849398 14:0.0385 15:0.0943056 16:0.0773556 17:0.115323 18:0.185266 19:0.261155 20:0.108304 21:0.0157991 22:0.00299522 23:0.018578 24:0.481449 25:0.177736 26:0.00960677 27:0.00423212 28:0.00154191 
1 1:0.71597 2:0.0410701 3:0.0395979 4:0.0414518 5:0.000697471 7:0.00881945 8:0.043275 9:0.0348498 10:0.117208 11:0.392076 12:0.174257 13:0.00243061 14:0.00198113 15:0.00737562 16:0.0943432 17:0.378219 18:0.189099 19:0.079484 20:0.0123073 21:0.0112671 22:0.00118827 23:0.00400557 24:0.323276 25:0.300884 26:0.0591061 27:0.0116097 28:0.00301374 
1 1:0.354352 2:0.117612 3:0.0580741 4:0.0716778 5:0.0960677 7:0.021775 8:0.0976329 9:0.115438 10:0.181766 11:0.120756 12:0.0215441 13:0.0248765 14:0.0321934 15:0.0618655 16:0.0744801 17:0.16986 18:0.170651 19:0.113395 20:0.0087649 21:0.0508592 22:0.00270061 23:0.00445609 24:0.0320217 25:0.261769 26:0.229743 27:0.206268 28:0.0345528 
1 1:0.795214 2:0.0939344 3:0.0607174 4:0.0893137 5:0.133914 7:0.00447554 8:0.0062003 9:0.0139869 10:0.096331 11:0.0894944 12:0.731829 13:0.00040364 14:0.000247641 15:0.000855348 16:0.440324 17:0.475196 18:0.135279 19:0.035579 20:0.00715766 21:0.0337383 22:0.020996 23:0.0868037 24:0.165803 25:0.781331 26:0.00152359 27:0.00095318 
1 1:0.569668 2:0.183852 3:0.0878688 4:0.111861 5:0.168722 7:0.00344326 8:0.01426 9:0.0260616 10:0.104042 11:0.265962 12:0.181023 13:0.00453656 14:0.01977 15:0.09901 16:0.215973 17:0.369998 18:0.0267933 19:0.00351383 20:0.00139672 21:0.0350601 22:0.0437498 23:0.0906701 24:0.0951519 25:0.494769 26:0.00284365 27:0.00118194 28:0.000140174 
1 1:0.367583 2:0.13937 3:0.065872 4:0.12538 5:0.00288152 7:0.0385687 8:0.088376 9:0.294672 10:0.346096 11:0.0805752 12:0.0110301 13:0.0276844 14:0.0302618 15:0.0403346 16:0.0231412 17:0.054433 18:0.197895 19:0.496975 20:0.0665039 21:0.168188 22:0.0390753 23:0.0975836 24:0.321482 25:0.210553 26:0.0714635 27:0.0458479 28:0.0246005 
1 1:0.690553 2:0.0551905 3:0.0348821 4:0.0579723 5:0.000458192 7:0.00550783 8:0.0166679 9:0.0458575 10:0.192259 11:0.383005 12:0.140899 13:0.00347481 14:0.0129681 15:0.0511877 16:0.16735 17:0.271337 18:0.192659 19:0.0814494 20:0.018631 21:0.0127148 22:0.00650109 23:0.0365088 24:0.302121 25:0.321185 26:0.0314314 27:0.0182057 28:0.00623773 
1 1:0.367179 2:0.0805826 3:0.0566954 4:0.102718 5:0.000157822 7:0.0113621 8:0.125203 9:0.349629 10:0.216717 11:0.100708 12:0.0220682 13:0.00270263 14:0.00240212 15:0.00980846 16:0.0426593 17:0.103001 18:0.239086 19:0.47476 20:0.0281732 21:0.0112671 22:0.000834733 23:0.000901048 24:0.00753262 25:0.495013 26:0.219159 27:0.0390804 28:0.0100925 
1 1:0.582655 2:0.117889 3:0.100071 4:0.165946 5:0.00915367 7:0.00760011 8:0.0399708 9:0.0914546 10:0.297888 11:0.286379 12:0.0918536 13:0.00366786 14:0.00780895 15:0.042515 16:0.0707419 17:0.241346 18:0.265965 19:0.159838 20:0.0375049 21:0.0270032 22:0.0204853 23:0.0668742 24:0.17837 25:0.413102 26:0.043812 27:0.0131729 28:0.00231287 
1 1:0.717579 2:0.0363052 3:0.0343807 4:0.0351759 5:0.00405246 7:0.00577802 8:0.0064879 9:0.00991075 10:0.157052 11:0.522111 12:0.157638 13:0.0027816 14:0.00879126 15:0.415909 16:0.278699 17:0.19711 18:0.0682753 19:0.00957667 20:0.00374077 21:0.0329829 22:0.00808218 23:0.0166202 24:0.297539 25:0.433547 26:0.00937998 27:0.00631005 28:0.00154191 
1 1:0.619107 2:0.157784 3:0.1184 4:0.149737 5:0.0424134 7:0.0421089 8:0.0351751 9:0.0403942 10:0.207804 11:0.238498 12:0.196678 13:0.0705317 14:0.13612 15:0.356035 16:0.220136 17:0.150338 18:0.00324007 19:0.00129237 20:0.0102831 21:0.0849751 22:0.00601008 23:0.00915793 24:0.503243 25:0.122568 26:0.0383806 27:0.0168903 28:0.00273339 
1 1:0.830888 2:0.0340987 3:0.0305467 4:0.0270282 5:0.00112003 7:0.00439241 8:0.00650797 9:0.00981685 10:0.0415706 11:0.346217 12:0.39482 13:0.00319402 14:0.00483726 15:0.0331833 16:0.493282 17:0.235262 18:0.0469353 19:0.0144603 20:0.00333188 21:0.0123371 22:0.00209174 23:0.00846986 24:0.541132 25:0.198989 26:0.011991 27:0.00251639 28:0.000420521 
1 1:0.778646 2:0.0844696 3:0.052942 4:0.0350993 5:0.00114039 7:0.00896494 8:0.015979 9:0.0230227 10:0.0710556 11:0.260649 12:0.243743 13:0.0156718 14:0.0385495 15:0.0871754 16:0.197401 17:0.270405 18:0.0460055 19:0.00486576 20:0.00197564 21:0.0155473 22:0.0019248 23:0.00783912 24:0.28531 25:0.246413 26:0.0346821 27:0.0135161 28:0.00217269 
1 1:0.773797 2:0.00574516 3:0.00233666 4:0.00303026 7:7.6209e-005 8:0.000113706 9:0.00333773 10:0.184938 11:0.304404 12:0.267679 13:1.75496e-005 14:0.000165094 15:0.00401032 16:0.156667 17:0.289999 18:0.301942 19:0.0295579 20:0.000327925 21:0.000440612 22:0.000294612 23:0.00239187 24:0.541185 25:0.128038 26:0.000116305 27:1.90636e-005 
1 1:0.468585 2:0.0444584 3:0.0207189 4:0.0344578 5:3.05462e-005 7:0.00261189 8:0.0118989 9:0.0908272 10:0.871189 11:0.0739458 12:0.0184875 13:0.00222002 14:0.00990565 15:0.0119188 16:0.0181953 17:0.0373794 18:0.466438 19:0.521952 20:0.00590264 21:0.00553912 22:0.0034666 23:0.0231979 24:0.483179 25:0.244483 26:0.0176609 27:0.00573814 28:0.000770956 
1 1:0.586416 2:0.119436 3:0.0807223 4:0.0776283 5:0.0115006 7:0.0200291 8:0.0154907 9:0.0868962 10:0.70623 11:0.29617 12:0.159219 13:0.0113282 14:0.00925353 15:0.189039 16:0.777409 17:0.165131 18:0.00609224 19:0.00267408 20:0.00840054 21:0.0730157 22:0.00710014 23:0.0115252 24:0.0121839 25:0.2968 26:0.654854 27:1 28:0.297939 
1 1:0.733365 2:0.0494111 3:0.0474719 4:0.0398721 5:0.0036299 7:0.00863932 8:0.0191895 9:0.0284859 10:0.160603 11:0.406375 12:0.233121 13:0.0135834 14:0.0226262 15:0.0858223 16:0.194132 17:0.376599 18:0.1459 19:0.0330419 20:0.00727912 21:0.0161138 22:0.00450756 23:0.0114925 24:0.153182 25:0.569484 26:0.0256452 27:0.0103515 28:0.00301374 
1 1:0.461242 2:0.11158 3:0.0461178 4:0.0527543 5:1.52731e-005 7:0.0084107 8:0.105365 9:0.186904 10:0.363428 11:0.15718 12:0.0432563 13:0.000131622 14:0.000850235 15:0.00576308 16:0.0319889 17:0.134504 18:0.382984 19:0.320205 20:0.0152991 21:0.000818279 22:0.000108024 23:0.00163008 24:0.0595457 25:0.503285 26:0.147027 27:0.00579533 28:0.000560695 
1 1:0.673911 2:0.0900577 3:0.0357885 4:0.0632668 5:0.00864966 7:0.0212138 8:0.0118722 9:0.0138418 10:0.318606 11:0.629035 12:0.112086 13:0.0102051 14:0.00498584 15:0.00645718 16:0.101452 17:0.291431 18:0.536374 19:0.217387 20:0.0100199 21:0.095361 22:0.0184525 23:0.353522 24:0.719426 25:0.0144026 26:0.0139391 27:0.0118576 28:0.00364452 
1 1:0.45531 2:0.0371728 3:0.0241612 4:0.0188948 5:0.000101821 7:0.00230012 8:0.0519099 9:0.273459 10:0.257196 11:0.167949 12:0.0355308 13:0.192764 14:0.093823 15:0.101155 16:0.0622304 17:0.0855239 18:0.126254 19:0.230281 20:0.0687022 21:0.00377667 22:0.00172839 23:0.0343955 24:0.321862 25:0.29877 26:0.0106303 27:0.00373646 28:0.00168209 
1 1:0.477714 2:0.0241386 3:0.024141 4:0.0179661 5:0.00044801 7:0.00390744 8:0.0222729 9:0.243898 10:0.50208 11:0.252099 12:0.0114902 13:0.00193045 14:0.0016592 15:0.117687 16:0.0321791 17:0.10703 18:0.4522 19:0.366975 20:0.0439257 21:0.0119595 22:0.00109988 23:0.010829 24:0.230076 25:0.562061 26:0.019545 27:0.00794952 28:0.0026633 
1 1:0.992747 2:0.0394886 3:0.0248931 4:0.0528979 5:0.00315644 12:0.603612 17:0.605964 25:0.605601 
1 1:0.990178 2:0.0553749 3:0.0340562 4:0.0637408 5:0.00463284 12:0.662463 17:0.665969 25:0.665662 
1 1:0.436805 2:0.0269736 3:0.021218 4:0.0266117 7:0.00113621 8:0.0363791 9:0.247935 10:0.461681 11:0.0984314 12:0.0199558 13:8.77478e-006 14:0.000132075 15:0.00100959 16:0.0152844 17:0.0508047 18:0.392619 19:0.34607 20:0.0940253 22:9.82039e-006 23:0.00438237 24:0.270019 25:0.387068 26:0.0124155 27:0.00163947 28:0.000210261 
1 1:0.597696 2:0.0319639 3:0.0138387 4:0.0204554 5:0.000498921 7:0.00324234 8:0.0228281 9:0.110977 10:0.388057 11:0.164481 12:0.14368 13:0.0195239 14:0.070165 15:0.0238866 16:0.09575 17:0.158287 18:0.310145 19:0.216488 20:0.00167201 21:0.00730157 22:0.000824912 23:0.00353866 24:0.258962 25:0.395556 26:0.0147707 27:0.00360302 28:0.0010513 
1 1:0.408459 2:0.126332 3:0.0946908 4:0.127022 5:0.0187095 7:0.0420743 8:0.235016 9:0.238306 10:0.122692 11:0.102211 12:0.120731 13:0.033818 14:0.0288254 15:0.038049 16:0.147721 17:0.0929846 18:0.0763127 19:0.216982 20:0.221681 21:0.0820167 22:0.0106944 23:0.0243447 24:0.209733 25:0.38489 26:0.0959514 27:0.0659982 28:0.0277544 
1 1:0.772698 2:0.00704312 3:0.00283354 4:0.00361429 5:0.000122185 7:0.0012817 8:0.0012307 9:0.00271884 10:0.210818 11:0.648541 12:0.274237 13:0.00385213 14:0.241293 15:0.3632 16:0.671613 17:0.0591694 18:0.00802601 19:0.00183434 20:0.00073277 21:0.0040914 22:0.000942757 23:0.191432 24:0.907176 25:0.00566573 26:0.00126191 27:0.0016776 28:0.000630782 
1 1:0.855083 2:0.105865 3:0.00128696 4:0.00146486 5:0.119578 12:0.672153 17:0.765978 25:0.765763 
1 1:0.924142 2:0.0064932 3:0.00174578 4:0.00161805 5:5.60013e-005 7:0.000138562 8:0.00180591 9:0.00722179 10:0.00378857 11:0.15236 12:0.852616 13:0.000350991 14:0.000371462 15:0.00618375 16:0.638672 17:0.408694 18:0.00245857 19:0.00802225 20:0.00282582 21:0.000188834 22:3.92815e-005 23:0.000253932 24:0.282316 25:0.718535 26:0.00225631 27:0.000152509 
1 1:0.67284 2:0.101049 3:0.0684593 4:0.0934545 5:0.00179204 7:0.0202092 8:0.0348273 9:0.0413375 10:0.202356 11:0.377394 12:0.153169 13:0.00680923 14:0.00665329 15:0.0139029 16:0.0559707 17:0.397581 18:0.25977 19:0.0542857 20:0.0170845 21:0.0463272 22:0.00640289 23:0.0126884 24:0.208865 25:0.431817 26:0.0585304 27:0.029968 28:0.0100224 
1 1:0.471672 2:0.00820103 3:0.00536269 4:0.00471533 7:0.000166274 8:0.0112167 9:0.348754 10:0.294606 11:0.21937 12:0.025825 15:0.00020332 16:0.0656633 17:0.0934046 18:0.14408 19:0.32706 20:0.279675 23:0.0228047 24:0.733158 25:0.011836 26:0.00047685 
1 1:0.346899 2:0.0822631 3:0.0424606 4:0.0654976 5:3.56372e-005 7:0.00462103 8:0.0959273 9:0.48459 10:0.220445 11:0.0880849 12:0.0119943 13:0.580065 14:0.388747 15:0.0550858 16:0.0328693 17:0.0568772 18:0.127874 19:0.120387 20:0.00866774 21:0.0571536 22:0.0392324 23:0.16277 24:0.345498 25:0.273557 26:0.0499703 27:0.0010485 28:0.000630782 
1 1:0.724567 2:0.029976 3:0.0196557 4:0.010503 5:0.000142549 7:0.00221006 8:0.00618023 9:0.0158478 10:0.151256 11:0.467716 12:0.128121 13:0.000956451 14:0.000586084 15:0.0103203 16:0.086367 17:0.333455 18:0.316237 19:0.0356386 20:0.00414561 21:0.00352489 22:0.000314252 23:0.000671691 24:0.446368 25:0.220075 26:0.00548377 27:0.00362208 28:0.00168209 
1 1:0.729184 2:0.0445131 3:0.0425523 4:0.0437401 5:0.000122185 7:0.00329084 8:0.0132032 9:0.029903 10:0.15499 11:0.487764 12:0.171665 13:0.00367663 14:0.0101698 15:0.110059 16:0.358187 17:0.200654 18:0.164382 19:0.0500631 20:0.0072022 21:0.00906401 22:0.00477271 23:0.0363696 24:0.430297 25:0.281425 26:0.0279655 27:0.010485 28:0.00371461 
1 1:0.32723 2:0.0701955 3:0.0524362 4:0.0802181 5:5.09103e-006 7:0.299439 8:0.22107 9:0.0496477 10:0.24023 11:0.14774 12:0.0219362 13:0.567597 14:0.167488 15:0.091396 16:0.0535552 17:0.0607776 18:0.176167 19:0.05827 22:9.82039e-006 23:0.000278506 24:0.177514 25:0.1664 26:0.465562 27:0.00320268 
1 1:0.344027 2:0.0407558 3:0.0222744 4:0.0200916 5:2.54551e-005 7:0.109644 8:0.0785571 9:0.256924 10:0.305782 11:0.0548402 12:0.0130705 13:0.155068 14:0.00591863 15:0.00527231 16:0.0117055 17:0.0341311 18:0.241037 19:0.452081 20:0.020222 21:0.0069239 22:0.00484145 23:0.00765072 24:0.105364 25:0.406624 26:0.139351 27:0.00213512 28:0.000630782 
1 1:0.649215 2:0.065195 3:0.0576847 4:0.0754022 5:0.000519285 7:0.00687959 8:0.0207212 9:0.0570359 10:0.232152 11:0.396927 12:0.0864686 13:0.0177163 14:0.123309 15:0.288687 16:0.248643 17:0.162311 18:0.0513049 19:0.0128285 20:0.0016882 21:0.0124001 22:0.00182659 23:0.0129751 24:0.348141 25:0.270834 26:0.0549482 27:0.0183011 28:0.00567704 
0.3555121214753348 1:0.0656409 2:0.0905768 3:0.0404686 4:0.0715103 5:0.0773989 7:0.654053 8:0.378766 9:0.0221434 10:0.0179301 11:0.00831006 12:0.0130425 13:0.00525609 14:0.000767688 15:0.00250294 16:0.00560945 17:0.076059 18:0.014837 19:0.0857672 20:0.571419 21:0.0450054 22:0.00168911 23:0.00455439 24:0.0194539 25:0.128874 26:0.815029 27:0.0120482 28:0.00126156 
1 1:0.110293 2:0.0416473 3:0.0295283 4:0.0530846 5:0.0132469 7:0.169018 8:1 9:0.0551664 10:0.0237808 11:0.00916375 12:0.00841362 13:0.0199889 14:0.00729716 15:0.00905126 16:0.00250833 17:0.0336111 18:0.0258578 19:0.148635 20:0.625749 21:0.179266 22:0.00921152 23:0.00585682 24:0.0611702 25:0.228107 26:0.677132 27:0.0737189 28:0.0232689 
1 1:0.662149 2:0.0466239 3:0.0136216 4:0.0215421 5:0.00182259 7:0.00877789 8:0.0319579 9:0.0525842 10:0.224337 11:0.466004 12:0.108785 13:0.000377315 14:0.000181604 15:0.000609961 16:0.0218671 17:0.315957 18:0.444243 19:0.126081 20:0.0176189 21:0.00232895 22:0.00024551 23:0.00212975 24:0.573106 25:0.165107 26:0.0220339 27:0.0014679 28:0.000350435 
1 1:0.686376 2:0.0295558 3:0.0220685 4:0.0213746 5:0.000274915 7:0.00155189 8:0.00326402 9:0.0140168 10:0.3283 11:0.351068 12:0.118715 13:0.0030624 14:0.0141816 15:0.3507 16:0.220268 17:0.182517 18:0.0883603 19:0.0184804 20:0.00153841 21:0.00308428 22:0.000913296 23:0.0102556 24:0.150139 25:0.507938 26:0.00437306 27:0.00160134 28:0.000560695 
1 1:0.654008 2:0.00897298 3:0.00615053 4:0.00635253 5:5.09103e-005 7:0.00014549 8:0.000414691 9:0.00773397 10:0.396171 11:0.516967 12:0.067537 13:0.000105297 14:4.95282e-005 15:0.000168265 16:0.0494986 17:0.231265 18:0.717065 19:0.0304333 20:0.000485814 21:0.000377667 22:7.85631e-005 23:0.000442333 24:0.239933 25:0.561624 26:0.000191903 27:0.000152509 28:7.00869e-005 
1 1:0.633001 2:0.14782 3:0.0954563 4:0.146166 5:0.0203132 7:0.0557642 8:0.0644309 9:0.0422509 10:0.203637 11:0.202763 12:0.223807 13:0.014689 14:0.00647169 15:0.0119048 16:0.104938 17:0.292263 18:0.238333 19:0.0696512 20:0.0488446 21:0.115314 22:0.00699211 23:0.0100426 24:0.210833 25:0.386263 26:0.0692013 27:0.0349626 28:0.00721895 
1 1:0.995594 2:0.0257439 3:0.0150227 4:0.02249 5:0.00233678 12:0.672269 17:0.67397 25:0.67367 
1 1:0.499757 2:0.0656493 3:0.0408133 4:0.0707204 5:0.000203641 7:0.00881253 8:0.059468 9:0.163118 10:0.368791 11:0.208592 12:0.0428482 13:0.00150926 14:0.00483726 15:0.0257796 16:0.0339089 17:0.133288 18:0.369373 19:0.281136 20:0.0368409 21:0.00572795 22:0.000785631 23:0.00335026 24:0.0881608 25:0.558986 26:0.0231214 27:0.00478496 28:0.00133165 
1 1:0.271945 2:0.103297 3:0.0782133 4:0.073722 5:0.508965 7:0.0437509 8:0.0731862 9:0.102855 10:0.286187 11:0.186992 12:0.0788151 13:0.0468836 14:0.053119 15:0.0688906 16:0.0843807 17:0.538494 18:0.267893 19:0.1353 20:0.0202706 21:0.0868005 22:0.00917224 23:0.00995249 24:0.220754 25:0.672905 26:0.10682 27:0.089618 28:0.0326605 
1 1:0.388562 2:0.218893 3:0.120587 4:0.212726 5:0.0430955 7:0.0214494 8:0.0290484 9:0.267727 10:0.385092 11:0.0626567 12:0.0406078 13:0.0105648 14:0.00617452 15:0.00768411 16:0.00723301 17:0.139241 18:0.524931 19:0.173178 20:0.021805 21:0.128596 22:0.256616 23:0.814499 24:0.0840388 25:0.0575062 26:0.0128633 27:0.0134208 28:0.00455565 
1 1:0.40784 2:0.062319 3:0.0449875 4:0.0507245 5:0.000656743 7:0.0173341 8:0.0586854 9:0.191194 10:0.594751 11:0.0562941 12:0.000580111 13:0.00349236 14:0.00216273 15:0.00500589 16:0.00260123 17:0.00600855 18:0.222401 19:0.574493 20:0.111587 21:0.0207717 22:0.00251402 23:0.0853129 24:0.535839 25:0.0619066 26:0.0346995 27:0.0208365 28:0.00897112 
1 1:0.534055 2:0.0473993 3:0.0446025 4:0.040638 5:0.00188368 7:0.0135513 8:0.0172431 9:0.130816 10:0.434893 11:0.205911 12:0.0533903 13:0.0126445 14:0.0457889 15:0.0366327 16:0.0527722 17:0.119847 18:0.302661 19:0.300998 20:0.0355373 21:0.0403475 22:0.0193658 23:0.0543414 24:0.508533 25:0.111593 26:0.0149917 27:0.0121244 28:0.0053266 
1 1:0.830518 2:0.0136798 3:0.00779335 4:0.00641477 5:9.16385e-005 7:0.00166967 8:0.00359845 9:0.0075291 10:0.0608856 11:0.537344 12:0.46649 13:0.000701982 14:0.00848584 15:0.256254 16:0.42857 17:0.425219 18:0.0364565 19:0.0124711 20:0.00268008 21:0.00547618 22:0.000795451 23:0.00207241 24:0.628679 25:0.373706 26:0.00214001 27:0.000876925 28:0.000630782 
1 1:0.512089 2:0.0516211 3:0.0308713 4:0.0321026 5:3.56372e-005 7:0.00745462 8:0.221177 9:0.154709 10:0.208085 11:0.29416 12:0.0873328 13:0.0158385 14:0.0243019 15:0.144154 16:0.179825 17:0.130332 18:0.120116 19:0.193541 20:0.163493 21:0.0277585 22:0.0597472 23:0.134068 24:0.439115 25:0.205248 26:0.052971 27:0.00562376 28:0.00203252 
1 1:0.591022 2:0.0576532 3:0.033284 4:0.0344052 5:0.0159298 7:0.0400721 8:0.128989 9:0.0947753 10:0.185902 11:0.132294 12:0.227504 13:0.00348359 14:0.00142806 15:0.00161955 16:0.0387265 17:0.278822 18:0.206349 19:0.168229 20:0.0963613 21:0.0217159 22:0.00181677 23:0.00221166 24:0.304897 25:0.315467 26:0.0667706 27:0.0131348 28:0.00280348 
1 1:0.783757 2:0.0349936 3:0.0480762 4:0.0318393 5:0.000677107 7:0.00360953 8:0.0108087 9:0.0348541 10:0.0839892 11:0.283867 12:0.313848 13:0.000851153 14:0.000528301 15:0.00498486 16:0.252195 17:0.305856 18:0.105804 19:0.0609977 20:0.0135623 21:0.00472084 22:0.000805272 23:0.00349771 24:0.314495 25:0.346775 26:0.00633861 27:0.00253546 28:0.000700869 
1 1:0.995721 2:0.0257132 3:0.0151256 4:0.0276457 5:0.00212805 12:0.674433 17:0.67597 25:0.675672 
1 1:0.471096 2:0.0457017 3:0.0219476 4:0.0224613 5:0.000554922 7:0.00631149 8:0.042479 9:0.203397 10:0.564424 11:0.130947 12:0.0420121 13:0.00498407 14:0.0328537 15:0.0365206 16:0.0408588 17:0.098353 18:0.478857 19:0.334695 20:0.0151979 21:0.0052244 22:0.00050084 23:0.00101573 24:0.160476 25:0.479145 26:0.0852688 27:0.223349 28:0.0864872 
1 1:0.567039 2:0.0237628 3:0.0155845 4:0.0261665 5:0.000829837 7:0.00236941 8:0.00837408 9:0.0976179 10:0.454659 11:0.25169 12:0.0669489 13:0.000596685 14:0.000784197 15:0.00471844 16:0.0847523 17:0.237722 18:0.323596 19:0.20812 20:0.00560711 21:0.00717568 22:0.00268097 23:0.0178817 24:0.157446 25:0.431088 26:0.132791 27:0.00381272 28:0.00126156 
1 1:0.879197 2:0.0181304 3:0.0245529 4:0.0187177 5:6.61834e-005 7:0.00271581 8:0.0073106 9:0.00838274 10:0.0245068 11:0.145695 12:0.507085 13:0.0113984 14:0.0232122 15:0.0260951 16:0.164784 17:0.461574 18:0.0367017 19:0.00023227 20:0.00015789 21:0.00484673 22:0.000363354 23:0.000581586 24:0.527296 25:0.140578 26:0.00511741 27:0.00162041 28:0.000350435 
1 1:0.389098 2:0.130554 3:0.123317 4:0.103316 5:0.202231 7:0.0487322 8:0.0257108 9:0.111733 10:0.32525 11:0.164743 12:0.083416 13:0.043751 14:0.0801532 15:0.0851562 16:0.100461 17:0.514811 18:0.04511 19:0.00114348 20:0.00661922 21:0.0947945 22:0.00440935 23:0.00287516 24:0.034604 25:0.307791 26:0.388778 27:0.506043 28:0.463134 
1 1:0.99618 2:0.00704995 3:0.0240605 4:0.0100243 5:0.00214332 12:0.66442 17:0.665969 25:0.665662 
1 1:0.726615 2:0.0277728 3:0.012366 4:0.0120875 5:0.00122185 7:0.00452404 8:0.184792 9:0.0428954 10:0.0190893 11:0.270271 12:0.394108 13:0.00216737 14:0.00269103 15:0.00907931 16:0.49518 17:0.1773 18:0.0307521 19:0.0618493 20:0.109624 21:0.0184428 22:0.00328983 23:0.00719201 24:0.633831 25:0.164198 26:0.00682709 27:0.00373646 28:0.00119148 
1 1:0.93427 2:0.00025276 3:0.000337966 4:0.000292016 11:0.0189322 12:0.733085 16:0.196158 17:0.572597 24:0.0367498 25:0.713334 
1 1:0.262581 2:0.0353147 3:0.0236688 4:0.0246298 5:0.000305462 7:0.0261466 8:0.320201 9:0.354679 10:0.14119 11:0.0286562 12:0.00840561 13:0.000675658 14:0.000511792 15:0.00079926 16:0.00642344 17:0.0258624 18:0.0782408 19:0.423172 20:0.297711 21:0.0625039 22:0.0346758 23:0.0963548 24:0.178136 25:0.367019 26:0.0812214 27:0.00440369 28:0.00133165 
1 1:0.630623 2:0.0775495 3:0.0639225 4:0.0951923 5:0.000906203 7:0.00947069 8:0.0151763 9:0.0433606 10:0.342753 11:0.324764 12:0.0912055 13:0.00957328 14:0.0155354 15:0.0707976 16:0.0946175 17:0.19823 18:0.356407 19:0.10445 20:0.00788234 21:0.03292 22:0.00512624 23:0.022518 24:0.296767 25:0.337682 26:0.0198649 27:0.0130776 28:0.00553687 
1 1:0.565478 2:0.098245 3:0.089731 4:0.0943162 5:0.00141021 7:0.0301718 8:0.112482 9:0.146903 10:0.385629 11:0.452092 12:0.116974 13:0.0339584 14:0.0993289 15:0.145591 16:0.154198 17:0.277306 18:0.369556 19:0.179372 20:0.0576054 21:0.0218418 22:0.00310324 23:0.0131389 24:0.287048 25:0.641253 26:0.0851351 27:0.0290148 28:0.00946173 
1 1:0.710585 2:0.121062 3:0.0859238 4:0.115777 5:0.0199416 7:0.0161771 8:0.031657 9:0.0445642 10:0.182218 11:0.462465 12:0.280806 13:0.0168827 14:0.0458714 15:0.172731 16:0.372299 17:0.328454 18:0.0921993 19:0.0361924 20:0.0196593 21:0.0318499 22:0.00600026 23:0.0440203 24:0.309848 25:0.513824 26:0.0649213 27:0.0476971 28:0.00630782 
1 1:0.442632 2:0.0310724 3:0.0153226 4:0.0429359 5:0.000417464 7:0.0059443 8:0.214482 9:0.267633 10:0.193028 11:0.199859 12:0.0607837 13:0.00225512 14:0.00133726 15:0.00299372 16:0.00810893 17:0.213264 18:0.211996 19:0.492317 20:0.0472009 21:0.0222824 22:0.00375139 23:0.00689712 24:0.0623987 25:0.66965 26:0.014794 27:0.0076445 28:0.00280348 
1 1:0.258858 2:0.095533 3:0.0745382 4:0.0268798 5:0.00613469 7:0.0179992 8:0.418958 9:0.32609 10:0.0560721 11:0.0251747 12:0.0432083 13:0.00350991 14:0.00164269 15:0.00171771 16:0.0108119 17:0.0488645 18:0.031448 19:0.216803 20:0.449613 21:0.0242337 22:0.00329965 23:0.0311271 24:0.309027 25:0.318715 26:0.041515 27:0.00905521 28:0.00301374 
1 1:0.554806 2:0.162381 3:0.146552 4:0.107802 5:0.00330408 7:0.0385063 8:0.0809918 9:0.0943143 10:0.264578 11:0.243749 12:0.111589 13:0.0416714 14:0.0574115 15:0.135608 16:0.147062 17:0.212648 18:0.18502 19:0.0649403 20:0.0230438 21:0.0688613 22:0.00976146 23:0.0108699 24:0.141156 25:0.332925 26:0.192455 27:0.203084 28:0.0705775 
1 1:0.328618 2:0.0477511 3:0.0370845 4:0.0679152 5:0.422545 7:0.0154773 8:0.00581236 9:0.00202313 10:0.141757 11:0.386149 12:0.00534103 13:0.00735326 14:0.00179127 15:0.00397527 16:0.00061934 17:0.588186 18:0.27127 19:0.00115539 20:0.00580143 21:0.0418581 22:0.00222923 23:0.00310452 24:0.00200035 25:0.775729 26:0.0110141 27:0.0066532 28:0.000140174 
1 2:0.0718043 3:0.0451867 4:0.0728746 5:1 7:0.0402245 8:0.0601368 9:0.0612187 10:0.0674561 11:0.0423996 12:0.0153509 13:0.0645473 14:0.0551745 15:0.0428585 16:0.0227298 17:0.826448 18:0.0272554 19:0.0323927 20:0.0318856 21:0.166929 22:0.0287443 23:0.052654 24:0.0699475 25:0.850789 26:0.0351008 27:0.0332469 28:0.0118447 
1 1:0.533269 2:0.0257747 3:0.0339868 4:0.0274973 5:5.09103e-006 7:0.00119856 8:0.00858811 9:0.0722947 10:0.64773 11:0.264873 12:0.0134186 13:0.000473838 14:0.00211321 15:0.0075509 16:0.0174123 17:0.114943 18:0.710288 19:0.165984 20:0.0041861 21:0.000755335 22:0.000333893 23:0.00487385 24:0.208723 25:0.510949 26:0.0397297 27:0.00928397 28:0.00203252 
1 1:0.57631 2:0.103201 3:0.0869892 4:0.142398 5:0.159013 7:0.0306429 8:0.032192 9:0.0259293 10:0.12739 11:0.290701 12:0.21879 13:0.0249906 14:0.0359988 15:0.0797437 16:0.21131 17:0.335935 18:0.158672 19:0.0308919 20:0.016797 21:0.0888148 22:0.0071787 23:0.0180537 24:0.368832 25:0.339816 26:0.0319896 27:0.0231241 28:0.00343426 
1 1:0.427283 2:0.0588828 3:0.0374045 4:0.0358844 5:0.0166528 7:0.0155951 8:0.0438636 9:0.343231 10:0.137682 11:0.16384 12:0.0583352 13:0.67335 14:0.151928 15:0.178025 16:0.146133 17:0.0483725 18:0.00114087 19:0.00128642 20:0.00162748 21:0.0132184 22:0.00211138 23:0.00614351 24:0.467665 25:0.176823 26:0.0268373 27:0.0103897 28:0.00168209 
1 1:0.458313 2:0.0655092 3:0.0270753 4:0.0485129 5:0.000549831 7:0.0133089 8:0.185467 9:0.155025 10:0.274406 11:0.237293 12:0.0122704 13:0.00444881 14:0.00200589 15:0.00235571 16:0.00430441 17:0.117619 18:0.33505 19:0.324356 20:0.0923776 21:0.0328571 22:0.00283809 23:0.00611894 24:0.383493 25:0.266201 26:0.0207895 27:0.0123341 28:0.00602747 
1 1:0.995856 2:0.0143322 3:0.0168379 4:0.0257452 5:0.00224514 12:0.66434 17:0.665969 25:0.665662 
1 1:0.562845 2:0.00921207 3:0.00482776 4:0.00365259 5:2.03641e-005 7:0.000692809 8:0.0036854 9:0.11338 10:0.358798 11:0.332692 12:0.0145548 13:0.000105297 14:0.000115566 15:0.000287453 16:0.00169434 17:0.086548 18:0.492627 19:0.22482 20:0.0740178 21:0.00100711 22:0.000196408 23:0.0243037 24:0.608873 25:0.0329814 26:0.0101069 27:0.0106375 28:0.00287356 
0.797378567802844 1:0.923407 2:0.0500943 3:0.026086 4:0.0521272 5:0.00205168 7:0.00259803 8:0.00197981 9:0.00257799 10:0.0190466 11:0.108258 12:0.54949 13:0.00151804 14:0.0012217 15:0.00376493 16:0.0264193 17:0.612076 18:0.0286643 19:0.00638445 20:0.00220641 21:0.00667212 22:0.00112934 23:0.00624181 24:0.31791 25:0.343223 26:0.0041579 27:0.0028786 28:0.000700869 
1 1:0.716542 2:0.144944 3:0.110047 4:0.0555931 5:0.011409 7:0.0101981 8:0.0278244 9:0.0299585 10:0.141239 11:0.408754 12:0.23012 13:0.0039662 14:0.00525825 15:0.310849 16:0.218844 17:0.28277 18:0.0932546 19:0.0253889 20:0.00520226 21:0.031787 22:0.00916242 23:0.106463 24:0.335206 25:0.294442 26:0.0780289 27:0.0547506 28:0.00259322 
1 1:0.464365 2:0.0476282 3:0.0266075 4:0.0273202 5:0.000468375 7:0.0123251 8:0.183099 9:0.12286 10:0.462767 11:0.168998 12:0.0344066 13:0.00673025 14:0.00553891 15:0.0062819 16:0.0206461 17:0.0933566 18:0.506854 19:0.26483 20:0.0680869 21:0.0225341 22:0.003663 23:0.00803571 24:0.16004 25:0.493527 26:0.0865249 27:0.0138211 28:0.00497617 
1 1:0.764123 2:0.071309 3:0.0759304 4:0.0766517 5:0.0253279 7:0.0217888 8:0.0179855 9:0.0180972 10:0.0742768 11:0.330971 12:0.343394 13:0.0105736 14:0.0149988 15:0.0855138 16:0.361956 17:0.281862 18:0.0719261 19:0.0266515 20:0.0117243 21:0.0782401 22:0.00832769 23:0.0278506 24:0.437329 25:0.275599 26:0.0206906 27:0.0204362 28:0.0053266 
1 1:0.476065 2:0.0317828 3:0.0198997 4:0.0109817 5:0.00246406 7:0.103568 8:0.195119 9:0.168999 10:0.252968 11:0.104967 12:0.154914 13:0.000500162 14:0.0010566 15:0.00954204 16:0.0380983 17:0.161683 18:0.179259 19:0.351037 20:0.190419 21:0.00535029 22:0.00305414 23:0.0396543 24:0.30847 25:0.30444 26:0.167118 27:0.02667 28:0.000490608 
1 1:0.742245 2:0.0415653 3:0.0221804 4:0.0345775 5:7.12744e-005 7:0.00423999 8:0.029744 9:0.0474666 10:0.125511 11:0.380391 12:0.260746 13:0.0011495 14:0.00159316 15:0.0655253 16:0.449424 17:0.204983 18:0.124617 19:0.0168604 20:0.00120644 21:0.0753446 22:0.0985083 23:0.151606 24:0.393163 25:0.239374 26:0.00207604 27:0.00144883 28:0.000280348 
1 1:0.714306 2:0.0811974 3:0.0592358 4:0.098256 5:0.010177 7:0.0154773 8:0.0132634 9:0.0209056 10:0.121161 11:0.443773 12:0.144876 13:0.00508937 14:0.00341745 15:0.00445903 16:0.00306573 17:0.416718 18:0.263906 19:0.0556436 20:0.0197443 21:0.0287027 22:0.00417366 23:0.0164564 24:0.604 25:0.0426552 26:0.0165444 27:0.0156893 28:0.00504626 
1 1:0.525251 2:0.0120812 3:0.00378253 4:0.00236485 5:6.61834e-005 7:0.00136483 8:0.149309 9:0.11423 10:0.218517 11:0.367386 12:0.00300858 13:0.00108807 14:0.00198938 15:0.00370183 16:0.00558291 17:0.242898 18:0.239776 19:0.275711 20:0.069937 21:0.00151067 22:0.0050084 23:0.160886 24:0.410589 25:0.0928299 26:0.134948 27:0.00141071 28:0.000350435 
1 1:0.463432 2:0.0339347 3:0.0204928 4:0.0192682 5:6.61834e-005 7:0.0028128 8:0.0709589 9:0.192214 10:0.437559 11:0.12574 12:0.0377272 13:0.003896 14:0.0107972 15:0.0162797 16:0.0176247 17:0.0740228 18:0.266262 19:0.458513 20:0.0617389 21:0.00125889 22:0.000451738 23:0.00731488 24:0.414504 25:0.23899 26:0.0112467 27:0.00173479 28:0.000280348 
1 1:0.800633 2:0.0172423 3:0.0217372 4:0.0223895 5:6.61834e-005 7:0.00106 8:0.0025751 9:0.00788763 10:0.0596105 11:0.456925 12:0.208272 13:0.00130744 14:0.00540683 15:0.049505 16:0.419373 17:0.204575 18:0.0534383 19:0.0185637 20:0.00279343 21:0.00623151 22:0.00233725 23:0.0275721 24:0.584582 25:0.0693782 26:0.00547795 27:0.002097 28:0.000420521 
1 1:0.454056 2:0.107659 3:0.141708 4:0.133863 5:0.00191423 7:0.0364487 8:0.147249 9:0.180028 10:0.232256 11:0.182323 12:0.0603596 13:0.0724446 14:0.217561 15:0.0903444 16:0.0816954 17:0.12996 18:0.178689 19:0.132227 20:0.0485733 21:0.0708756 22:0.00833751 23:0.0212156 24:0.180844 25:0.352124 26:0.13806 27:0.0480784 28:0.0158396 
1 1:0.409414 2:0.0458896 3:0.0596677 4:0.0410737 5:0.296247 7:0.0104198 8:0.0424255 9:0.0794439 10:0.427309 11:0.381027 12:0.0384314 13:0.0141011 14:0.0205212 15:0.0283737 16:0.0355236 17:0.392236 18:0.611386 19:0.144621 20:0.0173881 21:0.0193869 22:0.0019248 23:0.00554554 24:0.292604 25:0.673814 26:0.0411021 27:0.014374 28:0.00378469 
1 1:0.375031 2:0.205531 3:0.122614 4:0.107926 5:0.250871 7:0.0197381 8:0.0671598 9:0.0960472 10:0.200227 11:0.168255 12:0.106668 13:0.00776568 14:0.00634787 15:0.0087568 16:0.0508788 17:0.355449 18:0.214369 19:0.17263 20:0.0492008 21:0.0409769 22:0.00546013 23:0.0135485 24:0.249854 25:0.435729 26:0.0401949 27:0.0227047 28:0.00932156 
1 1:0.445962 2:0.0670292 3:0.0380827 4:0.0413992 5:0.00370627 7:0.0296938 8:0.29134 9:0.228097 10:0.409245 11:0.264232 12:0.0699014 13:0.00975755 14:0.0160141 15:0.0899307 16:0.170779 17:0.110794 18:0.329848 19:0.403131 20:0.154995 21:0.0380185 22:0.0125897 23:0.0297837 24:0.200253 25:0.678226 26:0.117072 27:0.020398 28:0.0058873 
-1 1:0.579163 2:0.0274142 3:0.0165939 4:0.0270234 5:1.52731e-005 7:0.00209921 8:0.00931716 9:0.0557597 10:0.449925 11:0.309607 12:0.0334024 13:0.000350991 14:0.0264316 15:0.106365 16:0.0740289 17:0.220604 18:0.384199 19:0.0524037 20:0.000133599 21:0.0389627 22:0.03991 23:0.277531 24:0.220155 25:0.286282 26:0.00990917 27:3.81272e-005 
-1 1:0.56325 2:0.041135 3:0.0164171 4:0.0276026 7:0.000519606 8:0.0341451 9:0.187784 10:0.21385 11:0.250983 12:0.103288 13:0.000859928 14:0.350982 15:0.173299 16:0.149832 17:0.142037 18:0.126403 19:0.0405341 20:0.00324686 21:0.000251778 22:0.000117845 23:0.00307176 24:0.178678 25:0.482909 26:0.00590247 27:0.000362208 28:0.000140174 
-1 1:0.694468 2:0.0743968 3:0.0497324 4:0.0951683 5:0.00160876 7:0.00506443 8:0.00553144 9:0.116103 10:0.114273 11:0.308153 12:0.197562 13:0.00436984 14:0.219699 15:0.0986455 16:0.202462 17:0.247675 18:0.0862611 19:0.0108095 20:0.00274485 21:0.0186316 22:0.00427187 23:0.0198394 24:0.157773 25:0.48791 26:0.0106361 27:0.00653881 28:0.00182226 
-1 1:0.68428 2:0.0232061 3:0.00807536 4:0.012078 5:7.63654e-005 7:0.0025911 8:0.102181 9:0.0341498 10:0.117787 11:0.335902 12:0.191929 13:0.000465063 14:0.000817216 15:0.0194206 16:0.203794 17:0.203463 18:0.222732 19:0.151303 20:0.00880943 21:0.00472084 22:0.00369246 23:0.0250901 24:0.50456 25:0.0836887 26:0.0984229 27:0.000876925 28:0.000280348 
-1 1:0.695719 2:0.0187725 3:0.00880949 4:0.0130545 7:0.00014549 8:0.000816004 9:0.0255708 10:0.330393 11:0.266691 12:0.184928 13:1.75496e-005 14:8.25471e-006 15:5.60884e-005 16:0.0604034 17:0.298891 18:0.205642 19:0.226118 20:0.0165136 21:6.29445e-005 22:9.82039e-005 23:0.13356 24:0.415418 25:0.187974 26:0.000942069 27:0.000438463 28:0.000140174 
-1 1:0.550567 2:0.0741201 3:0.0296313 4:0.0465549 5:0.00624669 7:0.0137038 8:0.100322 9:0.112326 10:0.355992 11:0.259497 12:0.105052 13:0.0211735 14:0.0340424 15:0.216186 16:0.0893796 17:0.182105 18:0.237791 19:0.168985 20:0.0579698 21:0.0774218 22:0.0521855 23:0.164654 24:0.141536 25:0.487045 26:0.0216967 27:0.00386991 28:0.000420521 
-1 1:0.72198 2:0.0097415 3:0.00865729 4:0.00743443 5:6.10923e-005 7:0.000741305 8:0.00482245 9:0.0141363 10:0.248752 11:0.434186 12:0.179699 13:0.000895027 14:0.0345872 15:0.408071 16:0.170288 17:0.262576 18:0.10387 19:0.0113098 20:0.00300395 21:0.000503556 22:0.000176767 23:0.00447248 24:0.622035 25:0.124422 26:0.00867634 27:0.00327894 28:0.000700869 
-1 1:0.548091 2:0.0547293 3:0.0107858 4:0.00294409 5:0.00261679 7:0.0143827 8:0.145015 9:0.134141 10:0.211562 11:0.22607 12:0.129113 13:0.0930477 14:0.226815 15:0.174694 16:0.0590585 17:0.276817 18:0.0923533 19:0.0416895 20:0.0191937 21:0.0180651 22:0.000117845 23:0.000163827 24:0.0609439 25:0.565524 26:0.0925379 27:0.0131348 28:0.000490608 
-1 1:0.322421 2:0.114439 3:0.0486066 4:0.118362 5:0.399809 7:0.0295414 8:0.0337705 9:0.0780482 10:0.532621 11:0.218827 12:0.0293776 13:0.0109597 14:0.0370141 15:0.0985403 16:0.0494764 17:0.439844 18:0.430313 19:0.138504 20:0.0419501 21:0.0842827 22:0.00546995 23:0.022346 24:0.179813 25:0.773787 26:0.0358393 27:0.0222091 28:0.00336417 
-1 1:0.382741 2:0.0609288 3:0.000602071 4:0.00321217 5:0.0903505 7:0.00324234 8:0.00125745 9:0.108903 10:0.835243 11:0.00193412 12:0.000932179 13:0.000930126 15:0.00026642 16:1.76954e-005 17:0.0727747 18:0.597547 19:0.346249 20:0.000995919 21:0.0132813 22:7.85631e-005 23:0.00018021 24:0.159349 25:0.565456 26:0.00184925 27:0.000667226 
